{"learner":{"attributes":{"scikit_learn":"{\"_estimator_type\": \"regressor\"}"},"feature_names":["transfers_balance","clean_sheets","points","bps","transfers_in","name","fixture","saves","transfers_out","round","value","position","own_goals","red_cards","goals_scored","element","creativity","ict_index","was_home","team_h_score","penalties_saved","opponent_team","yellow_cards","team","assists","goals_conceded","threat","GW","influence","team_a_score","minutes","penalties_missed","bonus","selected","rolling_bps","rolling_clean_sheets","cumulative_points","cumulative_minutes","cumulative_goals_conceded","match_count","avg_goals_conceded","team_x_strength","team_avg_points","team_total_goals","season_stage","start_hour","next_opponent_team_encoded"],"feature_types":["int","int","int","int","int","int","int","int","int","int","int","int","int","int","int","int","float","float","int","float","int","int","int","int","int","int","float","int","float","float","int","int","int","int","float","float","float","float","float","float","float","float","float","float","float","float","int"],"gradient_booster":{"model":{"gbtree_model_param":{"num_parallel_tree":"1","num_trees":"100"},"iteration_indptr":[0,1,2,3,4,5,6,7,8,9,10,11,12,13,14,15,16,17,18,19,20,21,22,23,24,25,26,27,28,29,30,31,32,33,34,35,36,37,38,39,40,41,42,43,44,45,46,47,48,49,50,51,52,53,54,55,56,57,58,59,60,61,62,63,64,65,66,67,68,69,70,71,72,73,74,75,76,77,78,79,80,81,82,83,84,85,86,87,88,89,90,91,92,93,94,95,96,97,98,99,100],"tree_info":[0,0,0,0,0,0,0,0,0,0,0,0,0,0,0,0,0,0,0,0,0,0,0,0,0,0,0,0,0,0,0,0,0,0,0,0,0,0,0,0,0,0,0,0,0,0,0,0,0,0,0,0,0,0,0,0,0,0,0,0,0,0,0,0,0,0,0,0,0,0,0,0,0,0,0,0,0,0,0,0,0,0,0,0,0,0,0,0,0,0,0,0,0,0,0,0,0,0,0,0],"trees":[{"base_weights":[1.0191509E-8,-4.004599E-1,8.6199236E-1,-5.913923E-1,9.878591E-2,4.9403733E-1,1.3161186E0,-4.2121106E-1,-6.081613E-1,8.889352E-2,4.5290476E-1,4.891325E-1,7.5817263E-1,1.0526844E0,1.5949599E0,-5.752292E-1,-2.3948756E-1,-6.082948E-1,-2.3032832E-1,8.722093E-2,6.6419506E-1,2.9626986E-1,6.6929454E-1,1.6032697E-1,4.920697E-1,1.0858604E-1,7.988559E-1,5.6589717E-1,1.1135453E0,6.935751E-1,1.6594814E0,-5.862884E-1,-1.6887845E-1,-2.983227E-1,-1.1548937E-2,-2.729776E-1,-6.0838217E-1,-3.1031758E-1,7.343623E-2,8.534911E-2,4.8626846E-1,9.959035E-1,6.1018027E-2,-2.1793526E-1,3.4742028E-1,3.7506118E-1,8.514859E-1,-4.0950426E-1,2.3618978E-1,4.9065927E-1,9.6071595E-1,1.2589069E-1,-3.4860054E-1,3.76964E-1,8.5077745E-1,2.8103006E-1,7.154155E-1,9.921226E-1,1.1785235E0,-1.4132711E-1,7.1155775E-1,1.5183222E0,5.85544E-1,-1.7948604E-1,-1.428093E-1,2.1080617E-2,-1.19593054E-1,-9.344073E-2,5.7404194E-2,-1.0410437E-1,4.9636144E-2,-9.719702E-2,1.2616459E-2,-8.189328E-2,-1.825409E-1,-1.3703343E-1,-4.8287287E-2,2.4868837E-2,6.7454286E-2,4.5085125E-2,2.4033332E-1,2.7253319E-2,3.744009E-1,-4.6885464E-2,2.0777622E-1,-1.0938909E-1,4.4514243E-2,3.6336586E-2,1.5037893E-1,5.0454773E-2,1.8104556E-1,2.703683E-1,-5.4637507E-2,-1.5987234E-1,1.6821945E-2,-6.836879E-2,9.404148E-2,7.84938E-2,1.4821297E-1,4.239007E-1,2.043599E-1,1.2616459E-2,-1.3703343E-1,1.4788926E-1,-1.2180749E-1,1.1973995E-1,2.743997E-1,-9.932468E-3,1.21050455E-1,1.7768598E-1,2.7337775E-1,2.6916586E-2,2.9874513E-1,3.5394493E-1,4.933458E-2,9.791497E-2,-1.3703343E-1,2.1872444E-1,-2.8014032E-2,4.752725E-1,4.3599123E-1],"categories":[],"categories_nodes":[],"categories_segments":[],"categories_sizes":[],"default_left":[0,0,0,0,0,0,0,0,0,0,0,0,0,0,0,0,0,0,0,0,0,0,0,0,0,0,0,0,0,0,0,0,0,0,0,0,0,0,0,0,0,0,0,0,0,0,0,0,0,0,0,0,0,0,0,0,0,0,0,0,0,0,0,0,0,0,0,0,0,0,0,0,0,0,0,0,0,0,0,0,0,0,0,0,0,0,0,0,0,0,0,0,0,0,0,0,0,0,0,0,0,0,0,0,0,0,0,0,0,0,0,0,0,0,0,0,0,0,0,0,0],"id":0,"left_children":[1,3,5,7,9,11,13,15,17,19,21,23,25,27,29,31,33,35,37,39,41,43,45,47,49,51,53,55,57,59,61,63,65,67,69,71,73,75,-1,77,79,81,83,85,87,89,91,93,95,97,99,-1,101,103,105,107,109,111,113,115,117,119,-1,-1,-1,-1,-1,-1,-1,-1,-1,-1,-1,-1,-1,-1,-1,-1,-1,-1,-1,-1,-1,-1,-1,-1,-1,-1,-1,-1,-1,-1,-1,-1,-1,-1,-1,-1,-1,-1,-1,-1,-1,-1,-1,-1,-1,-1,-1,-1,-1,-1,-1,-1,-1,-1,-1,-1,-1,-1,-1],"loss_changes":[1.8238637E4,3.4389023E3,2.799913E3,7.421484E1,3.492399E1,1.1625732E1,5.493164E2,6.5467804E1,1.0585938E0,9.2864E0,8.98703E0,8.703857E0,4.3266144E0,1.1372754E2,2.1066406E2,5.5992737E0,1.4439991E1,5.283203E-1,4.560033E-1,7.1919174E0,5.541442E0,4.257701E0,5.738209E0,3.641499E0,5.486328E0,1.7105696E0,3.1184158E0,1.8156464E1,2.5893066E1,3.7789383E0,1.3725586E2,1.3476257E0,1.95118E0,5.5700073E0,1.3239407E1,1.421901E-1,5.3027344E-1,1.23356104E-1,0E0,3.2800598E0,4.6398096E0,3.9935932E0,1.6179012E0,8.6015517E-1,4.9873695E0,2.0250258E0,3.7116776E0,6.044208E-1,2.689612E0,6.8359375E0,2.324421E0,0E0,2.3051047E-1,1.9258659E0,3.6457367E0,5.7843037E0,6.260437E0,3.9179688E0,2.7282715E0,1.0343227E0,3.4533997E0,7.538574E0,0E0,0E0,0E0,0E0,0E0,0E0,0E0,0E0,0E0,0E0,0E0,0E0,0E0,0E0,0E0,0E0,0E0,0E0,0E0,0E0,0E0,0E0,0E0,0E0,0E0,0E0,0E0,0E0,0E0,0E0,0E0,0E0,0E0,0E0,0E0,0E0,0E0,0E0,0E0,0E0,0E0,0E0,0E0,0E0,0E0,0E0,0E0,0E0,0E0,0E0,0E0,0E0,0E0,0E0,0E0,0E0,0E0,0E0,0E0],"parents":[2147483647,0,0,1,1,2,2,3,3,4,4,5,5,6,6,7,7,8,8,9,9,10,10,11,11,12,12,13,13,14,14,15,15,16,16,17,17,18,18,19,19,20,20,21,21,22,22,23,23,24,24,25,25,26,26,27,27,28,28,29,29,30,30,31,31,32,32,33,33,34,34,35,35,36,36,37,37,39,39,40,40,41,41,42,42,43,43,44,44,45,45,46,46,47,47,48,48,49,49,50,50,52,52,53,53,54,54,55,55,56,56,57,57,58,58,59,59,60,60,61,61],"right_children":[2,4,6,8,10,12,14,16,18,20,22,24,26,28,30,32,34,36,38,40,42,44,46,48,50,52,54,56,58,60,62,64,66,68,70,72,74,76,-1,78,80,82,84,86,88,90,92,94,96,98,100,-1,102,104,106,108,110,112,114,116,118,120,-1,-1,-1,-1,-1,-1,-1,-1,-1,-1,-1,-1,-1,-1,-1,-1,-1,-1,-1,-1,-1,-1,-1,-1,-1,-1,-1,-1,-1,-1,-1,-1,-1,-1,-1,-1,-1,-1,-1,-1,-1,-1,-1,-1,-1,-1,-1,-1,-1,-1,-1,-1,-1,-1,-1,-1,-1,-1,-1],"split_conditions":[2E0,1E0,1.2E1,6.0198E4,5.3333335E0,1.38058E6,3.1E1,1.69E2,2.93E2,1.38058E6,3.18567E5,6.5E1,8.8E1,9.58E2,6.0198E4,3.8E1,1.0676E4,-1E0,5.27E2,8.5E1,2.12E2,3.20442E-1,6.3E1,2.5E1,9.8E0,5.8E0,1.5E0,1.55418E5,1E0,6.1E1,1.72E1,8.7E1,1.20024E0,1E0,5.1E1,4.13E2,5.6E1,6E0,7.343623E-2,3.2E0,1E0,-1.4469E5,3.3333334E-1,3.1E0,1.96E2,3.3E1,3.8E1,6.3E1,4.5067E4,4.0425533E-1,1.1066452E0,1.2589069E-1,8.531E4,1.6E1,4.4E1,5.4E0,9.13436E5,1.111E3,3E0,1.3E1,3.19E2,3.052E3,5.85544E-1,-1.7948604E-1,-1.428093E-1,2.1080617E-2,-1.19593054E-1,-9.344073E-2,5.7404194E-2,-1.0410437E-1,4.9636144E-2,-9.719702E-2,1.2616459E-2,-8.189328E-2,-1.825409E-1,-1.3703343E-1,-4.8287287E-2,2.4868837E-2,6.7454286E-2,4.5085125E-2,2.4033332E-1,2.7253319E-2,3.744009E-1,-4.6885464E-2,2.0777622E-1,-1.0938909E-1,4.4514243E-2,3.6336586E-2,1.5037893E-1,5.0454773E-2,1.8104556E-1,2.703683E-1,-5.4637507E-2,-1.5987234E-1,1.6821945E-2,-6.836879E-2,9.404148E-2,7.84938E-2,1.4821297E-1,4.239007E-1,2.043599E-1,1.2616459E-2,-1.3703343E-1,1.4788926E-1,-1.2180749E-1,1.1973995E-1,2.743997E-1,-9.932468E-3,1.21050455E-1,1.7768598E-1,2.7337775E-1,2.6916586E-2,2.9874513E-1,3.5394493E-1,4.933458E-2,9.791497E-2,-1.3703343E-1,2.1872444E-1,-2.8014032E-2,4.752725E-1,4.3599123E-1],"split_indices":[2,2,3,43,34,33,3,4,15,33,33,30,5,39,43,9,4,3,36,10,15,40,10,38,17,17,16,33,24,5,17,4,41,26,10,36,39,46,0,16,28,0,35,17,43,30,9,30,33,40,41,0,4,46,15,17,33,4,29,2,15,37,0,0,0,0,0,0,0,0,0,0,0,0,0,0,0,0,0,0,0,0,0,0,0,0,0,0,0,0,0,0,0,0,0,0,0,0,0,0,0,0,0,0,0,0,0,0,0,0,0,0,0,0,0,0,0,0,0,0,0],"split_type":[0,0,0,0,0,0,0,0,0,0,0,0,0,0,0,0,0,0,0,0,0,0,0,0,0,0,0,0,0,0,0,0,0,0,0,0,0,0,0,0,0,0,0,0,0,0,0,0,0,0,0,0,0,0,0,0,0,0,0,0,0,0,0,0,0,0,0,0,0,0,0,0,0,0,0,0,0,0,0,0,0,0,0,0,0,0,0,0,0,0,0,0,0,0,0,0,0,0,0,0,0,0,0,0,0,0,0,0,0,0,0,0,0,0,0,0,0,0,0,0,0],"sum_hessian":[5.2834E4,3.6075E4,1.6759E4,2.6095E4,9.98E3,9.259E3,7.5E3,2.343E3,2.3752E4,9.71E3,2.7E2,9.093E3,1.66E2,3.859E3,3.641E3,1.267E3,1.076E3,2.3743E4,9E0,9.683E3,2.7E1,1.58E2,1.12E2,8.1E1,9.012E3,1E1,1.56E2,4.3E2,3.429E3,2.44E2,3.397E3,1.233E3,3.4E1,8.55E2,2.21E2,7E0,2.3736E4,8E0,1E0,9.639E3,4.4E1,1.7E1,1E1,1.4E1,1.44E2,4.4E1,6.8E1,9E0,7.2E1,8.987E3,2.5E1,6E0,4E0,1.8E1,1.38E2,1.49E2,2.81E2,1.201E3,2.228E3,5E0,2.39E2,2.295E3,1.102E3,1.108E3,1.25E2,1.7E1,1.7E1,8.33E2,2.2E1,7.6E1,1.45E2,6E0,1E0,7E0,2.3729E4,3E0,5E0,9.474E3,1.65E2,2.2E1,2.2E1,4E0,1.3E1,8E0,2E0,1E1,4E0,5.9E1,8.5E1,2.4E1,2E1,6.5E1,3E0,7E0,2E0,1E1,6.2E1,1.32E2,8.855E3,8E0,1.7E1,1E0,3E0,1.6E1,2E0,1.8E1,1.2E2,4.2E1,1.07E2,1.75E2,1.06E2,5E0,1.196E3,2.225E3,3E0,2E0,3E0,2.34E2,5E0,1.128E3,1.167E3],"tree_param":{"num_deleted":"0","num_feature":"47","num_nodes":"121","size_leaf_vector":"1"}},{"base_weights":[8.774273E-5,-2.8030702E-1,6.036391E-1,-4.1401184E-1,6.930135E-2,3.4595132E-1,9.2167485E-1,-2.9506588E-1,-4.2573228E-1,6.370663E-2,3.8988912E-1,3.421764E-1,5.215215E-1,7.3721355E-1,1.1169244E0,-4.029923E-1,-1.6772534E-1,-3.8471135E-1,-4.2646492E-1,6.1521653E-2,4.5016268E-1,-2.2047043E-1,4.499908E-1,8.314615E-2,3.441243E-1,4.509704E-1,7.9742813E-1,3.9743236E-1,7.7969414E-1,4.9421275E-1,1.1630687E0,-4.1066307E-1,-1.2102955E-1,-1.7899835E-1,6.423376E-1,-4.000355E-1,-3.4591272E-2,-1.467824E-1,-1.2794478E-1,5.977821E-2,3.42295E-1,3.1192167E-2,6.2124825E-1,1.19835354E-1,-4.9846774E-1,5.970133E-1,2.0480463E-1,-2.1622512E-1,1.930463E-1,5.5727E-1,3.4178782E-1,1.9167206E-1,5.299819E-1,3.5291272E-1,9.4357955E-1,-3.793873E-2,4.4954926E-1,6.9475675E-1,8.2514733E-1,5.561519E-1,2.7147186E-1,1.0641853E0,4.099752E-1,-1.270042E-1,-1.06568925E-1,2.0011567E-2,-9.711941E-2,-7.948176E-2,-2.9048702E-2,-4.8112318E-2,2.3345049E-1,-1.5424046E-2,-1.2179345E-1,-9.7413234E-2,9.7152814E-2,-7.677607E-2,1.072399E-2,1.8141925E-2,-6.0312074E-2,-2.703243E-2,2.0268194E-1,2.0429118E-1,-4.700604E-2,-4.5044657E-2,2.0691064E-1,1.14016505E-2,7.306498E-2,-1.6763762E-1,-5.7466544E-2,9.294939E-2,2.33018E-1,1.8893422E-1,3.5238065E-2,4.076694E-2,-1.0550606E-1,8.1081055E-3,1.413706E-1,4.583151E-2,2.0478658E-1,1.02789074E-1,-4.4290498E-2,1.0488973E-1,-8.567406E-2,3.09969E-1,1.4229995E-1,1.3107811E-1,-7.3084496E-2,3.077822E-1,5.7878416E-2,-5.0370704E-2,1.5883571E-1,1.1493292E-1,2.1707936E-1,5.8903736E-3,2.0977913E-1,2.4780913E-1,3.8234293E-2,1.0954228E-1,1.9826616E-1,-1.0307483E-2,1.1749747E-1,3.2140112E-1,1.8387368E-1],"categories":[],"categories_nodes":[],"categories_segments":[],"categories_sizes":[],"default_left":[0,0,0,0,0,0,0,0,0,0,0,0,0,0,0,0,0,0,0,0,0,0,0,0,0,0,0,0,0,0,0,0,0,0,0,0,0,0,0,0,0,0,0,0,0,0,0,0,0,0,0,0,0,0,0,0,0,0,0,0,0,0,0,0,0,0,0,0,0,0,0,0,0,0,0,0,0,0,0,0,0,0,0,0,0,0,0,0,0,0,0,0,0,0,0,0,0,0,0,0,0,0,0,0,0,0,0,0,0,0,0,0,0,0,0,0,0,0,0,0,0,0,0],"id":1,"left_children":[1,3,5,7,9,11,13,15,17,19,21,23,25,27,29,31,33,35,37,39,41,43,45,47,49,51,53,55,57,59,61,63,65,67,69,71,73,75,-1,77,79,81,83,85,87,89,91,93,95,97,99,101,103,105,107,109,111,113,115,117,119,121,-1,-1,-1,-1,-1,-1,-1,-1,-1,-1,-1,-1,-1,-1,-1,-1,-1,-1,-1,-1,-1,-1,-1,-1,-1,-1,-1,-1,-1,-1,-1,-1,-1,-1,-1,-1,-1,-1,-1,-1,-1,-1,-1,-1,-1,-1,-1,-1,-1,-1,-1,-1,-1,-1,-1,-1,-1,-1,-1,-1,-1],"loss_changes":[8.941577E3,1.6863767E3,1.3732295E3,3.6254395E1,1.7877075E1,5.9588623E0,2.6933252E2,3.2146973E1,5.5029297E-1,8.25668E0,6.3721104E0,4.546753E0,3.3972282E0,5.540576E1,1.0407666E2,2.69281E0,9.9499855E0,2.2771378E0,5.2246094E-2,4.7557144E0,3.9230118E0,1.5733997E0,5.501198E0,2.311907E0,4.291504E0,3.094473E0,2.135727E0,9.796532E0,1.2668945E1,3.3395119E0,6.676709E1,7.172699E-1,1.353491E0,7.480934E0,1.7602916E0,8.264694E-1,2.0809402E0,6.891075E-2,0E0,1.7697792E0,8.70837E0,2.1820538E0,2.1629572E0,7.173214E-2,5.958891E-2,4.7655563E0,2.1531832E0,9.540545E-1,2.3426855E0,4.763357E0,3.722046E0,2.9645514E0,2.8425102E0,6.5772724E-1,1.5331535E0,3.5546849E0,6.732727E0,3.6436768E0,1.2679443E0,3.6997833E0,2.1085835E0,6.7214355E0,0E0,0E0,0E0,0E0,0E0,0E0,0E0,0E0,0E0,0E0,0E0,0E0,0E0,0E0,0E0,0E0,0E0,0E0,0E0,0E0,0E0,0E0,0E0,0E0,0E0,0E0,0E0,0E0,0E0,0E0,0E0,0E0,0E0,0E0,0E0,0E0,0E0,0E0,0E0,0E0,0E0,0E0,0E0,0E0,0E0,0E0,0E0,0E0,0E0,0E0,0E0,0E0,0E0,0E0,0E0,0E0,0E0,0E0,0E0,0E0,0E0],"parents":[2147483647,0,0,1,1,2,2,3,3,4,4,5,5,6,6,7,7,8,8,9,9,10,10,11,11,12,12,13,13,14,14,15,15,16,16,17,17,18,18,19,19,20,20,21,21,22,22,23,23,24,24,25,25,26,26,27,27,28,28,29,29,30,30,31,31,32,32,33,33,34,34,35,35,36,36,37,37,39,39,40,40,41,41,42,42,43,43,44,44,45,45,46,46,47,47,48,48,49,49,50,50,51,51,52,52,53,53,54,54,55,55,56,56,57,57,58,58,59,59,60,60,61,61],"right_children":[2,4,6,8,10,12,14,16,18,20,22,24,26,28,30,32,34,36,38,40,42,44,46,48,50,52,54,56,58,60,62,64,66,68,70,72,74,76,-1,78,80,82,84,86,88,90,92,94,96,98,100,102,104,106,108,110,112,114,116,118,120,122,-1,-1,-1,-1,-1,-1,-1,-1,-1,-1,-1,-1,-1,-1,-1,-1,-1,-1,-1,-1,-1,-1,-1,-1,-1,-1,-1,-1,-1,-1,-1,-1,-1,-1,-1,-1,-1,-1,-1,-1,-1,-1,-1,-1,-1,-1,-1,-1,-1,-1,-1,-1,-1,-1,-1,-1,-1,-1,-1,-1,-1],"split_conditions":[2E0,1E0,1.2E1,6.0198E4,6.308E3,1.160217E6,3.1E1,1.69E2,1.8E1,4.7E0,4.6E1,2E0,3E0,9.58E2,1.602E3,3.8E1,2.4E0,5.83942E5,-1E0,1.4980909E0,4.6E0,1.42E2,5.624E3,7.3E1,3E0,-5.0633E4,2E0,2.3E1,1E0,6.096E3,1.59E1,1.7E1,8.14E2,5.5E1,1E0,4.4084507E-1,8.7E1,4.13E2,-1.2794478E-1,1.57639E5,4.258E3,5.4E1,1.3E1,4.6E0,1.1E1,2.86962E5,5.1E1,5.6E1,2.74E2,7.6E1,3.8E1,-8.1128E4,-1E0,1E0,3E0,8E1,1.39621E5,1E0,3E0,4.52E2,8.2E1,2.62E2,4.099752E-1,-1.270042E-1,-1.06568925E-1,2.0011567E-2,-9.711941E-2,-7.948176E-2,-2.9048702E-2,-4.8112318E-2,2.3345049E-1,-1.5424046E-2,-1.2179345E-1,-9.7413234E-2,9.7152814E-2,-7.677607E-2,1.072399E-2,1.8141925E-2,-6.0312074E-2,-2.703243E-2,2.0268194E-1,2.0429118E-1,-4.700604E-2,-4.5044657E-2,2.0691064E-1,1.14016505E-2,7.306498E-2,-1.6763762E-1,-5.7466544E-2,9.294939E-2,2.33018E-1,1.8893422E-1,3.5238065E-2,4.076694E-2,-1.0550606E-1,8.1081055E-3,1.413706E-1,4.583151E-2,2.0478658E-1,1.02789074E-1,-4.4290498E-2,1.0488973E-1,-8.567406E-2,3.09969E-1,1.4229995E-1,1.3107811E-1,-7.3084496E-2,3.077822E-1,5.7878416E-2,-5.0370704E-2,1.5883571E-1,1.1493292E-1,2.1707936E-1,5.8903736E-3,2.0977913E-1,2.4780913E-1,3.8234293E-2,1.0954228E-1,1.9826616E-1,-1.0307483E-2,1.1749747E-1,3.2140112E-1,1.8387368E-1],"split_indices":[2,2,3,43,0,33,3,4,45,17,10,46,19,39,39,9,28,33,3,41,28,38,37,30,23,0,3,30,24,37,17,4,5,10,26,40,6,36,0,8,4,6,15,16,23,33,10,10,38,30,9,0,3,3,29,10,4,29,29,5,15,36,0,0,0,0,0,0,0,0,0,0,0,0,0,0,0,0,0,0,0,0,0,0,0,0,0,0,0,0,0,0,0,0,0,0,0,0,0,0,0,0,0,0,0,0,0,0,0,0,0,0,0,0,0,0,0,0,0,0,0,0,0],"split_type":[0,0,0,0,0,0,0,0,0,0,0,0,0,0,0,0,0,0,0,0,0,0,0,0,0,0,0,0,0,0,0,0,0,0,0,0,0,0,0,0,0,0,0,0,0,0,0,0,0,0,0,0,0,0,0,0,0,0,0,0,0,0,0,0,0,0,0,0,0,0,0,0,0,0,0,0,0,0,0,0,0,0,0,0,0,0,0,0,0,0,0,0,0,0,0,0,0,0,0,0,0,0,0,0,0,0,0,0,0,0,0,0,0,0,0,0,0,0,0,0,0,0,0],"sum_hessian":[5.2834E4,3.6075E4,1.6759E4,2.6095E4,9.98E3,9.259E3,7.5E3,2.343E3,2.3752E4,9.81E3,1.7E2,9.067E3,1.92E2,3.859E3,3.641E3,1.267E3,1.076E3,4.26E2,2.3326E4,9.756E3,5.4E1,1.5E1,1.55E2,6.8E1,8.999E3,1.55E2,3.7E1,4.3E2,3.429E3,2.52E2,3.389E3,1.233E3,3.4E1,1.062E3,1.4E1,4.08E2,1.8E1,2E0,2.3324E4,9.697E3,5.9E1,1.6E1,3.8E1,7E0,8E0,9.6E1,5.9E1,1.8E1,5E1,9.5E1,8.904E3,3.7E1,1.18E2,1E1,2.7E1,4.6E1,3.84E2,1.201E3,2.228E3,1.96E2,5.6E1,2.285E3,1.104E3,9.98E2,2.35E2,1.8E1,1.6E1,5.18E2,5.44E2,2E0,1.2E1,7E0,4.01E2,1E1,8E0,1E0,1E0,9.672E3,2.5E1,2.6E1,3.3E1,3E0,1.3E1,3E0,3.5E1,5E0,2E0,6E0,2E0,3.8E1,5.8E1,9E0,5E1,5E0,1.3E1,3.2E1,1.8E1,2.3E1,7.2E1,8.889E3,1.5E1,2.8E1,9E0,1E1,1.08E2,9E0,1E0,2.4E1,3E0,3.8E1,8E0,3.11E2,7.3E1,8E0,1.193E3,2.225E3,3E0,7.1E1,1.25E2,1.6E1,4E1,2.248E3,3.7E1],"tree_param":{"num_deleted":"0","num_feature":"47","num_nodes":"123","size_leaf_vector":"1"}},{"base_weights":[1.3443897E-4,-1.962067E-1,4.227599E-1,-2.8982997E-1,4.859732E-2,2.4230514E-1,6.454753E-1,-2.0664589E-1,-2.9802656E-1,4.312439E-2,2.4453478E-1,2.4099076E-1,6.258371E-1,5.532457E-1,8.411512E-1,-2.571575E-1,-6.038075E-2,-1.0342559E-1,-2.9809597E-1,4.046808E-2,1.7460835E-1,4.8201555E-1,1.5618989E-1,-8.2702175E-2,2.4244402E-1,2.0272957E-1,7.8971153E-1,2.8186017E-1,5.859814E-1,3.9250678E-1,8.687574E-1,1.0178283E0,-2.5994232E-1,-8.326599E-2,2.8207788E-1,-2.3087783E-1,2.0022199E-2,-2.9812256E-1,1.1660178E-2,-1.5599675E-1,4.183521E-2,-1.9381103E-1,2.4134438E-1,-2.749135E-1,5.539034E-1,-5.5417763E-3,2.7932677E-1,-4.4705322E-1,7.794001E-2,3.3262303E-1,2.3694119E-1,2.4470447E-1,-5.2468613E-2,9.898856E-1,3.1567124E-1,1.1922755E-1,3.678146E-1,2.1314609E-1,5.458511E-1,9.02394E-2,4.666063E-1,7.824464E-1,2.8740788E-1,3.602326E-1,7.0348114E-2,-8.0425814E-2,4.4566393E-3,-9.202564E-2,-1.6248804E-2,1.562218E-1,-8.352504E-2,-9.113689E-2,9.11539E-3,-3.278681E-2,5.5729065E-2,-8.945089E-2,-3.6371782E-2,-4.93625E-2,5.460958E-2,1.03460826E-1,-6.930833E-2,1.210759E-2,6.0668167E-2,-1.2242909E-1,3.5340324E-2,-5.5704735E-2,8.869055E-2,-1.5551168E-1,-2.215667E-2,1.8171055E-2,1.8593085E-1,1.6724862E-2,-1.4491796E-1,1.3078468E-1,3.1870585E-2,-1.6844572E-1,-4.5499235E-2,1.7942005E-1,-1.5002408E-2,3.2793026E-2,1.1485828E-1,-1.98657E-2,7.15277E-2,-9.328812E-2,4.944557E-2,2.736388E-2,3.142684E-1,1.2717605E-1,3.0432694E-2,2.6354918E-2,1.8826477E-1,1.20581575E-1,-9.086116E-2,1.456223E-1,1.7328015E-1,6.40709E-2,-1.2543647E-1,2.600758E-1,1.174914E-1,2.3639335E-1,7.0775636E-2],"categories":[],"categories_nodes":[],"categories_segments":[],"categories_sizes":[],"default_left":[0,0,0,0,0,0,0,0,0,0,0,0,0,0,0,0,0,0,0,0,0,0,0,0,0,0,0,0,0,0,0,0,0,0,0,0,0,0,0,0,0,0,0,0,0,0,0,0,0,0,0,0,0,0,0,0,0,0,0,0,0,0,0,0,0,0,0,0,0,0,0,0,0,0,0,0,0,0,0,0,0,0,0,0,0,0,0,0,0,0,0,0,0,0,0,0,0,0,0,0,0,0,0,0,0,0,0,0,0,0,0,0,0,0,0,0,0,0,0,0,0],"id":2,"left_children":[1,3,5,7,9,11,13,15,17,19,21,23,25,27,29,31,33,35,37,39,41,43,45,47,49,51,53,55,57,59,61,63,65,67,69,71,73,75,77,79,81,83,85,87,89,91,93,95,97,99,101,-1,103,105,107,109,111,-1,113,115,117,119,-1,-1,-1,-1,-1,-1,-1,-1,-1,-1,-1,-1,-1,-1,-1,-1,-1,-1,-1,-1,-1,-1,-1,-1,-1,-1,-1,-1,-1,-1,-1,-1,-1,-1,-1,-1,-1,-1,-1,-1,-1,-1,-1,-1,-1,-1,-1,-1,-1,-1,-1,-1,-1,-1,-1,-1,-1,-1,-1],"loss_changes":[4.384266E3,8.268523E2,6.734287E2,1.7731445E1,1.0692606E1,4.517212E0,1.34906E2,1.7302147E1,2.9003906E-1,3.384615E0,5.6103497E0,4.3619995E0,1.9893332E0,4.515222E1,2.9396362E1,6.4497147E0,4.7493486E0,1.6195963E-1,1.9897461E-1,2.5635319E0,4.7674494E0,4.1245003E0,3.9646592E0,2.4931095E0,4.48114E0,1.6070398E0,1.775115E0,7.658577E0,2.2350952E1,3.1159916E0,1.667102E1,2.916603E-1,3.8956528E0,3.664755E0,5.228183E0,1.04476094E-1,1.488956E-1,1.616211E-1,1.2001128E-1,2.559987E0,2.231079E0,2.0512967E0,3.833826E0,3.043605E-1,2.1395512E0,2.573221E0,3.0171118E0,3.5427022E-1,2.0263844E0,5.8592186E0,3.914856E0,0E0,5.0058764E-1,6.819229E-1,1.4251691E-1,3.0072758E0,8.360847E0,0E0,6.3326416E0,1.9074906E0,3.0517025E0,3.3057861E0,0E0,0E0,0E0,0E0,0E0,0E0,0E0,0E0,0E0,0E0,0E0,0E0,0E0,0E0,0E0,0E0,0E0,0E0,0E0,0E0,0E0,0E0,0E0,0E0,0E0,0E0,0E0,0E0,0E0,0E0,0E0,0E0,0E0,0E0,0E0,0E0,0E0,0E0,0E0,0E0,0E0,0E0,0E0,0E0,0E0,0E0,0E0,0E0,0E0,0E0,0E0,0E0,0E0,0E0,0E0,0E0,0E0,0E0,0E0],"parents":[2147483647,0,0,1,1,2,2,3,3,4,4,5,5,6,6,7,7,8,8,9,9,10,10,11,11,12,12,13,13,14,14,15,15,16,16,17,17,18,18,19,19,20,20,21,21,22,22,23,23,24,24,25,25,26,26,27,27,28,28,29,29,30,30,31,31,32,32,33,33,34,34,35,35,36,36,37,37,38,38,39,39,40,40,41,41,42,42,43,43,44,44,45,45,46,46,47,47,48,48,49,49,50,50,52,52,53,53,54,54,55,55,56,56,58,58,59,59,60,60,61,61],"right_children":[2,4,6,8,10,12,14,16,18,20,22,24,26,28,30,32,34,36,38,40,42,44,46,48,50,52,54,56,58,60,62,64,66,68,70,72,74,76,78,80,82,84,86,88,90,92,94,96,98,100,102,-1,104,106,108,110,112,-1,114,116,118,120,-1,-1,-1,-1,-1,-1,-1,-1,-1,-1,-1,-1,-1,-1,-1,-1,-1,-1,-1,-1,-1,-1,-1,-1,-1,-1,-1,-1,-1,-1,-1,-1,-1,-1,-1,-1,-1,-1,-1,-1,-1,-1,-1,-1,-1,-1,-1,-1,-1,-1,-1,-1,-1,-1,-1,-1,-1,-1,-1],"split_conditions":[2E0,1E0,1.2E1,6.0198E4,5.3333335E0,9.8E0,3.7E1,3.3333334E-1,0E0,3.2E0,5E0,2.5E1,2.748E3,2.2E1,1.7E1,-3.67479E5,1.297721E6,5.144558E-1,3.192352E6,3.3E1,1.3E1,5E0,1.103E4,7E1,2E0,1.2683E4,1.287E3,7.9E1,4.9E1,1E0,2.42E1,1.66E2,3.8E1,-4.7998E4,1.3E1,4.13E2,1.4E1,2.93E2,1.49E2,3E0,1.3667988E0,5.3E1,2.7E1,6.115E3,6.4E1,2.6046E4,3.8096E4,1E0,6.6E1,7.1E1,2.851E3,2.4470447E-1,1E1,-2E0,1.3028E4,1.445E3,3.7E1,2.1314609E-1,3.3333334E-1,2.69E2,7.1E1,2.5E1,2.8740788E-1,3.602326E-1,7.0348114E-2,-8.0425814E-2,4.4566393E-3,-9.202564E-2,-1.6248804E-2,1.562218E-1,-8.352504E-2,-9.113689E-2,9.11539E-3,-3.278681E-2,5.5729065E-2,-8.945089E-2,-3.6371782E-2,-4.93625E-2,5.460958E-2,1.03460826E-1,-6.930833E-2,1.210759E-2,6.0668167E-2,-1.2242909E-1,3.5340324E-2,-5.5704735E-2,8.869055E-2,-1.5551168E-1,-2.215667E-2,1.8171055E-2,1.8593085E-1,1.6724862E-2,-1.4491796E-1,1.3078468E-1,3.1870585E-2,-1.6844572E-1,-4.5499235E-2,1.7942005E-1,-1.5002408E-2,3.2793026E-2,1.1485828E-1,-1.98657E-2,7.15277E-2,-9.328812E-2,4.944557E-2,2.736388E-2,3.142684E-1,1.2717605E-1,3.0432694E-2,2.6354918E-2,1.8826477E-1,1.20581575E-1,-9.086116E-2,1.456223E-1,1.7328015E-1,6.40709E-2,-1.2543647E-1,2.600758E-1,1.174914E-1,2.3639335E-1,7.0775636E-2],"split_indices":[2,2,3,43,34,17,3,34,3,16,23,38,37,23,23,0,33,40,33,6,30,30,8,30,44,8,5,30,10,29,16,6,9,0,21,36,34,15,36,21,41,10,15,4,36,0,8,1,6,30,8,0,21,3,8,5,9,0,35,15,30,34,0,0,0,0,0,0,0,0,0,0,0,0,0,0,0,0,0,0,0,0,0,0,0,0,0,0,0,0,0,0,0,0,0,0,0,0,0,0,0,0,0,0,0,0,0,0,0,0,0,0,0,0,0,0,0,0,0,0,0],"split_type":[0,0,0,0,0,0,0,0,0,0,0,0,0,0,0,0,0,0,0,0,0,0,0,0,0,0,0,0,0,0,0,0,0,0,0,0,0,0,0,0,0,0,0,0,0,0,0,0,0,0,0,0,0,0,0,0,0,0,0,0,0,0,0,0,0,0,0,0,0,0,0,0,0,0,0,0,0,0,0,0,0,0,0,0,0,0,0,0,0,0,0,0,0,0,0,0,0,0,0,0,0,0,0,0,0,0,0,0,0,0,0,0,0,0,0,0,0,0,0,0,0],"sum_hessian":[5.2834E4,3.6075E4,1.6759E4,2.6095E4,9.98E3,9.259E3,7.5E3,2.343E3,2.3752E4,9.71E3,2.7E2,9.229E3,3E1,5.1E3,2.4E3,1.741E3,6.02E2,9E0,2.3743E4,9.519E3,1.91E2,7.2E1,1.98E2,4.1E1,9.188E3,9E0,2.1E1,5.5E2,4.55E3,1.4E2,2.26E3,3E0,1.738E3,5.65E2,3.7E1,4E0,5E0,2.3741E4,2E0,6.5E1,9.454E3,2.9E1,1.62E2,6E0,6.6E1,8.6E1,1.12E2,1.2E1,2.9E1,5.25E2,8.663E3,2E0,7E0,1.4E1,7E0,1.91E2,3.59E2,1.105E3,3.445E3,2.8E1,1.12E2,1.154E3,1.106E3,2E0,1E0,1.688E3,5E1,6.4E1,5.01E2,2.6E1,1.1E1,3E0,1E0,3E0,2E0,2.3734E4,7E0,1E0,1E0,8E0,5.7E1,9.369E3,8.5E1,1.7E1,1.2E1,1.8E1,1.44E2,2E0,4E0,8E0,5.8E1,7.7E1,9E0,5.8E1,5.4E1,8E0,4E0,5E0,2.4E1,9.7E1,4.28E2,4.2E1,8.621E3,3E0,4E0,1E0,1.3E1,4E0,3E0,1.81E2,1E1,3.42E2,1.7E1,1.192E3,2.253E3,2.3E1,5E0,1.6E1,9.6E1,1.142E3,1.2E1],"tree_param":{"num_deleted":"0","num_feature":"47","num_nodes":"121","size_leaf_vector":"1"}},{"base_weights":[1.469158E-4,-1.4603898E-1,2.7879342E-1,-2.0337337E-1,2.7929932E-2,1.5666814E-1,4.5596758E-1,-1.4922321E-1,-2.0864281E-1,2.4802452E-2,1.9050229E-1,4.624203E-2,1.7075287E-1,3.9220336E-1,5.893709E-1,-1.9878082E-1,-6.2452637E-2,-1.8400797E-1,-6.273159E-2,-9.667399E-2,2.7857026E-2,3.1436116E-1,-9.122912E-3,3.5544463E-2,4.8398533E-1,-2.0174621E-1,1.7175215E-1,2.061732E-1,4.125447E-1,2.508794E-1,6.0725605E-1,-2.0164464E-1,4.2979085E-1,-1.348984E-1,2.4910139E-2,-1.8914112E-1,3.065652E-1,-1.864762E-1,9.375564E-2,-4.8431596E-1,2.8352283E-2,1.3366343E-1,4.6581358E-1,-3.1372505E-1,1.0124644E-1,2.9330237E-2,5.2078456E-1,6.6082203E-1,1.345415E-1,-3.7109756E-1,5.8374906E-1,1.6935588E-1,3.0025518E-1,2.3943321E-1,-1.4169547E-1,4.9946606E-1,3.8401893E-1,1.4295869E-1,4.3236694E-1,5.4737175E-1,2.0099996E-1,-6.1102558E-2,9.802069E-2,3.6233884E-1,-3.6891136E-2,-7.8133285E-2,-2.4632886E-2,2.2976708E-1,2.1180569E-3,-6.26895E-2,-3.844327E-2,-6.4329945E-2,2.1761255E-1,-1.067113E-1,-2.6875462E-2,1.458389E-1,-5.718775E-3,-1.6729367E-1,4.3487013E-3,8.198219E-3,7.1154416E-2,-4.8806705E-3,1.8774903E-1,1.544285E-1,-1.613672E-1,-3.6078364E-2,-1.7187655E-1,6.6779606E-2,-3.779959E-2,2.006138E-1,8.138034E-3,7.587634E-2,3.582536E-1,3.3840794E-2,2.398321E-1,6.7169145E-2,-5.3511783E-2,-8.10891E-3,-1.589582E-1,1.9988775E-1,3.803629E-2,1.581265E-1,5.055974E-2,1.7032886E-1,7.20493E-2,5.6733422E-2,1.3576944E-1,6.0546502E-2,-9.790084E-2,1.5002862E-1,-3.0237133E-2,1.024744E-1,1.2173513E-1,8.56365E-2,-5.6865584E-2,1.8950894E-1,3.7905905E-2,-5.1459495E-2,1.6555388E-1],"categories":[],"categories_nodes":[],"categories_segments":[],"categories_sizes":[],"default_left":[0,0,0,0,0,0,0,0,0,0,0,0,0,0,0,0,0,0,0,0,0,0,0,0,0,0,0,0,0,0,0,0,0,0,0,0,0,0,0,0,0,0,0,0,0,0,0,0,0,0,0,0,0,0,0,0,0,0,0,0,0,0,0,0,0,0,0,0,0,0,0,0,0,0,0,0,0,0,0,0,0,0,0,0,0,0,0,0,0,0,0,0,0,0,0,0,0,0,0,0,0,0,0,0,0,0,0,0,0,0,0,0,0,0,0,0,0,0,0],"id":3,"left_children":[1,3,5,7,9,11,13,15,17,19,21,23,25,27,29,31,33,35,-1,37,39,41,43,45,47,49,51,53,55,57,59,61,63,65,67,69,71,73,75,77,79,81,83,85,87,89,91,93,95,97,99,101,103,105,107,109,111,113,115,117,-1,-1,-1,-1,-1,-1,-1,-1,-1,-1,-1,-1,-1,-1,-1,-1,-1,-1,-1,-1,-1,-1,-1,-1,-1,-1,-1,-1,-1,-1,-1,-1,-1,-1,-1,-1,-1,-1,-1,-1,-1,-1,-1,-1,-1,-1,-1,-1,-1,-1,-1,-1,-1,-1,-1,-1,-1,-1,-1],"loss_changes":[2.1522317E3,3.4566864E2,3.9331885E2,7.40625E0,4.363297E0,1.6733612E1,6.286914E1,9.942413E0,2.3205566E-1,3.1307187E0,4.008374E0,5.691114E0,3.5879517E0,1.891864E1,1.4358948E1,2.7382355E0,5.3387594E0,1.181098E0,0E0,3.5573905E0,2.0998092E0,2.674448E0,2.149744E0,3.576057E0,1.7031317E0,3.67527E0,2.880951E0,5.784275E0,1.1030457E1,2.3277135E0,8.184998E0,1.64048E0,3.1588817E0,3.0338535E0,5.060326E0,5.0768566E-1,1.2465409E0,2.2800736E0,2.9751515E0,3.0070484E-1,1.7521701E0,3.4783912E0,2.9298725E0,7.8356826E-1,1.324152E0,1.6400791E0,2.4036317E0,1.3531666E0,3.4750414E-1,1.1874337E0,1.0411811E-1,2.665039E0,2.644578E0,4.7836437E0,2.85666E0,4.7158813E-1,3.012909E0,3.749868E0,2.6650763E0,3.8582458E0,0E0,0E0,0E0,0E0,0E0,0E0,0E0,0E0,0E0,0E0,0E0,0E0,0E0,0E0,0E0,0E0,0E0,0E0,0E0,0E0,0E0,0E0,0E0,0E0,0E0,0E0,0E0,0E0,0E0,0E0,0E0,0E0,0E0,0E0,0E0,0E0,0E0,0E0,0E0,0E0,0E0,0E0,0E0,0E0,0E0,0E0,0E0,0E0,0E0,0E0,0E0,0E0,0E0,0E0,0E0,0E0,0E0,0E0,0E0],"parents":[2147483647,0,0,1,1,2,2,3,3,4,4,5,5,6,6,7,7,8,8,9,9,10,10,11,11,12,12,13,13,14,14,15,15,16,16,17,17,19,19,20,20,21,21,22,22,23,23,24,24,25,25,26,26,27,27,28,28,29,29,30,30,31,31,32,32,33,33,34,34,35,35,36,36,37,37,38,38,39,39,40,40,41,41,42,42,43,43,44,44,45,45,46,46,47,47,48,48,49,49,50,50,51,51,52,52,53,53,54,54,55,55,56,56,57,57,58,58,59,59],"right_children":[2,4,6,8,10,12,14,16,18,20,22,24,26,28,30,32,34,36,-1,38,40,42,44,46,48,50,52,54,56,58,60,62,64,66,68,70,72,74,76,78,80,82,84,86,88,90,92,94,96,98,100,102,104,106,108,110,112,114,116,118,-1,-1,-1,-1,-1,-1,-1,-1,-1,-1,-1,-1,-1,-1,-1,-1,-1,-1,-1,-1,-1,-1,-1,-1,-1,-1,-1,-1,-1,-1,-1,-1,-1,-1,-1,-1,-1,-1,-1,-1,-1,-1,-1,-1,-1,-1,-1,-1,-1,-1,-1,-1,-1,-1,-1,-1,-1,-1,-1],"split_conditions":[2.7E1,1E0,4E0,6.0198E4,7.1E1,-2E0,3.7E1,4.54E2,1.9E1,1.83E2,5.268E3,9.333333E0,1E-1,2.2E1,8.95E2,1.8193287E0,5.6E1,7.6E1,-6.273159E-2,1.7E1,7.27E2,3E0,1.1E1,3.13E2,7.83E2,3E0,1.38058E6,3.6E1,5.5E1,2.6333334E1,1.73E1,9.7E1,2E0,7.6E1,8.05E2,1.901E3,9E0,8E0,1E0,2.64E2,1.0666667E1,2E0,6.7670685E-1,2E0,8.06E3,1E0,1E0,4.4084507E-1,2.05E2,6E0,1.16E2,5E1,1.636044E6,1.636044E6,4.58E2,5.5625E-1,7.9E1,1.3E1,1E0,3E0,2.0099996E-1,-6.1102558E-2,9.802069E-2,3.6233884E-1,-3.6891136E-2,-7.8133285E-2,-2.4632886E-2,2.2976708E-1,2.1180569E-3,-6.26895E-2,-3.844327E-2,-6.4329945E-2,2.1761255E-1,-1.067113E-1,-2.6875462E-2,1.458389E-1,-5.718775E-3,-1.6729367E-1,4.3487013E-3,8.198219E-3,7.1154416E-2,-4.8806705E-3,1.8774903E-1,1.544285E-1,-1.613672E-1,-3.6078364E-2,-1.7187655E-1,6.6779606E-2,-3.779959E-2,2.006138E-1,8.138034E-3,7.587634E-2,3.582536E-1,3.3840794E-2,2.398321E-1,6.7169145E-2,-5.3511783E-2,-8.10891E-3,-1.589582E-1,1.9988775E-1,3.803629E-2,1.581265E-1,5.055974E-2,1.7032886E-1,7.20493E-2,5.6733422E-2,1.3576944E-1,6.0546502E-2,-9.790084E-2,1.5002862E-1,-3.0237133E-2,1.024744E-1,1.2173513E-1,8.56365E-2,-5.6865584E-2,1.8950894E-1,3.7905905E-2,-5.1459495E-2,1.6555388E-1],"split_indices":[30,2,2,43,10,3,3,4,46,43,37,34,16,23,39,41,10,10,0,45,37,3,30,36,5,25,33,9,10,34,17,10,44,15,8,4,46,21,29,6,34,17,40,29,37,23,1,40,15,21,0,43,33,33,5,40,30,21,1,32,0,0,0,0,0,0,0,0,0,0,0,0,0,0,0,0,0,0,0,0,0,0,0,0,0,0,0,0,0,0,0,0,0,0,0,0,0,0,0,0,0,0,0,0,0,0,0,0,0,0,0,0,0,0,0,0,0,0,0],"split_type":[0,0,0,0,0,0,0,0,0,0,0,0,0,0,0,0,0,0,0,0,0,0,0,0,0,0,0,0,0,0,0,0,0,0,0,0,0,0,0,0,0,0,0,0,0,0,0,0,0,0,0,0,0,0,0,0,0,0,0,0,0,0,0,0,0,0,0,0,0,0,0,0,0,0,0,0,0,0,0,0,0,0,0,0,0,0,0,0,0,0,0,0,0,0,0,0,0,0,0,0,0,0,0,0,0,0,0,0,0,0,0,0,0,0,0,0,0,0,0],"sum_hessian":[5.2834E4,3.4654E4,1.818E4,2.6064E4,8.59E3,1.0763E4,7.417E3,2.314E3,2.375E4,8.429E3,1.61E2,1.218E3,9.545E3,5.021E3,2.396E3,1.472E3,8.42E2,4.45E2,2.3305E4,2.06E2,8.223E3,9.9E1,6.2E1,1.19E3,2.8E1,2.5E1,9.52E3,4.96E2,4.525E3,1.21E2,2.275E3,1.466E3,6E0,4.6E2,3.82E2,4.41E2,4E0,1.4E2,6.6E1,7E0,8.216E3,4.6E1,5.3E1,1.6E1,4.6E1,1.176E3,1.4E1,1.8E1,1E1,2.1E1,4E0,9.348E3,1.72E2,4.53E2,4.3E1,1.114E3,3.411E3,7.7E1,4.4E1,1.169E3,1.106E3,1.461E3,5E0,2E0,4E0,1.35E2,3.25E2,8E0,3.74E2,3.31E2,1.1E2,2E0,2E0,5E1,9E1,1.4E1,5.2E1,6E0,1E0,8.177E3,3.9E1,3.6E1,1E1,5.1E1,2E0,1E1,6E0,3E1,1.6E1,3E0,1.173E3,1.1E1,3E0,4E0,1.4E1,8E0,2E0,7E0,1.4E1,3E0,1E0,2E1,9.328E3,3E1,1.42E2,3.68E2,8.5E1,1.5E1,2.8E1,1.113E3,1E0,1.162E3,2.249E3,5.4E1,2.3E1,2.6E1,1.8E1,7E0,1.162E3],"tree_param":{"num_deleted":"0","num_feature":"47","num_nodes":"119","size_leaf_vector":"1"}},{"base_weights":[1.5817519E-4,-1.02215715E-1,1.9529414E-1,-1.4234291E-1,1.9541644E-2,1.0980259E-1,3.193216E-1,-1.4284515E-1,1.7225333E-1,1.7182663E-2,1.7662229E-1,3.549853E-2,1.2023824E-1,2.5464174E-1,3.8502255E-1,-8.783055E-2,-1.4566647E-1,-1.46715185E-2,7.7188E-1,-6.4361416E-2,2.060289E-2,9.325291E-1,1.4445841E-1,1.7967058E-2,2.762592E-1,1.18014455E-1,2.571483E-1,8.400494E-2,2.6895663E-1,3.4775347E-1,4.677955E-1,-1.1104797E-1,6.752797E-2,-1.4572696E-1,4.0206823E-1,3.846175E-1,-2.0499794E-1,3.252595E-1,3.8296798E-1,-1.8855438E-1,8.588663E-2,1.930457E-2,1.7190662E-1,3.4813893E-1,3.1189711E-3,-1.6354401E-1,2.1693441E-1,-2.4824402E-1,2.2542153E-2,3.7249434E-1,1.1148167E-2,1.1888007E-1,-2.3588583E-1,9.2766154E-1,2.1783884E-1,1.3447104E-1,-2.1838868E-1,-2.005137E-1,2.6969397E-1,1.1728124E-1,3.6176002E-1,-2.120871E-1,4.6917793E-1,-3.5922807E-2,4.760401E-2,4.4176336E-2,-2.6254455E-2,-4.377366E-2,1.0805657E-2,2.9912543E-1,-1.1819472E-1,2.3983434E-1,-8.1920534E-2,6.5706237E-3,-1.1436637E-1,1.5530611E-2,1.6068764E-1,-1.142118E-1,-3.6398105E-2,1.282188E-1,1.3050421E-2,5.8949776E-3,-1.3421379E-1,1.7751205E-1,-3.4548156E-3,-1.0183848E-1,1.2623566E-1,8.121729E-2,-7.286578E-2,1.6275844E-1,-1.0801119E-1,4.9795276E-3,6.871068E-2,7.4908055E-2,1.820239E-1,-8.995693E-2,3.754262E-2,3.4889307E-2,7.229452E-2,-9.588958E-2,2.4097933E-1,3.1769377E-1,1.06741734E-1,3.0124836E-2,1.1358E-1,-2.0767955E-1,4.4194523E-2,8.098031E-2,-9.712971E-2,8.040666E-2,2.072834E-1,-1.2511224E-2,6.55306E-2,-3.4279075E-2,1.0944284E-1,-9.632583E-2,8.86631E-4,3.326384E-2,1.4138982E-1],"categories":[],"categories_nodes":[],"categories_segments":[],"categories_sizes":[],"default_left":[0,0,0,0,0,0,0,0,0,0,0,0,0,0,0,0,0,0,0,0,0,0,0,0,0,0,0,0,0,0,0,0,0,0,0,0,0,0,0,0,0,0,0,0,0,0,0,0,0,0,0,0,0,0,0,0,0,0,0,0,0,0,0,0,0,0,0,0,0,0,0,0,0,0,0,0,0,0,0,0,0,0,0,0,0,0,0,0,0,0,0,0,0,0,0,0,0,0,0,0,0,0,0,0,0,0,0,0,0,0,0,0,0,0,0,0,0,0,0],"id":4,"left_children":[1,3,5,7,9,11,13,15,17,19,21,23,25,27,29,31,33,35,37,39,41,43,45,47,49,51,53,55,57,59,61,63,65,67,69,71,73,-1,75,77,79,81,83,-1,-1,85,87,89,91,93,95,97,99,101,103,105,107,-1,109,111,113,115,117,-1,-1,-1,-1,-1,-1,-1,-1,-1,-1,-1,-1,-1,-1,-1,-1,-1,-1,-1,-1,-1,-1,-1,-1,-1,-1,-1,-1,-1,-1,-1,-1,-1,-1,-1,-1,-1,-1,-1,-1,-1,-1,-1,-1,-1,-1,-1,-1,-1,-1,-1,-1,-1,-1,-1,-1],"loss_changes":[1.0554956E3,1.6931949E2,1.9274353E2,4.1431274E0,3.1803637E0,8.342255E0,3.1424988E1,4.0264893E0,4.7188997E0,2.3622084E0,2.9530253E0,5.5961566E0,2.8431396E0,9.115356E0,1.1183411E1,4.5956335E0,8.788452E-1,2.586689E0,7.9943085E-1,6.3791685E0,1.5927613E0,1.0388618E0,2.7811809E0,1.5134069E0,2.2920165E0,2.8736572E0,3.7515478E0,4.470209E0,2.5653381E0,8.157013E0,1.1700745E0,2.6151466E0,2.0648162E0,8.38501E-1,1.8138236E0,3.2194123E0,9.280059E-1,0E0,2.7563155E-1,2.3694477E0,2.225025E0,1.3073506E0,5.3198743E0,0E0,0E0,2.6098924E0,2.539123E0,2.0517936E0,1.4910996E0,1.747078E0,9.238402E-1,2.893982E0,2.258319E0,2.239666E-1,2.661395E0,2.7566357E0,2.2486322E0,0E0,2.243744E0,2.3731658E0,3.5168152E0,7.126719E-2,8.119812E-1,0E0,0E0,0E0,0E0,0E0,0E0,0E0,0E0,0E0,0E0,0E0,0E0,0E0,0E0,0E0,0E0,0E0,0E0,0E0,0E0,0E0,0E0,0E0,0E0,0E0,0E0,0E0,0E0,0E0,0E0,0E0,0E0,0E0,0E0,0E0,0E0,0E0,0E0,0E0,0E0,0E0,0E0,0E0,0E0,0E0,0E0,0E0,0E0,0E0,0E0,0E0,0E0,0E0,0E0,0E0,0E0],"parents":[2147483647,0,0,1,1,2,2,3,3,4,4,5,5,6,6,7,7,8,8,9,9,10,10,11,11,12,12,13,13,14,14,15,15,16,16,17,17,18,18,19,19,20,20,21,21,22,22,23,23,24,24,25,25,26,26,27,27,28,28,29,29,30,30,31,31,32,32,33,33,34,34,35,35,36,36,38,38,39,39,40,40,41,41,42,42,45,45,46,46,47,47,48,48,49,49,50,50,51,51,52,52,53,53,54,54,55,55,56,56,58,58,59,59,60,60,61,61,62,62],"right_children":[2,4,6,8,10,12,14,16,18,20,22,24,26,28,30,32,34,36,38,40,42,44,46,48,50,52,54,56,58,60,62,64,66,68,70,72,74,-1,76,78,80,82,84,-1,-1,86,88,90,92,94,96,98,100,102,104,106,108,-1,110,112,114,116,118,-1,-1,-1,-1,-1,-1,-1,-1,-1,-1,-1,-1,-1,-1,-1,-1,-1,-1,-1,-1,-1,-1,-1,-1,-1,-1,-1,-1,-1,-1,-1,-1,-1,-1,-1,-1,-1,-1,-1,-1,-1,-1,-1,-1,-1,-1,-1,-1,-1,-1,-1,-1,-1,-1,-1,-1],"split_conditions":[2.7E1,1E0,4E0,1.8193287E0,2.2E1,0E0,2E0,2.23E2,5.3435E4,1.2619643E0,1.6479E4,3E1,1.38058E6,4.21E2,8.8E1,4.538E3,3.58683E6,9.04E2,8E0,1.1E1,2.63E2,1.3E1,2.851E3,2.996E3,1.287E3,3.8E1,8.3E1,3.4E1,4.91E2,7.42E2,7.1E1,1.2134439E0,5.1132E4,3.8E1,6.115E3,1E0,7E0,3.252595E-1,2.7777E4,1.262E3,1E-1,3.7E1,1.2E1,3.4813893E-1,3.1189711E-3,1.6E1,4.38E2,4.4E1,7.58893E5,6E0,1.724E4,3E1,8.9245E4,9E0,1.83E2,4.4E1,3.7E2,-2.005137E-1,2.811141E6,8.7E1,3.6824876E-1,-1.96673E5,2E0,-3.5922807E-2,4.760401E-2,4.4176336E-2,-2.6254455E-2,-4.377366E-2,1.0805657E-2,2.9912543E-1,-1.1819472E-1,2.3983434E-1,-8.1920534E-2,6.5706237E-3,-1.1436637E-1,1.5530611E-2,1.6068764E-1,-1.142118E-1,-3.6398105E-2,1.282188E-1,1.3050421E-2,5.8949776E-3,-1.3421379E-1,1.7751205E-1,-3.4548156E-3,-1.0183848E-1,1.2623566E-1,8.121729E-2,-7.286578E-2,1.6275844E-1,-1.0801119E-1,4.9795276E-3,6.871068E-2,7.4908055E-2,1.820239E-1,-8.995693E-2,3.754262E-2,3.4889307E-2,7.229452E-2,-9.588958E-2,2.4097933E-1,3.1769377E-1,1.06741734E-1,3.0124836E-2,1.1358E-1,-2.0767955E-1,4.4194523E-2,8.098031E-2,-9.712971E-2,8.040666E-2,2.072834E-1,-1.2511224E-2,6.55306E-2,-3.4279075E-2,1.0944284E-1,-9.632583E-2,8.86631E-4,3.326384E-2,1.4138982E-1],"split_indices":[30,2,2,41,30,3,32,43,4,41,33,26,33,38,26,4,33,4,21,30,15,46,8,37,5,9,36,9,37,5,5,41,8,9,4,18,21,0,8,8,17,9,30,0,0,46,36,15,33,28,4,9,0,3,6,10,5,0,33,30,40,0,23,0,0,0,0,0,0,0,0,0,0,0,0,0,0,0,0,0,0,0,0,0,0,0,0,0,0,0,0,0,0,0,0,0,0,0,0,0,0,0,0,0,0,0,0,0,0,0,0,0,0,0,0,0,0,0,0],"split_type":[0,0,0,0,0,0,0,0,0,0,0,0,0,0,0,0,0,0,0,0,0,0,0,0,0,0,0,0,0,0,0,0,0,0,0,0,0,0,0,0,0,0,0,0,0,0,0,0,0,0,0,0,0,0,0,0,0,0,0,0,0,0,0,0,0,0,0,0,0,0,0,0,0,0,0,0,0,0,0,0,0,0,0,0,0,0,0,0,0,0,0,0,0,0,0,0,0,0,0,0,0,0,0,0,0,0,0,0,0,0,0,0,0,0,0,0,0,0,0],"sum_hessian":[5.2834E4,3.4654E4,1.818E4,2.6064E4,8.59E3,1.0763E4,7.417E3,2.6023E4,4.1E1,8.464E3,1.26E2,1.326E3,9.437E3,3.74E3,3.677E3,1.271E3,2.4752E4,3.2E1,9E0,3.4E2,8.124E3,4E0,1.22E2,1.237E3,8.9E1,9.288E3,1.49E2,2.9E2,3.45E3,2.539E3,1.138E3,1.106E3,1.65E2,2.475E4,2E0,1E1,2.2E1,4E0,5E0,1.86E2,1.54E2,8.056E3,6.8E1,3E0,1E0,2.3E1,9.9E1,2E1,1.217E3,6.5E1,2.4E1,9.266E3,2.2E1,7E0,1.42E2,2.49E2,4.1E1,2E0,3.448E3,1.46E2,2.393E3,2E0,1.136E3,1.072E3,3.4E1,1.09E2,5.6E1,2.4725E4,2.5E1,1E0,1E0,6E0,4E0,1E1,1.2E1,2E0,3E0,4.7E1,1.39E2,1.6E1,1.38E2,8.051E3,5E0,2E1,4.8E1,1.8E1,5E0,8.9E1,1E1,2E0,1.8E1,1.184E3,3.3E1,4.4E1,2.1E1,6E0,1.8E1,9.076E3,1.9E2,2.1E1,1E0,5E0,2E0,8.3E1,5.9E1,3E0,2.46E2,7E0,3.4E1,3.436E3,1.2E1,5.7E1,8.9E1,1.5E1,2.378E3,1E0,1E0,7E0,1.129E3],"tree_param":{"num_deleted":"0","num_feature":"47","num_nodes":"119","size_leaf_vector":"1"}},{"base_weights":[1.5648226E-4,-7.151782E-2,1.3677564E-1,-9.961206E-2,1.3728104E-2,7.696893E-2,2.235406E-1,4.355953E-1,-9.981364E-2,1.1364624E-2,9.883568E-2,2.5099859E-2,8.425366E-2,1.9102666E-1,2.9254204E-1,-1.062318E-2,3.3227363E-1,-1.0018682E-1,1.3371056E-1,-8.596195E-2,1.4338324E-2,1.2662987E-1,-2.0211433E-1,1.2680665E-2,1.9565389E-1,3.9051914E-1,8.3594404E-2,4.7299534E-2,2.000072E-1,7.8471705E-2,3.036044E-1,5.978897E-2,-2.1788712E-1,-1.006579E-1,8.65545E-2,-8.751342E-3,5.9046376E-1,-1.2412831E-1,1.04190364E-1,1.3384616E-2,2.2214271E-1,5.8380265E-2,3.1239405E-1,-4.2053434E-1,5.8359116E-2,-3.1151178E-1,1.5840916E-2,1.0861998E-1,4.057135E-1,6.7007446E-1,1.483094E-1,-1.18142724E-1,8.461871E-2,-5.304046E-2,1.640201E-1,2.1725841E-1,1.5678272E-1,4.3465582E-1,2.6344456E-2,3.303843E-1,2.7684012E-1,-7.464524E-2,-1.8764406E-2,-2.1257292E-2,-3.063907E-2,-8.9519925E-2,5.8780346E-2,-2.6653387E-2,1.7824082E-1,2.4719724E-1,8.923419E-2,-4.09945E-2,9.542004E-2,2.0452894E-1,-3.3028864E-3,-5.2332766E-2,4.40824E-3,5.93882E-3,1.5527941E-1,4.8829116E-2,-4.6657227E-2,1.6381899E-1,2.9639559E-2,-1.5556663E-1,-3.5807602E-2,1.1632641E-1,-2.1737734E-2,-2.9793087E-2,-1.5214847E-1,3.0811783E-3,6.912487E-2,9.5002964E-2,-2.7117798E-2,1.6053236E-1,-3.4435723E-2,2.251984E-1,3.806949E-3,-6.546051E-3,1.9979145E-1,-5.198368E-2,8.9007154E-2,2.483638E-2,5.898695E-2,9.5361384E-4,-1.1714811E-1,1.425699E-1,3.0270044E-2,6.4499326E-2,2.1351679E-1,-2.5569284E-3,5.0598674E-2,-1.2412123E-1,2.043697E-1,-3.211511E-2,4.1464426E-2,1.8314812E-1,9.7966135E-2,8.348938E-2,-3.24851E-2],"categories":[],"categories_nodes":[],"categories_segments":[],"categories_sizes":[],"default_left":[0,0,0,0,0,0,0,0,0,0,0,0,0,0,0,0,0,0,0,0,0,0,0,0,0,0,0,0,0,0,0,0,0,0,0,0,0,0,0,0,0,0,0,0,0,0,0,0,0,0,0,0,0,0,0,0,0,0,0,0,0,0,0,0,0,0,0,0,0,0,0,0,0,0,0,0,0,0,0,0,0,0,0,0,0,0,0,0,0,0,0,0,0,0,0,0,0,0,0,0,0,0,0,0,0,0,0,0,0,0,0,0,0,0,0,0,0,0,0],"id":5,"left_children":[1,3,5,7,9,11,13,15,17,19,21,23,25,27,29,31,-1,33,35,37,39,41,43,45,47,49,51,53,55,57,59,-1,61,63,65,67,69,71,73,75,77,79,81,83,85,87,89,91,93,95,97,99,101,103,105,107,109,111,113,115,117,-1,-1,-1,-1,-1,-1,-1,-1,-1,-1,-1,-1,-1,-1,-1,-1,-1,-1,-1,-1,-1,-1,-1,-1,-1,-1,-1,-1,-1,-1,-1,-1,-1,-1,-1,-1,-1,-1,-1,-1,-1,-1,-1,-1,-1,-1,-1,-1,-1,-1,-1,-1,-1,-1,-1,-1,-1,-1],"loss_changes":[5.1737445E2,8.2997284E1,9.4326355E1,2.8556213E0,1.7269559E0,4.0650826E0,1.6586456E1,3.0102806E0,2.2840576E0,2.4207842E0,1.9661961E0,2.8082957E0,1.8729706E0,6.502365E0,5.5980988E0,3.4798566E-1,0E0,2.2972717E0,2.738104E0,1.8127735E0,1.6048998E0,2.682247E0,1.1623943E0,1.2733023E0,1.6013389E0,1.2548423E0,1.956337E0,3.4987986E0,3.5063934E0,2.1794431E0,1.5262299E0,0E0,3.6557317E-3,1.1313477E0,2.8374817E0,1.6462643E0,4.3917894E-1,1.1894748E0,2.8020334E0,1.9892036E0,2.201776E0,3.5308213E0,2.7909594E0,2.628429E-1,4.5900583E-1,4.4783974E-1,1.4642097E0,2.7200074E0,1.8125148E0,4.6726274E-1,1.0713671E0,1.1492819E0,1.9055023E0,3.0556273E0,2.6628864E0,3.6374817E0,2.668213E0,3.4197576E0,1.5667793E0,1.0055923E0,6.67366E-1,0E0,0E0,0E0,0E0,0E0,0E0,0E0,0E0,0E0,0E0,0E0,0E0,0E0,0E0,0E0,0E0,0E0,0E0,0E0,0E0,0E0,0E0,0E0,0E0,0E0,0E0,0E0,0E0,0E0,0E0,0E0,0E0,0E0,0E0,0E0,0E0,0E0,0E0,0E0,0E0,0E0,0E0,0E0,0E0,0E0,0E0,0E0,0E0,0E0,0E0,0E0,0E0,0E0,0E0,0E0,0E0,0E0,0E0],"parents":[2147483647,0,0,1,1,2,2,3,3,4,4,5,5,6,6,7,7,8,8,9,9,10,10,11,11,12,12,13,13,14,14,15,15,17,17,18,18,19,19,20,20,21,21,22,22,23,23,24,24,25,25,26,26,27,27,28,28,29,29,30,30,32,32,33,33,34,34,35,35,36,36,37,37,38,38,39,39,40,40,41,41,42,42,43,43,44,44,45,45,46,46,47,47,48,48,49,49,50,50,51,51,52,52,53,53,54,54,55,55,56,56,57,57,58,58,59,59,60,60],"right_children":[2,4,6,8,10,12,14,16,18,20,22,24,26,28,30,32,-1,34,36,38,40,42,44,46,48,50,52,54,56,58,60,-1,62,64,66,68,70,72,74,76,78,80,82,84,86,88,90,92,94,96,98,100,102,104,106,108,110,112,114,116,118,-1,-1,-1,-1,-1,-1,-1,-1,-1,-1,-1,-1,-1,-1,-1,-1,-1,-1,-1,-1,-1,-1,-1,-1,-1,-1,-1,-1,-1,-1,-1,-1,-1,-1,-1,-1,-1,-1,-1,-1,-1,-1,-1,-1,-1,-1,-1,-1,-1,-1,-1,-1,-1,-1,-1,-1,-1,-1],"split_conditions":[2.7E1,1E0,4E0,-2E0,6.3E1,0E0,2.41E1,1.5E1,1.8193287E0,9E0,2E1,3E1,5E1,2.74E2,1.5E1,5.5625E-1,3.3227363E-1,3.8E1,5.3435E4,2.3425E4,2.2E1,2.278E3,3E0,1E0,2E0,2.3E0,1E0,2.3425E4,7E0,2.4E1,2.144E3,5.978897E-2,-7.5589E4,2.23E2,4.6E1,3.2E1,8E0,1E0,1E0,3.308E3,-7.29E2,2.6E1,1.1725E4,1.1E0,1E-1,1.2E2,3.07E2,1E0,3.13E2,1.13E1,1.83E2,1E0,2.27E1,3.43459E5,3.4134E4,6.6E0,4.2E1,1.2E1,1E0,7.58893E5,7.3E1,-7.464524E-2,-1.8764406E-2,-2.1257292E-2,-3.063907E-2,-8.9519925E-2,5.8780346E-2,-2.6653387E-2,1.7824082E-1,2.4719724E-1,8.923419E-2,-4.09945E-2,9.542004E-2,2.0452894E-1,-3.3028864E-3,-5.2332766E-2,4.40824E-3,5.93882E-3,1.5527941E-1,4.8829116E-2,-4.6657227E-2,1.6381899E-1,2.9639559E-2,-1.5556663E-1,-3.5807602E-2,1.1632641E-1,-2.1737734E-2,-2.9793087E-2,-1.5214847E-1,3.0811783E-3,6.912487E-2,9.5002964E-2,-2.7117798E-2,1.6053236E-1,-3.4435723E-2,2.251984E-1,3.806949E-3,-6.546051E-3,1.9979145E-1,-5.198368E-2,8.9007154E-2,2.483638E-2,5.898695E-2,9.5361384E-4,-1.1714811E-1,1.425699E-1,3.0270044E-2,6.4499326E-2,2.1351679E-1,-2.5569284E-3,5.0598674E-2,-1.2412123E-1,2.043697E-1,-3.211511E-2,4.1464426E-2,1.8314812E-1,9.7966135E-2,8.348938E-2,-3.24851E-2],"split_indices":[30,2,2,34,10,3,16,45,41,46,45,26,43,38,23,40,0,9,4,8,30,0,34,26,29,17,46,8,17,26,38,0,0,43,10,9,21,24,34,37,0,9,0,16,17,6,36,18,6,16,6,22,16,33,8,17,26,26,25,33,10,0,0,0,0,0,0,0,0,0,0,0,0,0,0,0,0,0,0,0,0,0,0,0,0,0,0,0,0,0,0,0,0,0,0,0,0,0,0,0,0,0,0,0,0,0,0,0,0,0,0,0,0,0,0,0,0,0,0],"split_type":[0,0,0,0,0,0,0,0,0,0,0,0,0,0,0,0,0,0,0,0,0,0,0,0,0,0,0,0,0,0,0,0,0,0,0,0,0,0,0,0,0,0,0,0,0,0,0,0,0,0,0,0,0,0,0,0,0,0,0,0,0,0,0,0,0,0,0,0,0,0,0,0,0,0,0,0,0,0,0,0,0,0,0,0,0,0,0,0,0,0,0,0,0,0,0,0,0,0,0,0,0,0,0,0,0,0,0,0,0,0,0,0,0,0,0,0,0,0,0],"sum_hessian":[5.2834E4,3.4654E4,1.818E4,2.6064E4,8.59E3,1.0763E4,7.417E3,9E0,2.6055E4,8.359E3,2.31E2,1.326E3,9.437E3,5.044E3,2.373E3,6E0,3E0,2.6014E4,4.1E1,2.47E2,8.112E3,2.12E2,1.9E1,1.237E3,8.9E1,1.9E1,9.418E3,2.97E2,4.747E3,1.17E2,2.256E3,3E0,3E0,2.5949E4,6.5E1,3.2E1,9E0,2.06E2,4.1E1,8.076E3,3.6E1,1.56E2,5.6E1,1E1,9E0,1.1E1,1.226E3,6.4E1,2.5E1,8E0,1.1E1,4.7E1,9.371E3,1.6E2,1.37E2,3.39E3,1.357E3,1.4E1,1.03E2,1.122E3,1.134E3,2E0,1E0,1.224E3,2.4725E4,1.4E1,5.1E1,2.9E1,3E0,4E0,5E0,2.01E2,5E0,6E0,3.5E1,5.5E1,8.021E3,2.2E1,1.4E1,1.05E2,5.1E1,2.6E1,3E1,7E0,3E0,2E0,7E0,6E0,5E0,1.196E3,3E1,3.1E1,3.3E1,2E1,5E0,7E0,1E0,9E0,2E0,4.2E1,5E0,9.222E3,1.49E2,1.38E2,2.2E1,2.2E1,1.15E2,3.376E3,1.4E1,9.1E1,1.266E3,3E0,1.1E1,4.7E1,5.6E1,1.3E1,1.109E3,1.13E3,4E0],"tree_param":{"num_deleted":"0","num_feature":"47","num_nodes":"119","size_leaf_vector":"1"}},{"base_weights":[1.588031E-4,-5.0028663E-2,9.5821664E-2,-6.9701426E-2,9.664123E-3,5.3936496E-2,1.5658684E-1,9.4044454E-2,-7.011441E-2,-1.365003E-1,1.067362E-2,2.8734583E-2,6.1402857E-2,1.2108974E-1,1.926494E-1,2.0545793E-1,-1.7247942E-1,-7.068717E-2,1.9993497E-2,-2.3621814E-1,-1.7662035E-2,1.6716114E-1,9.638709E-3,-2.1320473E-1,3.3735923E-2,5.772648E-2,1.5761901E-1,1.2388379E-1,-2.678357E-1,-8.61108E-2,1.9620365E-1,6.031489E-2,5.804232E-1,5.389795E-2,-2.0046884E-1,-7.100258E-2,6.375274E-2,1.4290641E-1,-1.0316031E-1,-2.7811724E-1,4.5660518E-2,-7.880055E-2,2.7933526E-1,3.8985765E-1,-3.883778E-2,-1.1443814E-1,1.0834302E-2,-2.9479286E-1,5.8004695E-1,5.3224754E-1,3.185636E-2,2.1870555E-1,5.603152E-2,3.753089E-1,1.1346291E-1,1.2610218E-1,-1.838027E-1,3.876585E-2,-4.5046988E-1,-3.9717755E-1,1.9970084E-2,-2.230499E-1,1.9835351E-1,-1.3265594E-2,1.2559287E-1,3.3634892E-1,-1.2970271E-2,-2.2751244E-2,-6.859441E-2,3.469949E-2,-2.1358665E-2,-4.538279E-3,1.271025E-1,-1.7957825E-2,7.093388E-2,-5.759301E-2,1.04487084E-1,-1.0300426E-1,-1.00130495E-2,-1.1919779E-2,3.475004E-2,-8.8568754E-2,2.9231817E-3,5.947012E-3,1.0177722E-1,-4.3177143E-2,1.6476604E-1,-1.3042201E-1,3.0166788E-2,-7.449174E-2,3.6424115E-2,2.7096646E-3,3.8721308E-2,-1.115272E-1,1.8876866E-2,2.830046E-1,7.0188646E-3,3.1459864E-2,2.1853818E-1,1.1174418E-2,-3.4723043E-2,3.3586834E-2,1.9761647E-1,-4.1178275E-2,1.7146172E-2,3.2321054E-1,7.17396E-2,-1.3713044E-1,4.3056E-2,-1.4456743E-1,3.8067877E-2,-1.8237536E-1,-1.010354E-2,5.837812E-2,-1.3249192E-1,-1.8172142E-1,1.2996383E-2,-2.9109864E-2,-1.7931144E-1,7.196349E-2,-6.397942E-2,-1.3508685E-1,-1.5890801E-2,2.0524053E-1,5.9085295E-2],"categories":[],"categories_nodes":[],"categories_segments":[],"categories_sizes":[],"default_left":[0,0,0,0,0,0,0,0,0,0,0,0,0,0,0,0,0,0,0,0,0,0,0,0,0,0,0,0,0,0,0,0,0,0,0,0,0,0,0,0,0,0,0,0,0,0,0,0,0,0,0,0,0,0,0,0,0,0,0,0,0,0,0,0,0,0,0,0,0,0,0,0,0,0,0,0,0,0,0,0,0,0,0,0,0,0,0,0,0,0,0,0,0,0,0,0,0,0,0,0,0,0,0,0,0,0,0,0,0,0,0,0,0,0,0,0,0,0,0,0,0,0,0,0,0],"id":6,"left_children":[1,3,5,7,9,11,13,15,17,19,21,23,25,27,29,31,33,35,37,39,41,43,45,47,49,51,53,55,57,59,61,63,65,-1,67,69,71,73,75,77,79,81,83,85,87,89,91,93,95,97,99,101,103,105,107,109,111,113,115,117,119,121,123,-1,-1,-1,-1,-1,-1,-1,-1,-1,-1,-1,-1,-1,-1,-1,-1,-1,-1,-1,-1,-1,-1,-1,-1,-1,-1,-1,-1,-1,-1,-1,-1,-1,-1,-1,-1,-1,-1,-1,-1,-1,-1,-1,-1,-1,-1,-1,-1,-1,-1,-1,-1,-1,-1,-1,-1,-1,-1,-1,-1,-1,-1],"loss_changes":[2.5366966E2,4.0696815E1,4.6265106E1,1.7692184E0,1.2690806E0,2.0236588E0,9.47258E0,1.9952643E0,1.3432693E0,6.949953E-1,1.3803134E0,2.9862633E0,2.9278946E0,4.0984383E0,3.6609955E0,2.5229006E0,2.331397E-1,1.1000824E0,2.5123792E0,3.9063382E-1,5.304351E-1,2.5841546E0,1.2589117E0,3.4069893E0,2.2439828E0,2.1702957E0,2.8891797E0,2.5589256E0,1.5293529E0,1.5588487E0,3.3179016E0,1.3295171E0,4.432545E0,0E0,4.938811E-2,9.3673706E-1,1.7382472E0,1.5883883E0,3.394849E0,4.3554568E-1,3.4563795E-2,4.6280217E-1,7.102731E-2,2.375794E0,1.6993046E0,2.587555E0,1.7882197E0,1.2898362E0,9.890903E-1,6.78329E-1,1.9182429E0,3.8248832E0,1.7254276E0,4.6181855E0,4.438727E0,1.8346825E0,1.6986151E0,9.094067E-1,1.3296318E0,6.6424906E-1,1.8976065E0,7.104801E-1,2.327591E0,0E0,0E0,0E0,0E0,0E0,0E0,0E0,0E0,0E0,0E0,0E0,0E0,0E0,0E0,0E0,0E0,0E0,0E0,0E0,0E0,0E0,0E0,0E0,0E0,0E0,0E0,0E0,0E0,0E0,0E0,0E0,0E0,0E0,0E0,0E0,0E0,0E0,0E0,0E0,0E0,0E0,0E0,0E0,0E0,0E0,0E0,0E0,0E0,0E0,0E0,0E0,0E0,0E0,0E0,0E0,0E0,0E0,0E0,0E0,0E0,0E0,0E0],"parents":[2147483647,0,0,1,1,2,2,3,3,4,4,5,5,6,6,7,7,8,8,9,9,10,10,11,11,12,12,13,13,14,14,15,15,16,16,17,17,18,18,19,19,20,20,21,21,22,22,23,23,24,24,25,25,26,26,27,27,28,28,29,29,30,30,31,31,32,32,34,34,35,35,36,36,37,37,38,38,39,39,40,40,41,41,42,42,43,43,44,44,45,45,46,46,47,47,48,48,49,49,50,50,51,51,52,52,53,53,54,54,55,55,56,56,57,57,58,58,59,59,60,60,61,61,62,62],"right_children":[2,4,6,8,10,12,14,16,18,20,22,24,26,28,30,32,34,36,38,40,42,44,46,48,50,52,54,56,58,60,62,64,66,-1,68,70,72,74,76,78,80,82,84,86,88,90,92,94,96,98,100,102,104,106,108,110,112,114,116,118,120,122,124,-1,-1,-1,-1,-1,-1,-1,-1,-1,-1,-1,-1,-1,-1,-1,-1,-1,-1,-1,-1,-1,-1,-1,-1,-1,-1,-1,-1,-1,-1,-1,-1,-1,-1,-1,-1,-1,-1,-1,-1,-1,-1,-1,-1,-1,-1,-1,-1,-1,-1,-1,-1,-1,-1,-1,-1,-1,-1,-1,-1,-1,-1],"split_conditions":[2.7E1,1E0,4E0,0E0,1.3E1,2E-1,2E0,6.6E3,8.4E1,1.7E1,2E0,5E0,2.7E1,3.7E1,8.9E1,2E0,-1.6666666E0,3.8E1,1E0,1.7E1,7.31E2,2.12E2,5.8E1,6E0,1E0,1.2E0,5.9E1,4E0,2.2E1,4E0,2.09E2,5.424E3,-1.817E3,5.389795E-2,4.4E1,0E0,-1E0,6E0,2.985E4,4.2E0,4.52E2,7.89E2,-1.7211E4,5E0,5.2E1,1.04974E5,7.2E1,3E0,-3.6088E4,2.12E2,1E0,3E2,4E0,-3.6088E4,2E0,8.5791504E-1,1.4E1,3.1E2,2.4997E4,1.6E1,4.816E3,6.604E3,9.333333E0,-1.3265594E-2,1.2559287E-1,3.3634892E-1,-1.2970271E-2,-2.2751244E-2,-6.859441E-2,3.469949E-2,-2.1358665E-2,-4.538279E-3,1.271025E-1,-1.7957825E-2,7.093388E-2,-5.759301E-2,1.04487084E-1,-1.0300426E-1,-1.00130495E-2,-1.1919779E-2,3.475004E-2,-8.8568754E-2,2.9231817E-3,5.947012E-3,1.0177722E-1,-4.3177143E-2,1.6476604E-1,-1.3042201E-1,3.0166788E-2,-7.449174E-2,3.6424115E-2,2.7096646E-3,3.8721308E-2,-1.115272E-1,1.8876866E-2,2.830046E-1,7.0188646E-3,3.1459864E-2,2.1853818E-1,1.1174418E-2,-3.4723043E-2,3.3586834E-2,1.9761647E-1,-4.1178275E-2,1.7146172E-2,3.2321054E-1,7.17396E-2,-1.3713044E-1,4.3056E-2,-1.4456743E-1,3.8067877E-2,-1.8237536E-1,-1.010354E-2,5.837812E-2,-1.3249192E-1,-1.8172142E-1,1.2996383E-2,-2.9109864E-2,-1.7931144E-1,7.196349E-2,-6.397942E-2,-1.3508685E-1,-1.5890801E-2,2.0524053E-1,5.9085295E-2],"split_indices":[30,2,2,34,45,28,32,37,10,30,46,46,9,9,38,44,34,9,18,46,39,36,38,3,21,17,30,29,3,46,5,37,0,0,6,3,0,21,4,28,5,4,0,23,10,33,10,25,0,38,18,15,26,0,26,41,45,15,8,45,37,8,34,0,0,0,0,0,0,0,0,0,0,0,0,0,0,0,0,0,0,0,0,0,0,0,0,0,0,0,0,0,0,0,0,0,0,0,0,0,0,0,0,0,0,0,0,0,0,0,0,0,0,0,0,0,0,0,0,0,0,0,0,0,0],"split_type":[0,0,0,0,0,0,0,0,0,0,0,0,0,0,0,0,0,0,0,0,0,0,0,0,0,0,0,0,0,0,0,0,0,0,0,0,0,0,0,0,0,0,0,0,0,0,0,0,0,0,0,0,0,0,0,0,0,0,0,0,0,0,0,0,0,0,0,0,0,0,0,0,0,0,0,0,0,0,0,0,0,0,0,0,0,0,0,0,0,0,0,0,0,0,0,0,0,0,0,0,0,0,0,0,0,0,0,0,0,0,0,0,0,0,0,0,0,0,0,0,0,0,0,0,0],"sum_hessian":[5.2834E4,3.4654E4,1.818E4,2.6064E4,8.59E3,1.0763E4,7.417E3,6.5E1,2.5999E4,5.8E1,8.532E3,2.461E3,8.302E3,3.74E3,3.677E3,4.6E1,1.9E1,2.5835E4,1.64E2,3.1E1,2.7E1,5.5E1,8.477E3,4.9E1,2.412E3,7.998E3,3.04E2,3.714E3,2.6E1,4.6E1,3.631E3,3.4E1,1.2E1,1E0,1.8E1,2.5775E4,6E1,8.2E1,8.2E1,2.7E1,4E0,2.3E1,4E0,2.6E1,2.9E1,8E1,8.397E3,4.5E1,4E0,8E0,2.404E3,8.2E1,7.916E3,5E1,2.54E2,3.688E3,2.6E1,1E1,1.6E1,1.1E1,3.5E1,1.8E1,3.613E3,2.7E1,7E0,6E0,6E0,4E0,1.4E1,2.6E1,2.5749E4,5E1,1E1,2.6E1,5.6E1,6.9E1,1.3E1,2.1E1,6E0,2E0,2E0,6E0,1.7E1,1E0,3E0,6E0,2E1,7E0,2.2E1,5.1E1,2.9E1,8.272E3,1.25E2,3.7E1,8E0,2E0,2E0,3E0,5E0,2.32E3,8.4E1,6.7E1,1.5E1,4.5E1,7.871E3,7E0,4.3E1,1.2E1,2.42E2,4E0,3.684E3,6E0,2E1,8E0,2E0,1.2E1,4E0,5E0,6E0,1.8E1,1.7E1,7E0,1.1E1,9E0,3.604E3],"tree_param":{"num_deleted":"0","num_feature":"47","num_nodes":"125","size_leaf_vector":"1"}},{"base_weights":[1.2805582E-4,-3.5003025E-2,6.7091785E-2,-4.8766676E-2,6.759812E-3,4.146694E-2,1.1599002E-1,2.6288277E-1,-4.888441E-2,7.419577E-3,-1.5950565E-1,4.111392E-2,5.6245816E-1,1.02989085E-1,1.7344557E-1,-9.108611E-4,1.976403E-1,-4.9320642E-2,3.0509537E-2,6.2434245E-3,1.4595546E-1,-4.6346822E-1,-7.7818386E-2,4.8443563E-3,4.563989E-2,8.8801235E-2,1.9893894E-1,2.861003E-2,1.1301247E-1,1.6926765E-1,1.9009103E-1,4.9299058E-2,-1.6592419E-1,1.6296139E-3,-4.991343E-2,-1.762443E-3,4.1793352E-1,-5.174649E-2,8.418789E-3,3.788448E-2,4.066095E-1,-2.7421227E-1,-1.8732162E-1,-1.2391853E-1,1.042967E-1,-2.495834E-4,1.6425349E-1,4.0972352E-2,8.033508E-2,1.9885622E-1,4.2353673E-3,1.1363919E-1,-3.7471583E-1,-1.8214954E-1,1.7315727E-1,-5.7063077E-2,-1.3959906E-2,1.725039E-1,-2.4282816E-3,4.8792187E-2,-1.5013295E-2,2.3356421E-1,-5.885604E-3,1.7130867E-1,-5.4199155E-2,-3.1770815E-3,-5.0518464E-2,2.2185259E-3,1.2773138E-1,7.6517634E-2,-4.2945698E-2,-8.547974E-2,1.6130883E-1,-2.1539659E-3,-1.01752624E-1,-7.939485E-2,-9.217629E-4,-1.1020107E-3,1.0889334E-1,1.23883866E-1,-3.4283104E-3,-3.734887E-2,1.258421E-2,1.3955547E-1,2.183368E-2,-1.3915442E-1,7.561758E-2,2.525386E-2,-1.6525038E-2,-2.1867798E-1,3.4196805E-2,5.2805796E-2,-2.0822647E-1,-2.0978518E-2,-1.251495E-1,1.3544711E-1,5.0779372E-2],"categories":[],"categories_nodes":[],"categories_segments":[],"categories_sizes":[],"default_left":[0,0,0,0,0,0,0,0,0,0,0,0,0,0,0,0,0,0,0,0,0,0,0,0,0,0,0,0,0,0,0,0,0,0,0,0,0,0,0,0,0,0,0,0,0,0,0,0,0,0,0,0,0,0,0,0,0,0,0,0,0,0,0,0,0,0,0,0,0,0,0,0,0,0,0,0,0,0,0,0,0,0,0,0,0,0,0,0,0,0,0,0,0,0,0,0,0],"id":7,"left_children":[1,3,5,7,9,11,13,15,17,19,21,23,25,27,29,31,-1,33,35,37,39,41,43,45,47,-1,-1,49,51,53,-1,-1,55,57,59,61,63,65,67,69,71,73,-1,75,-1,77,79,81,83,85,87,89,91,93,95,-1,-1,-1,-1,-1,-1,-1,-1,-1,-1,-1,-1,-1,-1,-1,-1,-1,-1,-1,-1,-1,-1,-1,-1,-1,-1,-1,-1,-1,-1,-1,-1,-1,-1,-1,-1,-1,-1,-1,-1,-1,-1],"loss_changes":[1.24297104E2,1.9920341E1,2.2776161E1,9.6923447E-1,9.4358253E-1,2.1712208E0,4.6514816E0,1.045007E0,9.039345E-1,1.393523E0,8.081492E-1,1.9571629E0,1.830554E-2,3.7989693E0,2.107624E0,2.181352E-1,0E0,7.827492E-1,1.788657E0,1.0710642E0,2.0127738E0,4.198861E-2,5.922846E-1,1.0751562E0,1.7134476E0,0E0,0E0,2.5180218E0,1.4162674E0,1.5938835E0,0E0,0E0,2.7471036E-3,1.6717331E0,7.2081757E-1,1.8684156E0,1.1112317E0,1.4720645E0,3.4921436E0,2.0809724E0,2.0568962E0,8.4301054E-2,0E0,4.4136292E-1,0E0,1.598132E0,1.7960348E0,1.5130472E0,3.6185703E0,2.7964826E0,2.5274842E0,1.4074707E0,1.1775105E0,3.1368655E-1,1.148983E0,0E0,0E0,0E0,0E0,0E0,0E0,0E0,0E0,0E0,0E0,0E0,0E0,0E0,0E0,0E0,0E0,0E0,0E0,0E0,0E0,0E0,0E0,0E0,0E0,0E0,0E0,0E0,0E0,0E0,0E0,0E0,0E0,0E0,0E0,0E0,0E0,0E0,0E0,0E0,0E0,0E0,0E0],"parents":[2147483647,0,0,1,1,2,2,3,3,4,4,5,5,6,6,7,7,8,8,9,9,10,10,11,11,12,12,13,13,14,14,15,15,17,17,18,18,19,19,20,20,21,21,22,22,23,23,24,24,27,27,28,28,29,29,32,32,33,33,34,34,35,35,36,36,37,37,38,38,39,39,40,40,41,41,43,43,45,45,46,46,47,47,48,48,49,49,50,50,51,51,52,52,53,53,54,54],"right_children":[2,4,6,8,10,12,14,16,18,20,22,24,26,28,30,32,-1,34,36,38,40,42,44,46,48,-1,-1,50,52,54,-1,-1,56,58,60,62,64,66,68,70,72,74,-1,76,-1,78,80,82,84,86,88,90,92,94,96,-1,-1,-1,-1,-1,-1,-1,-1,-1,-1,-1,-1,-1,-1,-1,-1,-1,-1,-1,-1,-1,-1,-1,-1,-1,-1,-1,-1,-1,-1,-1,-1,-1,-1,-1,-1,-1,-1,-1,-1,-1,-1],"split_conditions":[2.7E1,1E0,5E0,-2E0,7.1897E4,1.15E2,9.1E1,1.5E1,1.4980909E0,2.4E1,-3.3963E4,0E0,1.6782E4,1.958E3,2.97E2,5.5625E-1,1.976403E-1,1.08762E0,8.8871E4,9E0,3.18567E5,7.8E1,5E0,1.1666667E1,1E0,8.8801235E-2,1.9893894E-1,2E0,2.33114E5,1.9599E4,1.9009103E-1,4.9299058E-2,-7.5589E4,1.3E2,-5.80673E5,3.23E2,2E0,2.6E0,1.1333333E1,1.5E2,-8.1128E4,8E0,-1.8732162E-1,1.5E2,1.042967E-1,7.9E0,1.215554E6,2.5E1,7E0,9E0,2E0,2.731E3,2.12E2,5.3516483E-1,4.92E2,-5.7063077E-2,-1.3959906E-2,1.725039E-1,-2.4282816E-3,4.8792187E-2,-1.5013295E-2,2.3356421E-1,-5.885604E-3,1.7130867E-1,-5.4199155E-2,-3.1770815E-3,-5.0518464E-2,2.2185259E-3,1.2773138E-1,7.6517634E-2,-4.2945698E-2,-8.547974E-2,1.6130883E-1,-2.1539659E-3,-1.01752624E-1,-7.939485E-2,-9.217629E-4,-1.1020107E-3,1.0889334E-1,1.23883866E-1,-3.4283104E-3,-3.734887E-2,1.258421E-2,1.3955547E-1,2.183368E-2,-1.3915442E-1,7.561758E-2,2.525386E-2,-1.6525038E-2,-2.1867798E-1,3.4196805E-2,5.2805796E-2,-2.0822647E-1,-2.0978518E-2,-1.251495E-1,1.3544711E-1,5.0779372E-2],"split_indices":[30,2,2,34,4,10,26,45,41,30,0,3,8,38,6,40,0,41,4,46,33,10,2,34,22,0,0,23,0,8,0,0,0,5,0,5,29,28,34,6,0,46,0,6,0,17,33,38,9,26,19,33,36,40,5,0,0,0,0,0,0,0,0,0,0,0,0,0,0,0,0,0,0,0,0,0,0,0,0,0,0,0,0,0,0,0,0,0,0,0,0,0,0,0,0,0,0],"split_type":[0,0,0,0,0,0,0,0,0,0,0,0,0,0,0,0,0,0,0,0,0,0,0,0,0,0,0,0,0,0,0,0,0,0,0,0,0,0,0,0,0,0,0,0,0,0,0,0,0,0,0,0,0,0,0,0,0,0,0,0,0,0,0,0,0,0,0,0,0,0,0,0,0,0,0,0,0,0,0,0,0,0,0,0,0,0,0,0,0,0,0,0,0,0,0,0,0],"sum_hessian":[5.2834E4,3.4654E4,1.818E4,2.6064E4,8.59E3,1.193E4,6.25E3,9E0,2.6055E4,8.557E3,3.3E1,1.1923E4,7E0,5.099E3,1.151E3,6E0,3E0,2.5913E4,1.42E2,8.486E3,7.1E1,6E0,2.7E1,1.323E3,1.06E4,3E0,4E0,6.06E2,4.493E3,1.142E3,9E0,3E0,3E0,2.98E2,2.5615E4,1.32E2,1E1,3.06E2,8.18E3,5.1E1,2E1,4E0,2E0,2.5E1,2E0,1.283E3,4E1,9.345E3,1.255E3,7.5E1,5.31E2,4.488E3,5E0,1.2E1,1.13E3,2E0,1E0,4E0,2.94E2,1.5E1,2.56E4,2E0,1.3E2,8E0,2E0,2.27E2,7.9E1,8.161E3,1.9E1,2.3E1,2.8E1,3E0,1.7E1,1E0,3E0,1.1E1,1.4E1,1.272E3,1.1E1,1.6E1,2.4E1,5.4E1,9.291E3,2.3E1,1.232E3,5E0,7E1,2.26E2,3.05E2,1E0,4.487E3,2E0,3E0,9E0,3E0,1.4E1,1.116E3],"tree_param":{"num_deleted":"0","num_feature":"47","num_nodes":"97","size_leaf_vector":"1"}},{"base_weights":[1.11041016E-4,-2.4483569E-2,4.6991084E-2,-3.4108873E-2,4.722354E-3,3.4267504E-2,9.7153075E-2,6.9796E-2,-3.437132E-2,-2.3638149E-1,5.1153046E-3,2.625865E-2,5.6884754E-2,-1.3932365E-1,9.894004E-2,1.2198317E-2,3.2796907E-1,-3.455437E-2,7.958528E-2,-1.2475165E-1,-4.980865E-2,5.7404665E-3,-1.220781E-1,2.5173048E-2,1.7990465E-1,5.411038E-2,4.1501787E-1,-4.4081125E-1,3.311962E-3,4.8086804E-1,9.7864196E-2,2.1916513E-1,-5.7081055E-2,-4.4816297E-2,6.006467E-1,-3.4801602E-2,6.4470485E-2,-7.24681E-3,2.972694E-1,1.1996502E-2,-1.11684516E-1,6.5169903E-3,-1.377373E-1,-1.7412178E-1,4.158674E-1,2.6393497E-2,-1.3036263E-1,2.9051697E-1,-1.8650757E-1,-1.8920414E-1,5.730422E-2,5.4350275E-1,9.807229E-3,-1.24469176E-1,-2.0069733E-1,2.3765312E-1,-1.727199E-1,2.2830683E-1,4.850874E-2,-2.7265912E-2,1.0122327E-1,-1.547234E-2,1.2859999E-1,1.849526E-1,-2.6564064E-2,-4.3043673E-2,3.0501785E-2,-3.2923907E-2,2.2120099E-1,-2.6078098E-2,-1.0283326E-2,1.48974E-1,1.1272846E-3,1.2850985E-1,-2.629424E-2,1.5590253E-1,-8.323823E-2,-9.038463E-3,-3.7362464E-2,2.1732783E-2,1.3153962E-3,8.728105E-2,-6.279355E-2,-2.9261239E-2,-1.3760817E-1,1.7686073E-1,4.8439804E-2,7.710031E-3,7.023411E-2,1.3080047E-2,-1.0434573E-1,3.0413223E-2,1.3559437E-1,-1.4743145E-1,3.1974215E-2,3.3983573E-2,-1.1054803E-1,1.8124465E-2,-2.1943245E-2,1.9114041E-1,-7.856333E-2,8.787147E-2,-6.55897E-2,-4.465892E-2,-4.0340424E-3,-2.2628378E-2,1.5096106E-1,-3.413547E-3,-1.1889666E-1,-2.5468264E-2,8.7318085E-2,5.510645E-2,-3.5049196E-2,9.93057E-2,2.9849442E-2],"categories":[],"categories_nodes":[],"categories_segments":[],"categories_sizes":[],"default_left":[0,0,0,0,0,0,0,0,0,0,0,0,0,0,0,0,0,0,0,0,0,0,0,0,0,0,0,0,0,0,0,0,0,0,0,0,0,0,0,0,0,0,0,0,0,0,0,0,0,0,0,0,0,0,0,0,0,0,0,0,0,0,0,0,0,0,0,0,0,0,0,0,0,0,0,0,0,0,0,0,0,0,0,0,0,0,0,0,0,0,0,0,0,0,0,0,0,0,0,0,0,0,0,0,0,0,0,0,0,0,0,0,0,0,0],"id":8,"left_children":[1,3,5,7,9,11,13,15,17,19,21,23,25,27,29,31,33,35,37,-1,39,41,43,45,47,49,51,53,55,57,59,61,63,65,67,69,71,73,75,-1,77,79,81,83,85,87,89,91,93,95,97,99,101,103,-1,105,107,-1,109,111,113,-1,-1,-1,-1,-1,-1,-1,-1,-1,-1,-1,-1,-1,-1,-1,-1,-1,-1,-1,-1,-1,-1,-1,-1,-1,-1,-1,-1,-1,-1,-1,-1,-1,-1,-1,-1,-1,-1,-1,-1,-1,-1,-1,-1,-1,-1,-1,-1,-1,-1,-1,-1,-1,-1],"loss_changes":[6.0919712E1,9.742235E0,1.1600513E1,7.1317863E-1,8.1513715E-1,2.6257362E0,1.568016E0,9.774308E-1,5.45105E-1,4.480335E-1,6.8279314E-1,1.782381E0,3.7452564E0,1.2055403E0,1.4531136E0,8.0112934E-1,1.2467214E0,6.377735E-1,7.9603684E-1,0E0,4.8916206E-2,9.520377E-1,1.2482717E0,2.022973E0,3.0939124E0,2.935873E0,1.5045099E0,5.663773E-1,8.660776E-1,1.1743588E0,1.5335693E0,8.161933E-1,9.4478196E-1,1.01305746E-1,7.6064515E-1,7.041054E-1,1.7033834E0,1.1232758E0,1.6780684E0,0E0,1.4906414E-3,1.1934502E0,1.4722755E0,8.052169E-1,8.1535935E-2,1.5145307E0,3.1549995E0,1.7254572E0,1.6610663E0,2.6991062E0,1.5123014E0,1.8258572E0,5.8140415E-1,1.1539608E-2,0E0,7.8620493E-1,4.2840612E-1,0E0,1.8649478E-1,1.8352889E0,1.3731918E0,0E0,0E0,0E0,0E0,0E0,0E0,0E0,0E0,0E0,0E0,0E0,0E0,0E0,0E0,0E0,0E0,0E0,0E0,0E0,0E0,0E0,0E0,0E0,0E0,0E0,0E0,0E0,0E0,0E0,0E0,0E0,0E0,0E0,0E0,0E0,0E0,0E0,0E0,0E0,0E0,0E0,0E0,0E0,0E0,0E0,0E0,0E0,0E0,0E0,0E0,0E0,0E0,0E0,0E0],"parents":[2147483647,0,0,1,1,2,2,3,3,4,4,5,5,6,6,7,7,8,8,9,9,10,10,11,11,12,12,13,13,14,14,15,15,16,16,17,17,18,18,20,20,21,21,22,22,23,23,24,24,25,25,26,26,27,27,28,28,29,29,30,30,31,31,32,32,33,33,34,34,35,35,36,36,37,37,38,38,40,40,41,41,42,42,43,43,44,44,45,45,46,46,47,47,48,48,49,49,50,50,51,51,52,52,53,53,55,55,56,56,58,58,59,59,60,60],"right_children":[2,4,6,8,10,12,14,16,18,20,22,24,26,28,30,32,34,36,38,-1,40,42,44,46,48,50,52,54,56,58,60,62,64,66,68,70,72,74,76,-1,78,80,82,84,86,88,90,92,94,96,98,100,102,104,-1,106,108,-1,110,112,114,-1,-1,-1,-1,-1,-1,-1,-1,-1,-1,-1,-1,-1,-1,-1,-1,-1,-1,-1,-1,-1,-1,-1,-1,-1,-1,-1,-1,-1,-1,-1,-1,-1,-1,-1,-1,-1,-1,-1,-1,-1,-1,-1,-1,-1,-1,-1,-1,-1,-1,-1,-1,-1,-1],"split_conditions":[2.7E1,1E0,2E0,0E0,2.503E3,1.1E1,6.5E1,3.03356E5,1.8193287E0,9E0,4E0,8.4E0,1.91116E5,-2.045E3,9.333333E0,1.9E2,6.7E1,3.8E1,2.5E1,-1.2475165E-1,9E0,7.246835E-1,7.246835E-1,7E0,8.4E1,5.8377E4,2.49E2,1.229771E0,4.816E3,1.49E2,1.1414386E0,-4.13E2,1E0,-5.0633E4,4.4E1,6.29E2,-1.4176E4,1.5E1,5.024E3,1.1996502E-2,-2.05E2,1.93E2,2E0,1.7E1,-7.5589E4,3.58683E6,6.7E1,1E1,3.0588E4,4.6004844E-1,6.3698E4,1.9E1,6E0,-1.26484E5,-2.0069733E-1,1.68411E5,1.92127E5,2.2830683E-1,5.371E3,6.578E3,3E1,-1.547234E-2,1.2859999E-1,1.849526E-1,-2.6564064E-2,-4.3043673E-2,3.0501785E-2,-3.2923907E-2,2.2120099E-1,-2.6078098E-2,-1.0283326E-2,1.48974E-1,1.1272846E-3,1.2850985E-1,-2.629424E-2,1.5590253E-1,-8.323823E-2,-9.038463E-3,-3.7362464E-2,2.1732783E-2,1.3153962E-3,8.728105E-2,-6.279355E-2,-2.9261239E-2,-1.3760817E-1,1.7686073E-1,4.8439804E-2,7.710031E-3,7.023411E-2,1.3080047E-2,-1.0434573E-1,3.0413223E-2,1.3559437E-1,-1.4743145E-1,3.1974215E-2,3.3983573E-2,-1.1054803E-1,1.8124465E-2,-2.1943245E-2,1.9114041E-1,-7.856333E-2,8.787147E-2,-6.55897E-2,-4.465892E-2,-4.0340424E-3,-2.2628378E-2,1.5096106E-1,-3.413547E-3,-1.1889666E-1,-2.5468264E-2,8.7318085E-2,5.510645E-2,-3.5049196E-2,9.93057E-2,2.9849442E-2],"split_indices":[30,2,32,34,33,3,38,33,41,23,29,17,8,0,34,38,10,9,9,0,46,40,40,17,10,33,6,41,37,36,41,0,21,0,6,37,0,45,37,0,0,36,3,45,0,33,10,28,4,40,8,46,21,0,0,33,4,0,0,4,3,0,0,0,0,0,0,0,0,0,0,0,0,0,0,0,0,0,0,0,0,0,0,0,0,0,0,0,0,0,0,0,0,0,0,0,0,0,0,0,0,0,0,0,0,0,0,0,0,0,0,0,0,0,0],"split_type":[0,0,0,0,0,0,0,0,0,0,0,0,0,0,0,0,0,0,0,0,0,0,0,0,0,0,0,0,0,0,0,0,0,0,0,0,0,0,0,0,0,0,0,0,0,0,0,0,0,0,0,0,0,0,0,0,0,0,0,0,0,0,0,0,0,0,0,0,0,0,0,0,0,0,0,0,0,0,0,0,0,0,0,0,0,0,0,0,0,0,0,0,0,0,0,0,0,0,0,0,0,0,0,0,0,0,0,0,0,0,0,0,0,0,0],"sum_hessian":[5.2834E4,3.4654E4,1.818E4,2.6064E4,8.59E3,1.4503E4,3.677E3,6.5E1,2.5999E4,1.3E1,8.577E3,1.0712E4,3.791E3,2.7E1,3.65E3,5.4E1,1.1E1,2.5958E4,4.1E1,6E0,7E0,8.536E3,4.1E1,1.0638E4,7.4E1,3.763E3,2.8E1,8E0,1.9E1,9E0,3.641E3,1.3E1,4.1E1,5E0,6E0,2.5894E4,6.4E1,3E1,1.1E1,3E0,4E0,8.491E3,4.5E1,3.8E1,3E0,1.0556E4,8.2E1,5.7E1,1.7E1,4.8E1,3.715E3,2.1E1,7E0,4E0,4E0,8E0,1.1E1,5E0,4E0,9.5E1,3.546E3,6E0,7E0,1E0,4E1,3E0,2E0,1E0,5E0,2.56E2,2.5638E4,7E0,5.7E1,4E0,2.6E1,8E0,3E0,1E0,3E0,2.65E2,8.226E3,6E0,3.9E1,3.1E1,7E0,1E0,2E0,1.0522E4,3.4E1,4.6E1,3.6E1,2.7E1,3E1,8E0,9E0,1.8E1,3E1,3.629E3,8.6E1,1.9E1,2E0,3E0,4E0,3E0,1E0,4E0,4E0,7E0,4E0,3E0,1E0,2.8E1,6.7E1,2.5E1,3.521E3],"tree_param":{"num_deleted":"0","num_feature":"47","num_nodes":"115","size_leaf_vector":"1"}},{"base_weights":[9.609493E-5,-1.6212948E-2,3.5201404E-2,-2.3736317E-2,3.4590324E-3,2.7483173E-2,7.9194516E-2,7.201755E-2,-2.4015075E-2,2.8669604E-3,3.9664045E-1,2.7207542E-2,5.1511765E-1,7.6930635E-2,4.0546218E-1,4.191024E-2,4.1628447E-1,-8.66388E-3,-2.5394551E-2,-1.2194033E-1,3.9655706E-3,-3.482064E-1,6.118694E-1,-3.4765583E-1,2.7547827E-2,9.242323E-1,-1.4244525E-1,-3.4316018E-1,7.859621E-2,1.3737953E-1,2.6221517E-1,-1.6214204E-1,9.0441644E-2,1.5826616E-1,3.8749155E-2,-1.2131479E-2,3.4296688E-1,6.796123E-1,-2.5511619E-2,-2.2251802E-2,-2.2821966E-1,3.5206936E-3,2.4753782E-1,-2.9403144E-2,-1.1968047E-1,6.2398985E-2,7.233829E-1,-1.40561E-1,-1.9526862E-1,1.5962218E-1,2.6781045E-2,3.3579975E-1,1.068064E-1,-5.358872E-2,-4.596067E-1,-5.4683886E-2,8.1759356E-2,-2.505263E-1,4.502446E-1,6.264049E-3,-5.3348053E-2,5.679578E-2,-1.7256979E-2,-4.4724676E-3,9.421168E-2,2.6150782E-2,1.8468821E-1,2.5138858E-1,3.0684547E-2,-3.517414E-2,-7.5397245E-3,2.0644356E-2,-9.547924E-2,-7.7695616E-2,7.7418864E-2,1.2034943E-3,-6.8036206E-2,-5.3485498E-2,1.2750903E-1,2.4003984E-1,9.095171E-2,-1.1451645E-1,-5.137907E-3,1.6146591E-2,1.1194431E-1,-1.35684395E-2,8.616531E-3,5.7628397E-3,-4.079749E-2,-8.424544E-2,-1.8131563E-1,1.2699075E-1,-4.5334842E-2,2.4787547E-2,-1.3848522E-1,6.4265192E-3,-1.5888448E-1,1.4776003E-1,2.9476726E-2],"categories":[],"categories_nodes":[],"categories_segments":[],"categories_sizes":[],"default_left":[0,0,0,0,0,0,0,0,0,0,0,0,0,0,0,0,0,0,0,0,0,0,0,0,0,0,0,0,0,0,0,0,0,0,0,0,0,0,0,0,0,0,0,0,0,0,0,0,0,0,0,0,0,0,0,0,0,0,0,0,0,0,0,0,0,0,0,0,0,0,0,0,0,0,0,0,0,0,0,0,0,0,0,0,0,0,0,0,0,0,0,0,0,0,0,0,0,0,0],"id":9,"left_children":[1,3,5,7,9,11,13,15,17,19,21,23,25,27,29,31,33,35,37,39,41,43,45,47,49,51,-1,53,55,57,-1,59,61,-1,-1,63,65,67,69,71,73,75,77,-1,-1,-1,79,81,-1,83,85,-1,-1,87,89,91,93,95,97,-1,-1,-1,-1,-1,-1,-1,-1,-1,-1,-1,-1,-1,-1,-1,-1,-1,-1,-1,-1,-1,-1,-1,-1,-1,-1,-1,-1,-1,-1,-1,-1,-1,-1,-1,-1,-1,-1,-1,-1],"loss_changes":[3.0250404E1,5.3393154E0,5.6886654E0,6.98287E-1,2.3223567E0,1.902627E0,1.816122E0,7.702898E-1,5.5081654E-1,1.3671043E0,2.6177452E0,1.8277016E0,3.6788173E0,1.7657146E0,2.0154703E0,7.1777344E-1,1.2354553E-1,2.6220286E0,1.9878216E0,9.16672E-1,1.0698307E0,1.1668414E-2,3.8998652E-1,7.2490096E-1,1.4379444E0,2.666421E-1,0E0,3.1256616E-1,1.0483122E0,1.5691444E0,0E0,4.3902367E-2,8.594544E-1,0E0,0E0,1.9310901E0,1.4110003E0,2.7997172E-1,8.274765E-1,1.2619116E0,6.95189E-1,1.1162379E0,1.4362206E0,0E0,0E0,0E0,4.768181E-2,2.6137054E-1,0E0,1.8323822E0,1.9801569E0,0E0,0E0,2.6607458E-2,1.1471033E-2,2.737379E0,1.1761608E0,4.667309E-1,5.5801988E-2,0E0,0E0,0E0,0E0,0E0,0E0,0E0,0E0,0E0,0E0,0E0,0E0,0E0,0E0,0E0,0E0,0E0,0E0,0E0,0E0,0E0,0E0,0E0,0E0,0E0,0E0,0E0,0E0,0E0,0E0,0E0,0E0,0E0,0E0,0E0,0E0,0E0,0E0,0E0,0E0],"parents":[2147483647,0,0,1,1,2,2,3,3,4,4,5,5,6,6,7,7,8,8,9,9,10,10,11,11,12,12,13,13,14,14,15,15,16,16,17,17,18,18,19,19,20,20,21,21,22,22,23,23,24,24,25,25,27,27,28,28,29,29,31,31,32,32,35,35,36,36,37,37,38,38,39,39,40,40,41,41,42,42,46,46,47,47,49,49,50,50,53,53,54,54,55,55,56,56,57,57,58,58],"right_children":[2,4,6,8,10,12,14,16,18,20,22,24,26,28,30,32,34,36,38,40,42,44,46,48,50,52,-1,54,56,58,-1,60,62,-1,-1,64,66,68,70,72,74,76,78,-1,-1,-1,80,82,-1,84,86,-1,-1,88,90,92,94,96,98,-1,-1,-1,-1,-1,-1,-1,-1,-1,-1,-1,-1,-1,-1,-1,-1,-1,-1,-1,-1,-1,-1,-1,-1,-1,-1,-1,-1,-1,-1,-1,-1,-1,-1,-1,-1,-1,-1,-1,-1],"split_conditions":[2E0,1E0,1.09E1,0E0,3.192352E6,4.1E1,1.04E2,1.2E0,2.5E2,1.3E1,-2E0,4.4E1,2E0,5.2E1,4.8064E4,7.8E1,-3.23E2,1.4E1,1.04E2,1.3E0,1.3E1,4.29E2,6.6E1,1.7491E4,3E0,2.10557E5,-1.4244525E-1,3.20442E-1,1E0,1.5E1,2.6221517E-1,1.2E1,2.12E2,1.5826616E-1,3.8749155E-2,1E0,6.5921E4,2.17E2,4.66E2,3E0,1.9666666E1,3.8E1,5.5E0,-2.9403144E-2,-1.1968047E-1,6.2398985E-2,1.6E1,1E0,-1.9526862E-1,2.2851E4,4.4084507E-1,3.3579975E-1,1.068064E-1,3.64E2,7.3E1,1.15E1,3.1E2,9.8573E4,3.2336E4,6.264049E-3,-5.3348053E-2,5.679578E-2,-1.7256979E-2,-4.4724676E-3,9.421168E-2,2.6150782E-2,1.8468821E-1,2.5138858E-1,3.0684547E-2,-3.517414E-2,-7.5397245E-3,2.0644356E-2,-9.547924E-2,-7.7695616E-2,7.7418864E-2,1.2034943E-3,-6.8036206E-2,-5.3485498E-2,1.2750903E-1,2.4003984E-1,9.095171E-2,-1.1451645E-1,-5.137907E-3,1.6146591E-2,1.1194431E-1,-1.35684395E-2,8.616531E-3,5.7628397E-3,-4.079749E-2,-8.424544E-2,-1.8131563E-1,1.2699075E-1,-4.5334842E-2,2.4787547E-2,-1.3848522E-1,6.4265192E-3,-1.5888448E-1,1.4776003E-1,2.9476726E-2],"split_indices":[2,2,17,34,33,34,10,28,38,45,3,10,19,30,8,15,0,34,43,16,28,5,6,4,9,0,0,40,29,45,0,45,15,0,0,26,4,6,39,19,34,9,17,0,0,0,21,19,0,4,40,0,0,0,10,17,15,0,8,0,0,0,0,0,0,0,0,0,0,0,0,0,0,0,0,0,0,0,0,0,0,0,0,0,0,0,0,0,0,0,0,0,0,0,0,0,0,0,0],"split_type":[0,0,0,0,0,0,0,0,0,0,0,0,0,0,0,0,0,0,0,0,0,0,0,0,0,0,0,0,0,0,0,0,0,0,0,0,0,0,0,0,0,0,0,0,0,0,0,0,0,0,0,0,0,0,0,0,0,0,0,0,0,0,0,0,0,0,0,0,0,0,0,0,0,0,0,0,0,0,0,0,0,0,0,0,0,0,0,0,0,0,0,0,0,0,0,0,0,0,0],"sum_hessian":[5.2834E4,3.6075E4,1.6759E4,2.6095E4,9.98E3,1.4259E4,2.5E3,7.5E1,2.602E4,9.966E3,1.4E1,1.4252E4,7E0,2.484E3,1.6E1,7E1,5E0,2.146E3,2.3874E4,8.6E1,9.88E3,3E0,1.1E1,1.2E1,1.424E4,5E0,2E0,9E0,2.475E3,1.1E1,5E0,1.3E1,5.7E1,3E0,2E0,2.126E3,2E1,3E0,2.3871E4,4.5E1,4.1E1,9.863E3,1.7E1,1E0,2E0,3E0,8E0,8E0,4E0,8.1E1,1.4159E4,3E0,2E0,3E0,6E0,5.7E1,2.418E3,5E0,6E0,1E0,1.2E1,3.4E1,2.3E1,2.109E3,1.7E1,1.1E1,9E0,2E0,1E0,9.7E1,2.3774E4,3.5E1,1E1,3.9E1,2E0,9.843E3,2E1,5E0,1.2E1,6E0,2E0,2E0,6E0,5.5E1,2.6E1,3.71E2,1.3788E4,2E0,1E0,4E0,2E0,9E0,4.8E1,2.415E3,3E0,3E0,2E0,5E0,1E0],"tree_param":{"num_deleted":"0","num_feature":"47","num_nodes":"99","size_leaf_vector":"1"}},{"base_weights":[8.55888E-5,-1.1323951E-2,2.4644688E-2,-1.658747E-2,2.4390102E-3,1.3622291E-2,4.2943202E-2,1.0231089E-2,-1.7370557E-2,2.000073E-3,2.9393545E-1,-3.148948E-1,1.4187179E-2,4.3920837E-2,-3.0069125E-1,5.37006E-3,7.247005E-1,-1.725868E-2,-4.2004856E-1,-8.778405E-2,3.149311E-3,-2.810154E-1,4.610911E-1,-3.4514554E-2,-5.357475E-1,6.788926E-2,1.202506E-2,4.45677E-2,-2.7149588E-1,1.10986955E-1,-3.6190325E-1,-1.4061109E-2,1.04408585E-1,3.109222E-2,2.562166E-1,-1.7210344E-2,-1.25975E-1,8.747614E-3,-1.4993288E-1,-1.335122E-1,2.5950506E-1,2.6341447E-1,2.857807E-3,-2.4992682E-2,-9.574438E-2,4.8359204E-2,5.431449E-1,1.5644988E-1,-1.4057802E-1,-2.1760702E-1,-2.0106699E-1,-3.0160936E-2,1.309872E-1,-1.2538213E-1,1.3391981E-2,-3.1962562E-1,4.5083936E-2,-3.5683295E-1,1.3190539E-1,-4.2673424E-1,8.28861E-2,4.1577563E-2,-6.3033937E-3,5.3885326E-2,-1.2399861E-2,-5.219845E-3,2.3650391E-2,-1.269748E-2,-8.36555E-2,1.0222704E-1,-1.47378985E-2,1.5561216E-1,1.3029583E-2,-1.04419775E-1,9.215332E-4,4.8356976E-2,1.7122217E-1,1.0634465E-1,-2.4208458E-2,-1.0388411E-2,-7.020592E-2,1.5472674E-1,-1.9906294E-2,7.0089936E-2,-7.004262E-4,5.133198E-2,-6.369461E-2,3.8479622E-3,1.2404813E-1,-5.9962098E-2,-1.9164619E-1,-7.2713576E-2,1.3674726E-2,-2.7876481E-2,-1.9648269E-1,9.174056E-2,-3.2383133E-2,-1.276868E-2,-1.4476909E-1,7.197662E-2,-3.467787E-2],"categories":[],"categories_nodes":[],"categories_segments":[],"categories_sizes":[],"default_left":[0,0,0,0,0,0,0,0,0,0,0,0,0,0,0,0,0,0,0,0,0,0,0,0,0,0,0,0,0,0,0,0,0,0,0,0,0,0,0,0,0,0,0,0,0,0,0,0,0,0,0,0,0,0,0,0,0,0,0,0,0,0,0,0,0,0,0,0,0,0,0,0,0,0,0,0,0,0,0,0,0,0,0,0,0,0,0,0,0,0,0,0,0,0,0,0,0,0,0,0,0],"id":10,"left_children":[1,3,5,7,9,11,13,15,17,19,21,23,25,27,29,31,33,35,37,39,41,43,45,47,49,51,53,55,57,-1,59,61,63,-1,-1,65,-1,-1,-1,67,69,71,73,-1,-1,-1,75,77,-1,-1,79,81,83,85,87,89,91,93,95,97,99,-1,-1,-1,-1,-1,-1,-1,-1,-1,-1,-1,-1,-1,-1,-1,-1,-1,-1,-1,-1,-1,-1,-1,-1,-1,-1,-1,-1,-1,-1,-1,-1,-1,-1,-1,-1,-1,-1,-1,-1],"loss_changes":[1.4805071E1,2.6134439E0,3.379797E0,5.482273E-1,1.2764668E0,1.9457693E0,2.1296844E0,2.5696433E0,1.1350632E0,1.0287048E0,1.571168E0,1.0961182E0,1.2118392E0,1.294035E0,8.728188E-1,1.4197763E0,3.131702E-1,4.861617E-1,2.652725E-1,2.0356393E0,7.45943E-1,3.5683215E-3,2.0773554E-1,8.1935394E-1,4.887395E-1,2.5034037E0,1.8876265E0,1.1934147E0,4.9459434E-1,0E0,5.255847E-1,6.575299E-1,1.3337163E0,0E0,0E0,4.6184063E-1,0E0,0E0,0E0,1.4725457E0,3.9289248E-1,5.9523076E-1,7.3932654E-1,0E0,0E0,0E0,2.8648376E-3,3.5734105E-1,0E0,0E0,1.9319445E-2,3.175835E0,3.3670444E0,2.5880263E0,2.2441354E0,2.1633464E-1,9.085016E-1,8.0456066E-1,1.5813619E-1,3.0118203E-1,1.2123829E-1,0E0,0E0,0E0,0E0,0E0,0E0,0E0,0E0,0E0,0E0,0E0,0E0,0E0,0E0,0E0,0E0,0E0,0E0,0E0,0E0,0E0,0E0,0E0,0E0,0E0,0E0,0E0,0E0,0E0,0E0,0E0,0E0,0E0,0E0,0E0,0E0,0E0,0E0,0E0,0E0],"parents":[2147483647,0,0,1,1,2,2,3,3,4,4,5,5,6,6,7,7,8,8,9,9,10,10,11,11,12,12,13,13,14,14,15,15,16,16,17,17,18,18,19,19,20,20,21,21,22,22,23,23,24,24,25,25,26,26,27,27,28,28,30,30,31,31,32,32,35,35,39,39,40,40,41,41,42,42,46,46,47,47,50,50,51,51,52,52,53,53,54,54,55,55,56,56,57,57,58,58,59,59,60,60],"right_children":[2,4,6,8,10,12,14,16,18,20,22,24,26,28,30,32,34,36,38,40,42,44,46,48,50,52,54,56,58,-1,60,62,64,-1,-1,66,-1,-1,-1,68,70,72,74,-1,-1,-1,76,78,-1,-1,80,82,84,86,88,90,92,94,96,98,100,-1,-1,-1,-1,-1,-1,-1,-1,-1,-1,-1,-1,-1,-1,-1,-1,-1,-1,-1,-1,-1,-1,-1,-1,-1,-1,-1,-1,-1,-1,-1,-1,-1,-1,-1,-1,-1,-1,-1,-1],"split_conditions":[2E0,1E0,5E0,5E0,3.192352E6,6.1E1,3.8E1,3.62121E5,3.192352E6,3.3E1,-2E0,1.09E2,1.31E2,3.19E2,8.8E1,3.413E3,1.801E3,1.05E2,-1.4E1,1E0,5E1,4.29E2,6.6E1,6E0,3.149E3,6E1,3.8181818E-1,1.138E4,1.5E1,1.10986955E-1,5.4E1,3.4E1,2E0,3.109222E-2,2.562166E-1,3.8E1,-1.25975E-1,8.747614E-3,-1.4993288E-1,1.3537E4,7.6E0,2E0,-2.90191E5,-2.4992682E-2,-9.574438E-2,4.8359204E-2,5.3435E4,-1.273E3,-1.4057802E-1,-2.1760702E-1,-3.67479E5,1.68E3,6.2E0,2.2E1,2.7666666E1,2.02E2,8E0,1.27E1,5.679E3,-1.8191E4,-1.3539E4,4.1577563E-2,-6.3033937E-3,5.3885326E-2,-1.2399861E-2,-5.219845E-3,2.3650391E-2,-1.269748E-2,-8.36555E-2,1.0222704E-1,-1.47378985E-2,1.5561216E-1,1.3029583E-2,-1.04419775E-1,9.215332E-4,4.8356976E-2,1.7122217E-1,1.0634465E-1,-2.4208458E-2,-1.0388411E-2,-7.020592E-2,1.5472674E-1,-1.9906294E-2,7.0089936E-2,-7.004262E-4,5.133198E-2,-6.369461E-2,3.8479622E-3,1.2404813E-1,-5.9962098E-2,-1.9164619E-1,-7.2713576E-2,1.3674726E-2,-2.7876481E-2,-1.9648269E-1,9.174056E-2,-3.2383133E-2,-1.276868E-2,-1.4476909E-1,7.197662E-2,-3.467787E-2],"split_indices":[2,2,2,21,33,5,9,8,33,6,3,6,6,15,5,4,4,10,3,22,43,5,6,28,8,10,40,33,46,0,26,39,29,0,0,9,0,0,0,8,28,3,0,0,0,0,4,0,0,0,0,37,28,15,34,15,3,16,0,0,0,0,0,0,0,0,0,0,0,0,0,0,0,0,0,0,0,0,0,0,0,0,0,0,0,0,0,0,0,0,0,0,0,0,0,0,0,0,0,0,0],"split_type":[0,0,0,0,0,0,0,0,0,0,0,0,0,0,0,0,0,0,0,0,0,0,0,0,0,0,0,0,0,0,0,0,0,0,0,0,0,0,0,0,0,0,0,0,0,0,0,0,0,0,0,0,0,0,0,0,0,0,0,0,0,0,0,0,0,0,0,0,0,0,0,0,0,0,0,0,0,0,0,0,0,0,0,0,0,0,0,0,0,0,0,0,0,0,0,0,0,0,0,0,0],"sum_hessian":[5.2834E4,3.6075E4,1.6759E4,2.6095E4,9.98E3,1.046E4,6.299E3,7.4E2,2.5355E4,9.966E3,1.4E1,1.7E1,1.0443E4,6.282E3,1.7E1,7.36E2,4E0,2.5349E4,6E0,1.25E2,9.841E3,3E0,1.1E1,8E0,9E0,4.03E2,1.004E4,6.27E3,1.2E1,1E0,1.6E1,6.16E2,1.2E2,1E0,3E0,2.5347E4,2E0,1E0,5E0,1.11E2,1.4E1,1E1,9.831E3,1E0,2E0,3E0,8E0,6E0,2E0,5E0,4E0,1.58E2,2.45E2,9.8E1,9.942E3,8E0,6.262E3,1E1,2E0,1.4E1,2E0,2.6E1,5.9E2,7.9E1,4.1E1,2.5298E4,4.9E1,6.9E1,4.2E1,1.1E1,3E0,4E0,6E0,5E0,9.826E3,1E0,7E0,3E0,3E0,1E0,3E0,9E0,1.49E2,1.38E2,1.07E2,2.2E1,7.6E1,9.929E3,1.3E1,7E0,1E0,1E1,6.252E3,6E0,4E0,1E0,1E0,2E0,1.2E1,1E0,1E0],"tree_param":{"num_deleted":"0","num_feature":"47","num_nodes":"101","size_leaf_vector":"1"}},{"base_weights":[5.6067795E-5,-9.932602E-3,1.4057638E-2,-1.0121198E-2,1.1652802E-1,6.347788E-3,2.8865399E-2,-3.8340956E-2,-9.442349E-3,3.494827E-2,2.893135E-1,3.9095405E-2,2.708397E-3,2.7947107E-2,2.0922668E-1,-3.003505E-2,-2.8982353E-1,-1.0904033E-2,1.8243202E-3,2.6014006E-1,-4.11747E-2,-2.2479486E-2,5.958437E-2,3.2455795E-3,-1.8590128E-1,2.8426196E-2,-3.334925E-1,7.5529814E-1,1.0360076E-1,-2.6829537E-2,-1.41263E-1,-3.8629624E-1,-1.4129256E-2,-1.0737953E-2,-1.6280039E-1,3.8092834E-1,6.129472E-4,5.845769E-1,-1.0765347E-1,-1.4474162E-1,1.7911749E-1,1.1874112E-1,-6.0421817E-2,8.6300574E-2,2.056058E-4,3.4446344E-3,-4.2795083E-1,-5.1967865E-1,-1.04535386E-1,-2.438748E-2,3.134801E-2,2.7108103E-2,-4.9190816E-1,2.645711E-1,1.834066E-2,1.03877615E-2,1.8705481E-1,1.4161506E-2,-1.2325311E-2,-1.4215738E-1,-4.4037074E-2,-8.540762E-3,1.1229024E-3,5.745982E-2,-3.253231E-3,-2.0755835E-2,-1.1996688E-1,2.001109E-1,5.7077494E-2,4.6698246E-4,-1.214652E-1,2.2239476E-1,-2.9867643E-2,5.6834137E-3,-7.216997E-2,2.0899968E-3,-8.5316435E-2,7.5726196E-2,-3.0149346E-2,6.254318E-2,-6.3071415E-2,-3.0387195E-2,3.763074E-2,9.473973E-3,4.2237338E-2,-6.58803E-2,6.698499E-3,9.1729546E-4,1.01324655E-1,-1.5897359E-1,-4.480573E-2,-2.0234053E-1,-2.6540864E-2,-7.294811E-2,1.2186919E-2,-2.885027E-2,1.7300397E-2,9.387233E-2,9.2121605E-3,-5.5593253E-5,1.08803045E-2,-2.0452417E-2,-1.6535039E-1,9.4928324E-2,-1.9966517E-2],"categories":[],"categories_nodes":[],"categories_segments":[],"categories_sizes":[],"default_left":[0,0,0,0,0,0,0,0,0,0,0,0,0,0,0,0,0,0,0,0,0,0,0,0,0,0,0,0,0,0,0,0,0,0,0,0,0,0,0,0,0,0,0,0,0,0,0,0,0,0,0,0,0,0,0,0,0,0,0,0,0,0,0,0,0,0,0,0,0,0,0,0,0,0,0,0,0,0,0,0,0,0,0,0,0,0,0,0,0,0,0,0,0,0,0,0,0,0,0,0,0,0,0,0,0],"id":11,"left_children":[1,3,5,7,9,11,13,15,17,19,-1,21,23,25,27,29,31,33,35,37,39,41,43,45,47,49,51,53,55,57,-1,59,61,63,65,67,69,71,73,75,77,79,81,83,85,87,89,91,93,95,97,99,101,-1,-1,103,-1,-1,-1,-1,-1,-1,-1,-1,-1,-1,-1,-1,-1,-1,-1,-1,-1,-1,-1,-1,-1,-1,-1,-1,-1,-1,-1,-1,-1,-1,-1,-1,-1,-1,-1,-1,-1,-1,-1,-1,-1,-1,-1,-1,-1,-1,-1,-1,-1],"loss_changes":[7.3894877E0,7.366419E-1,2.5113463E0,5.8951926E-1,3.1479976E0,1.7242105E0,1.2416344E0,1.5014908E0,4.9522185E-1,7.478287E-1,0E0,1.8268828E0,1.3199636E0,1.3073235E0,2.113564E0,9.779664E-1,6.062721E-1,6.6971684E-1,1.5859689E0,1.3755152E0,7.788202E-1,1.9468571E0,1.7227857E0,1.116086E0,9.5052457E-1,1.1559424E0,5.8458257E-1,4.7339296E-1,1.5927974E0,7.3751825E-1,0E0,2.869587E-1,1.900572E-3,5.729723E-1,6.159862E-1,4.7316515E-1,1.3184824E0,7.1718884E-1,1.055168E-1,4.8924837E-1,2.5083122E-1,2.3169715E0,2.1850994E0,2.228891E0,1.6485026E0,1.6783196E0,9.129357E-2,4.0755725E-1,6.336781E-1,2.3202956E0,1.2703385E0,1.0067048E-3,1.381967E-1,0E0,0E0,7.0393956E-1,0E0,0E0,0E0,0E0,0E0,0E0,0E0,0E0,0E0,0E0,0E0,0E0,0E0,0E0,0E0,0E0,0E0,0E0,0E0,0E0,0E0,0E0,0E0,0E0,0E0,0E0,0E0,0E0,0E0,0E0,0E0,0E0,0E0,0E0,0E0,0E0,0E0,0E0,0E0,0E0,0E0,0E0,0E0,0E0,0E0,0E0,0E0,0E0,0E0],"parents":[2147483647,0,0,1,1,2,2,3,3,4,4,5,5,6,6,7,7,8,8,9,9,11,11,12,12,13,13,14,14,15,15,16,16,17,17,18,18,19,19,20,20,21,21,22,22,23,23,24,24,25,25,26,26,27,27,28,28,29,29,31,31,32,32,33,33,34,34,35,35,36,36,37,37,38,38,39,39,40,40,41,41,42,42,43,43,44,44,45,45,46,46,47,47,48,48,49,49,50,50,51,51,52,52,55,55],"right_children":[2,4,6,8,10,12,14,16,18,20,-1,22,24,26,28,30,32,34,36,38,40,42,44,46,48,50,52,54,56,58,-1,60,62,64,66,68,70,72,74,76,78,80,82,84,86,88,90,92,94,96,98,100,102,-1,-1,104,-1,-1,-1,-1,-1,-1,-1,-1,-1,-1,-1,-1,-1,-1,-1,-1,-1,-1,-1,-1,-1,-1,-1,-1,-1,-1,-1,-1,-1,-1,-1,-1,-1,-1,-1,-1,-1,-1,-1,-1,-1,-1,-1,-1,-1,-1,-1,-1,-1],"split_conditions":[1.1E1,1.8193287E0,1.1E1,4E0,3E0,1.7E1,2.73828E5,5E-1,4E-1,9.04E2,2.893135E-1,1.35E2,1.8E1,5E0,1.15E2,6E0,5.6E1,2E-1,9.3E1,2E0,4.5811E4,5E0,1.14E1,3.05447E5,2.27E2,1.32E2,4.4E1,-2.90191E5,3E0,4.52E2,-1.41263E-1,2E2,2E0,4.3E1,2.55E2,6E0,3E2,1E0,-4.805E3,8E0,5.856E4,6E0,3.7741E4,4E0,1.39E2,1.66722E5,2.21E2,5.4208195E-1,1E0,2E0,5E0,-1.5894E4,-8.8134E4,2.645711E-1,1.834066E-2,1.8E1,1.8705481E-1,1.4161506E-2,-1.2325311E-2,-1.4215738E-1,-4.4037074E-2,-8.540762E-3,1.1229024E-3,5.745982E-2,-3.253231E-3,-2.0755835E-2,-1.1996688E-1,2.001109E-1,5.7077494E-2,4.6698246E-4,-1.214652E-1,2.2239476E-1,-2.9867643E-2,5.6834137E-3,-7.216997E-2,2.0899968E-3,-8.5316435E-2,7.5726196E-2,-3.0149346E-2,6.254318E-2,-6.3071415E-2,-3.0387195E-2,3.763074E-2,9.473973E-3,4.2237338E-2,-6.58803E-2,6.698499E-3,9.1729546E-4,1.01324655E-1,-1.5897359E-1,-4.480573E-2,-2.0234053E-1,-2.6540864E-2,-7.294811E-2,1.2186919E-2,-2.885027E-2,1.7300397E-2,9.387233E-2,9.2121605E-3,-5.5593253E-5,1.08803045E-2,-2.0452417E-2,-1.6535039E-1,9.4928324E-2,-1.9966517E-2],"split_indices":[30,41,3,23,3,46,8,16,28,4,0,36,21,25,36,26,10,28,36,44,4,21,16,4,39,6,6,0,25,5,0,6,3,10,15,30,15,18,0,21,0,3,0,34,5,4,36,40,18,29,34,0,0,0,0,3,0,0,0,0,0,0,0,0,0,0,0,0,0,0,0,0,0,0,0,0,0,0,0,0,0,0,0,0,0,0,0,0,0,0,0,0,0,0,0,0,0,0,0,0,0,0,0,0,0],"split_type":[0,0,0,0,0,0,0,0,0,0,0,0,0,0,0,0,0,0,0,0,0,0,0,0,0,0,0,0,0,0,0,0,0,0,0,0,0,0,0,0,0,0,0,0,0,0,0,0,0,0,0,0,0,0,0,0,0,0,0,0,0,0,0,0,0,0,0,0,0,0,0,0,0,0,0,0,0,0,0,0,0,0,0,0,0,0,0,0,0,0,0,0,0,0,0,0,0,0,0,0,0,0,0,0,0],"sum_hessian":[5.2834E4,3.0836E4,2.1998E4,3.0791E4,4.5E1,1.4467E4,7.531E3,7.22E2,3.0069E4,4.2E1,3E0,1.446E3,1.3021E4,7.494E3,3.7E1,7E2,2.2E1,2.6616E4,3.453E3,1E1,3.2E1,3.61E2,1.085E3,1.2985E4,3.6E1,7.485E3,9E0,5E0,3.2E1,6.96E2,4E0,1.6E1,6E0,2.6588E4,2.8E1,1E1,3.443E3,5E0,5E0,2.2E1,1E1,7.6E1,2.85E2,7.48E2,3.37E2,1.298E4,5E0,6E0,3E1,3.92E2,7.093E3,3E0,6E0,4E0,1E0,2.8E1,4E0,1.12E2,5.84E2,1.1E1,5E0,3E0,3E0,1.3E1,2.6575E4,2.1E1,7E0,3E0,7E0,3.436E3,7E0,4E0,1E0,3E0,2E0,1.1E1,1.1E1,8E0,2E0,6E1,1.6E1,2.34E2,5.1E1,3.74E2,3.74E2,3E1,3.07E2,1.2966E4,1.4E1,3E0,2E0,4E0,2E0,1.5E1,1.5E1,2.09E2,1.83E2,1.5E1,7.078E3,1E0,2E0,1E0,5E0,5E0,2.3E1],"tree_param":{"num_deleted":"0","num_feature":"47","num_nodes":"105","size_leaf_vector":"1"}},{"base_weights":[4.233927E-5,-5.711066E-3,1.2426577E-2,-8.480045E-3,1.5291886E-3,9.730083E-3,4.4620812E-2,-4.180642E-2,-8.106525E-3,-1.23597786E-1,2.070383E-3,1.0521066E-2,-1.107054E-1,4.0443473E-2,2.5521177E-1,-2.0974549E-2,-1.9238701E-1,2.5918907E-1,-8.251283E-3,-3.5150883E-1,3.894054E-2,9.107044E-2,1.3025417E-3,8.65092E-2,9.324973E-3,-1.9107315E-1,1.1663856E-1,4.2880245E-2,-4.056931E-1,-1.7619495E-1,3.457747E-1,-2.6898287E-2,1.4567569E-1,-4.0679302E-2,-2.0533839E-1,4.94379E-1,-4.6626423E-2,-8.901717E-3,2.3757512E-2,-1.9680361E-1,-4.84347E-1,-4.6542972E-2,4.072799E-1,-1.6708422E-2,2.3823357E-1,7.7363313E-4,1.8690293E-1,-6.134853E-1,1.0725684E-1,-9.677183E-2,1.022959E-2,-2.7002853E-1,3.955558E-2,4.0233073E-1,-1.3873722E-1,-2.5828466E-1,4.524391E-2,-5.0044943E-2,-1.4036416E-1,-1.5200544E-2,-5.847284E-2,4.8316357E-1,6.2122375E-2,-6.11019E-3,-1.0402855E-1,-1.6497575E-2,3.3877982E-4,-5.323709E-2,-8.004016E-2,3.051473E-1,4.5177963E-2,-3.848599E-2,6.6500224E-2,-2.6372783E-3,-3.3661753E-2,1.3533629E-2,-5.005118E-2,-8.993762E-2,-1.0157028E-2,-1.4106784E-2,-1.5994042E-1,4.039889E-3,-9.598538E-2,1.0150808E-2,1.9348915E-1,4.7163118E-2,-5.9074696E-2,-2.472375E-2,1.3380814E-1,3.619855E-4,-5.5158682E-2,-7.1852036E-2,1.0213337E-1,-3.238981E-2,-2.3822995E-1,5.543723E-2,-3.2495007E-2,-7.228364E-2,-7.0679295E-3,3.2736121E-3,-2.8424412E-2,-4.6203166E-2,-1.3681741E-1,-1.8227036E-1,4.3563586E-2,1.734104E-1,3.0301133E-2,2.4359826E-2,-1.4465263E-1,-1.6629774E-2,-1.1528419E-1,1.067388E-1,1.2890431E-2,1.9363613E-1,1.8585164E-2,-7.5706705E-2,6.2702306E-2],"categories":[],"categories_nodes":[],"categories_segments":[],"categories_sizes":[],"default_left":[0,0,0,0,0,0,0,0,0,0,0,0,0,0,0,0,0,0,0,0,0,0,0,0,0,0,0,0,0,0,0,0,0,0,0,0,0,0,0,0,0,0,0,0,0,0,0,0,0,0,0,0,0,0,0,0,0,0,0,0,0,0,0,0,0,0,0,0,0,0,0,0,0,0,0,0,0,0,0,0,0,0,0,0,0,0,0,0,0,0,0,0,0,0,0,0,0,0,0,0,0,0,0,0,0,0,0,0,0,0,0,0,0,0,0,0,0],"id":12,"left_children":[1,3,5,7,9,11,13,15,17,19,21,23,25,27,29,31,33,35,37,39,41,43,45,47,49,51,53,55,57,59,61,63,-1,65,67,69,71,73,75,77,79,81,83,85,87,89,91,93,95,97,99,101,103,105,107,109,111,-1,-1,-1,-1,113,115,-1,-1,-1,-1,-1,-1,-1,-1,-1,-1,-1,-1,-1,-1,-1,-1,-1,-1,-1,-1,-1,-1,-1,-1,-1,-1,-1,-1,-1,-1,-1,-1,-1,-1,-1,-1,-1,-1,-1,-1,-1,-1,-1,-1,-1,-1,-1,-1,-1,-1,-1,-1,-1,-1],"loss_changes":[3.7646458E0,7.232686E-1,1.4545269E0,3.245057E-1,6.7614937E-1,1.4744945E0,1.128902E0,9.025218E-1,1.000732E0,1.606592E0,6.790919E-1,1.395792E0,1.8676698E0,1.3991406E0,1.0376602E0,7.7824754E-1,6.0415864E-2,1.0299973E0,5.37253E-1,2.745924E-1,8.376166E-1,1.3521719E0,9.672777E-1,3.5223298E0,1.4530258E0,1.3763847E0,2.0257077E0,9.121814E-1,2.593565E-2,1.870051E-3,7.8836894E-1,5.2146065E-1,0E0,2.4556606E-3,7.491231E-3,1.2846138E0,1.8179947E-1,2.88368E-1,2.0995429E0,1.5766639E-1,1.6695523E-1,3.6526325E-1,4.2198497E-1,1.5980283E0,2.4353724E0,7.8591734E-1,1.914745E0,5.533931E-1,3.8977242E0,1.3453953E0,1.0758071E0,1.1383967E0,1.4556804E0,6.298926E-1,1.1721721E0,2.342838E-1,8.7240005E-1,0E0,0E0,0E0,0E0,9.1703606E-1,4.2228183E-1,0E0,0E0,0E0,0E0,0E0,0E0,0E0,0E0,0E0,0E0,0E0,0E0,0E0,0E0,0E0,0E0,0E0,0E0,0E0,0E0,0E0,0E0,0E0,0E0,0E0,0E0,0E0,0E0,0E0,0E0,0E0,0E0,0E0,0E0,0E0,0E0,0E0,0E0,0E0,0E0,0E0,0E0,0E0,0E0,0E0,0E0,0E0,0E0,0E0,0E0,0E0,0E0,0E0,0E0],"parents":[2147483647,0,0,1,1,2,2,3,3,4,4,5,5,6,6,7,7,8,8,9,9,10,10,11,11,12,12,13,13,14,14,15,15,16,16,17,17,18,18,19,19,20,20,21,21,22,22,23,23,24,24,25,25,26,26,27,27,28,28,29,29,30,30,31,31,33,33,34,34,35,35,36,36,37,37,38,38,39,39,40,40,41,41,42,42,43,43,44,44,45,45,46,46,47,47,48,48,49,49,50,50,51,51,52,52,53,53,54,54,55,55,56,56,61,61,62,62],"right_children":[2,4,6,8,10,12,14,16,18,20,22,24,26,28,30,32,34,36,38,40,42,44,46,48,50,52,54,56,58,60,62,64,-1,66,68,70,72,74,76,78,80,82,84,86,88,90,92,94,96,98,100,102,104,106,108,110,112,-1,-1,-1,-1,114,116,-1,-1,-1,-1,-1,-1,-1,-1,-1,-1,-1,-1,-1,-1,-1,-1,-1,-1,-1,-1,-1,-1,-1,-1,-1,-1,-1,-1,-1,-1,-1,-1,-1,-1,-1,-1,-1,-1,-1,-1,-1,-1,-1,-1,-1,-1,-1,-1,-1,-1,-1,-1,-1,-1],"split_conditions":[2E0,1E0,9E1,6.29E2,1.1E1,1.4980909E0,3.0666666E1,5.6623375E-1,7.1428575E-2,8E0,2E0,1.4E1,2.17E1,5.2E1,5.367E3,1.39621E5,1.69E2,1E0,5.720961E-1,1.02765E5,3.89526E5,5.4208195E-1,1.8193287E0,2E0,1.03E2,1.5E1,4.21E2,1E0,6.4E1,1.1E1,1.2E1,3.3333333E0,1.4567569E-1,-4.83E2,3.954E3,4.81E2,1.49E2,9.4E1,5.1132E4,1.6666666E0,0E0,8.4E1,-1.4469E5,2.28E2,3E-1,5E0,2.931E3,-3.6088E4,3.7741E4,8E0,2.333708E6,3.8E1,2.37E2,2E2,1.3E1,1.0174E4,3E0,-5.0044943E-2,-1.4036416E-1,-1.5200544E-2,-5.847284E-2,2E0,2.07E2,-6.11019E-3,-1.0402855E-1,-1.6497575E-2,3.3877982E-4,-5.323709E-2,-8.004016E-2,3.051473E-1,4.5177963E-2,-3.848599E-2,6.6500224E-2,-2.6372783E-3,-3.3661753E-2,1.3533629E-2,-5.005118E-2,-8.993762E-2,-1.0157028E-2,-1.4106784E-2,-1.5994042E-1,4.039889E-3,-9.598538E-2,1.0150808E-2,1.9348915E-1,4.7163118E-2,-5.9074696E-2,-2.472375E-2,1.3380814E-1,3.619855E-4,-5.5158682E-2,-7.1852036E-2,1.0213337E-1,-3.238981E-2,-2.3822995E-1,5.543723E-2,-3.2495007E-2,-7.228364E-2,-7.0679295E-3,3.2736121E-3,-2.8424412E-2,-4.6203166E-2,-1.3681741E-1,-1.8227036E-1,4.3563586E-2,1.734104E-1,3.0301133E-2,2.4359826E-2,-1.4465263E-1,-1.6629774E-2,-1.1528419E-1,1.067388E-1,1.2890431E-2,1.9363613E-1,1.8585164E-2,-7.5706705E-2,6.2702306E-2],"split_indices":[2,2,10,37,15,41,34,40,40,46,46,45,16,3,8,4,4,18,40,33,33,40,41,26,39,21,5,46,36,0,16,34,0,0,4,4,36,10,8,34,3,10,0,38,17,19,37,0,0,46,33,26,15,6,46,4,26,0,0,0,0,44,15,0,0,0,0,0,0,0,0,0,0,0,0,0,0,0,0,0,0,0,0,0,0,0,0,0,0,0,0,0,0,0,0,0,0,0,0,0,0,0,0,0,0,0,0,0,0,0,0,0,0,0,0,0,0],"split_type":[0,0,0,0,0,0,0,0,0,0,0,0,0,0,0,0,0,0,0,0,0,0,0,0,0,0,0,0,0,0,0,0,0,0,0,0,0,0,0,0,0,0,0,0,0,0,0,0,0,0,0,0,0,0,0,0,0,0,0,0,0,0,0,0,0,0,0,0,0,0,0,0,0,0,0,0,0,0,0,0,0,0,0,0,0,0,0,0,0,0,0,0,0,0,0,0,0,0,0,0,0,0,0,0,0,0,0,0,0,0,0,0,0,0,0,0,0],"sum_hessian":[5.2834E4,3.6075E4,1.6759E4,2.6095E4,9.98E3,1.5465E4,1.294E3,2.88E2,2.5807E4,4.2E1,9.938E3,1.5365E4,1E2,1.27E3,2.4E1,2.54E2,3.4E1,1.3E1,2.5794E4,1.7E1,2.5E1,8.4E1,9.854E3,2.37E2,1.5128E4,7.4E1,2.6E1,1.264E3,6E0,4E0,2E1,2.52E2,2E0,3E0,3.1E1,7E0,6E0,2.5281E4,5.13E2,9E0,8E0,2.1E1,4E0,4.9E1,3.5E1,9.827E3,2.7E1,6E0,2.31E2,1.27E2,1.5001E4,5.5E1,1.9E1,1.2E1,1.4E1,9E0,1.255E3,2E0,4E0,1E0,3E0,1.3E1,7E0,2.48E2,4E0,2E0,1E0,2.4E1,7E0,2E0,5E0,5E0,1E0,2.5255E4,2.6E1,4.62E2,5.1E1,5E0,4E0,1E0,7E0,1.8E1,3E0,2E0,2E0,2.5E1,2.4E1,1.4E1,2.1E1,9.805E3,2.2E1,7E0,2E1,2E0,4E0,1.7E2,6.1E1,4.2E1,8.5E1,1.4905E4,9.6E1,3.5E1,2E1,2E0,1.7E1,7E0,5E0,9E0,5E0,4E0,5E0,8E0,1.247E3,9E0,4E0,2E0,5E0],"tree_param":{"num_deleted":"0","num_feature":"47","num_nodes":"117","size_leaf_vector":"1"}},{"base_weights":[1.8928084E-5,-2.5803412E-3,1.5607312E-2,-2.6408853E-3,3.404066E-1,1.48184495E-2,1.7118388E-1,-5.928688E-3,1.8318847E-3,5.2854407E-1,-4.480114E-2,1.699012E-2,-4.9683023E-2,3.0669692E-1,-1.1301018E-1,5.6134313E-2,-6.109729E-3,2.1383497E-3,-1.6589189E-1,1.7120866E-1,4.7668006E-2,-1.4702895E-1,1.7197091E-2,-2.5494327E-3,-2.985797E-1,4.6463472E-1,-1.06742434E-1,-4.2061794E-1,1.3182192E-1,-3.5172905E-4,1.7853539E-1,-6.315584E-3,5.1976446E-2,3.226985E-1,1.9707563E-3,2.1079844E-1,-2.2129704E-1,1.7993768E-1,1.656542E-2,-2.3280641E-1,5.0601877E-2,-1.5390535E-1,-6.1127156E-1,-7.189059E-2,5.1707387E-1,-1.9283968E-1,7.439075E-2,-1.8023734E-1,-4.018112E-2,1.1239395E-1,-8.880212E-2,-2.2154998E-2,5.7230163E-2,8.983889E-2,-6.21286E-3,-1.8092481E-3,-1.5997162E-2,7.489013E-2,-8.9012645E-3,1.5196255E-1,-2.3910584E-2,-1.12951035E-2,8.630571E-4,1.04469635E-1,-5.0840434E-2,-1.2467728E-1,-3.6876805E-2,1.7421752E-1,-6.183793E-2,-3.398354E-2,5.3052986E-3,3.7722755E-2,-9.054225E-2,-4.4566397E-2,2.7361283E-2,8.445099E-2,-7.8239605E-2,-2.286519E-1,-7.427253E-2,1.9751601E-1,6.028673E-2,-6.309575E-2,-1.3194421E-2,-2.714224E-2,9.060735E-3,-7.051253E-2,7.442347E-2],"categories":[],"categories_nodes":[],"categories_segments":[],"categories_sizes":[],"default_left":[0,0,0,0,0,0,0,0,0,0,0,0,0,0,0,0,0,0,0,0,0,0,0,0,0,0,0,0,0,0,0,0,0,0,0,0,0,0,0,0,0,0,0,0,0,0,0,0,0,0,0,0,0,0,0,0,0,0,0,0,0,0,0,0,0,0,0,0,0,0,0,0,0,0,0,0,0,0,0,0,0,0,0,0,0,0,0],"id":13,"left_children":[1,3,5,7,9,11,13,15,17,19,-1,21,23,25,27,29,31,33,35,-1,-1,-1,37,39,41,43,45,47,49,51,53,55,57,59,61,63,65,67,69,71,73,75,77,-1,79,81,-1,-1,83,-1,85,-1,-1,-1,-1,-1,-1,-1,-1,-1,-1,-1,-1,-1,-1,-1,-1,-1,-1,-1,-1,-1,-1,-1,-1,-1,-1,-1,-1,-1,-1,-1,-1,-1,-1,-1,-1],"loss_changes":[2.1408305E0,9.4127965E-1,9.2418706E-1,6.658504E-1,8.1604433E-1,1.0533746E0,1.4981159E0,2.9355574E-1,9.863893E-1,2.8082132E-3,0E0,7.714331E-1,2.8734305E0,1.7473369E0,1.034506E0,5.255232E-1,3.114698E-1,1.0281211E0,7.7711946E-1,0E0,0E0,0E0,7.4415946E-1,2.5451417E0,1.6702228E0,8.2560444E-1,2.9213583E-1,3.8712656E-1,4.6185285E-1,7.585744E-1,5.8446264E-1,3.4677553E-1,1.4921203E0,7.8015864E-1,6.872477E-1,3.2032135E-1,5.4143405E-1,4.452132E0,1.0539994E0,1.0028205E0,1.3801221E0,1.3765997E0,4.698925E-1,0E0,6.717806E-1,8.9636445E-3,0E0,0E0,1.3351945E-2,0E0,3.0463505E-1,0E0,0E0,0E0,0E0,0E0,0E0,0E0,0E0,0E0,0E0,0E0,0E0,0E0,0E0,0E0,0E0,0E0,0E0,0E0,0E0,0E0,0E0,0E0,0E0,0E0,0E0,0E0,0E0,0E0,0E0,0E0,0E0,0E0,0E0,0E0,0E0],"parents":[2147483647,0,0,1,1,2,2,3,3,4,4,5,5,6,6,7,7,8,8,9,9,11,11,12,12,13,13,14,14,15,15,16,16,17,17,18,18,22,22,23,23,24,24,25,25,26,26,27,27,28,28,29,29,30,30,31,31,32,32,33,33,34,34,35,35,36,36,37,37,38,38,39,39,40,40,41,41,42,42,44,44,45,45,48,48,50,50],"right_children":[2,4,6,8,10,12,14,16,18,20,-1,22,24,26,28,30,32,34,36,-1,-1,-1,38,40,42,44,46,48,50,52,54,56,58,60,62,64,66,68,70,72,74,76,78,-1,80,82,-1,-1,84,-1,86,-1,-1,-1,-1,-1,-1,-1,-1,-1,-1,-1,-1,-1,-1,-1,-1,-1,-1,-1,-1,-1,-1,-1,-1,-1,-1,-1,-1,-1,-1,-1,-1,-1,-1,-1,-1],"split_conditions":[1.1E1,8.7E1,2.73828E5,1E0,4.92E2,5.5625E-1,1E0,0E0,3.10368E5,-4.52E2,-4.480114E-2,4.4E1,1.094403E6,3.02E2,5.131823E-1,1.6E1,2.97E2,-2.3333333E0,7.58893E5,1.7120866E-1,4.7668006E-2,-1.4702895E-1,7.1E1,5.7567185E-1,4.3E2,2.3E1,1.8E1,1.6E1,7.42E2,5.7567185E-1,7.95E2,6.7670685E-1,3.249E3,1.2E1,5E0,-2.50313E5,1.543965E6,3.9E1,3.5600907E-1,3E0,1E0,7.4287E4,2.09E1,-7.189059E-2,5.1E1,-2.90191E5,7.439075E-2,-1.8023734E-1,-3.67479E5,1.1239395E-1,3.02E2,-2.2154998E-2,5.7230163E-2,8.983889E-2,-6.21286E-3,-1.8092481E-3,-1.5997162E-2,7.489013E-2,-8.9012645E-3,1.5196255E-1,-2.3910584E-2,-1.12951035E-2,8.630571E-4,1.04469635E-1,-5.0840434E-2,-1.2467728E-1,-3.6876805E-2,1.7421752E-1,-6.183793E-2,-3.398354E-2,5.3052986E-3,3.7722755E-2,-9.054225E-2,-4.4566397E-2,2.7361283E-2,8.445099E-2,-7.8239605E-2,-2.286519E-1,-7.427253E-2,1.9751601E-1,6.028673E-2,-6.309575E-2,-1.3194421E-2,-2.714224E-2,9.060735E-3,-7.051253E-2,7.442347E-2],"split_indices":[3,26,8,2,5,40,24,34,8,0,0,5,33,36,40,45,15,34,33,0,0,0,5,40,39,6,46,2,5,40,5,40,37,46,46,0,33,28,40,46,29,4,16,0,26,0,0,0,0,0,36,0,0,0,0,0,0,0,0,0,0,0,0,0,0,0,0,0,0,0,0,0,0,0,0,0,0,0,0,0,0,0,0,0,0,0,0],"split_type":[0,0,0,0,0,0,0,0,0,0,0,0,0,0,0,0,0,0,0,0,0,0,0,0,0,0,0,0,0,0,0,0,0,0,0,0,0,0,0,0,0,0,0,0,0,0,0,0,0,0,0,0,0,0,0,0,0,0,0,0,0,0,0,0,0,0,0,0,0,0,0,0,0,0,0,0,0,0,0,0,0,0,0,0,0,0,0],"sum_hessian":[5.2834E4,4.5284E4,7.55E3,4.5277E4,7E0,7.513E3,3.7E1,2.6095E4,1.9182E4,5E0,2E0,7.269E3,2.44E2,2.5E1,1.2E1,7.5E1,2.602E4,1.9148E4,3.4E1,4E0,1E0,2E0,7.267E3,2.06E2,3.8E1,1.8E1,7E0,5E0,7E0,5.2E1,2.3E1,2.5929E4,9.1E1,9E0,1.9139E4,4E0,3E1,2.7E1,7.24E3,3.8E1,1.68E2,2.7E1,1.1E1,1E0,1.7E1,6E0,1E0,3E0,2E0,3E0,4E0,3.8E1,1.4E1,1.4E1,9E0,2.5774E4,1.55E2,2.6E1,6.5E1,6E0,3E0,4.27E2,1.8712E4,3E0,1E0,9E0,2.1E1,1.3E1,1.4E1,6.1E1,7.179E3,6E0,3.2E1,2.8E1,1.4E2,5E0,2.2E1,7E0,4E0,1.1E1,6E0,5E0,1E0,1E0,1E0,3E0,1E0],"tree_param":{"num_deleted":"0","num_feature":"47","num_nodes":"87","size_leaf_vector":"1"}},{"base_weights":[1.3671674E-5,-1.094417E-3,2.2296298E-2,-1.006124E-3,-1.7189261E-1,2.0689145E-2,3.8450876E-1,-1.0799934E-3,2.0543721E-1,-2.7195442E-1,1.3855438E-1,1.3287738E-1,1.7536016E-2,5.287409E-1,-8.2716346E-5,-1.1550852E-3,1.9766566E-1,-2.8287104E-1,4.1500738E-1,9.440711E-2,-3.1939313E-1,-1.2097443E-1,1.307775E-1,-1.7700258E-1,1.8314724E-1,1.9927936E-2,-9.652655E-2,1.816479E-1,5.9696928E-2,-5.477858E-2,3.6485966E-2,-5.237927E-2,-9.4635965E-4,4.206172E-1,-4.5052446E-2,-7.9140905E-3,-3.2889313E-1,-1.989781E-1,6.1910087E-1,-1.0412546E-1,-3.888369E-1,-7.823318E-2,-1.1441603E-1,2.8849E-1,-3.6695626E-2,-1.8398838E-1,2.17363E-2,1.5739343E-1,-1.4733844E-1,-1.1680164E-2,-1.1307738E-1,5.936584E-2,-3.0416125E-4,3.6273807E-2,1.8008044E-1,8.148711E-2,-1.24816E-1,-2.6714893E-2,-1.09977484E-1,-1.0998452E-2,-7.225894E-2,4.869257E-2,2.1390311E-1,-5.6998255E-3,-4.2581588E-2,-1.6547796E-1,-8.0572516E-2,-3.1956762E-2,1.3269782E-3,1.1168299E-1,1.8589461E-2,-4.1990817E-2,6.828141E-2,9.573654E-2,-6.753E-2,6.507993E-2,5.8143777E-3,-3.8106546E-3,-8.275068E-2],"categories":[],"categories_nodes":[],"categories_segments":[],"categories_sizes":[],"default_left":[0,0,0,0,0,0,0,0,0,0,0,0,0,0,0,0,0,0,0,0,0,0,0,0,0,0,0,0,0,0,0,0,0,0,0,0,0,0,0,0,0,0,0,0,0,0,0,0,0,0,0,0,0,0,0,0,0,0,0,0,0,0,0,0,0,0,0,0,0,0,0,0,0,0,0,0,0,0,0],"id":14,"left_children":[1,3,5,7,9,11,13,15,17,19,21,23,25,27,29,31,33,35,37,-1,39,-1,-1,41,43,45,47,-1,-1,-1,-1,49,51,53,55,-1,57,59,61,63,65,67,-1,69,71,73,75,-1,77,-1,-1,-1,-1,-1,-1,-1,-1,-1,-1,-1,-1,-1,-1,-1,-1,-1,-1,-1,-1,-1,-1,-1,-1,-1,-1,-1,-1,-1,-1],"loss_changes":[1.30458E0,7.5886357E-1,1.4491187E0,7.674127E-1,8.453416E-1,8.795532E-1,6.102185E-1,7.5077915E-1,1.9594207E0,6.571032E-1,1.3035989E0,1.0916958E0,6.6380537E-1,8.198595E-2,1.1105621E-1,5.374592E-1,1.047123E0,6.2149137E-2,1.752223E0,0E0,2.4354315E-1,0E0,0E0,1.7203194E-1,1.3769585E0,8.805299E-1,1.6554444E0,0E0,0E0,0E0,0E0,8.7550694E-1,6.723113E-1,4.658419E-1,1.2878811E0,0E0,1.2563765E-2,1.8364131E-2,3.1324387E-1,1.661656E-2,1.258831E-1,1.917756E-2,0E0,7.3612285E-1,5.777633E-1,5.0619113E-1,1.0793004E0,0E0,8.0961394E-1,0E0,0E0,0E0,0E0,0E0,0E0,0E0,0E0,0E0,0E0,0E0,0E0,0E0,0E0,0E0,0E0,0E0,0E0,0E0,0E0,0E0,0E0,0E0,0E0,0E0,0E0,0E0,0E0,0E0,0E0],"parents":[2147483647,0,0,1,1,2,2,3,3,4,4,5,5,6,6,7,7,8,8,9,9,10,10,11,11,12,12,13,13,14,14,15,15,16,16,17,17,18,18,20,20,23,23,24,24,25,25,26,26,31,31,32,32,33,33,34,34,36,36,37,37,38,38,39,39,40,40,41,41,43,43,44,44,45,45,46,46,48,48],"right_children":[2,4,6,8,10,12,14,16,18,20,22,24,26,28,30,32,34,36,38,-1,40,-1,-1,42,44,46,48,-1,-1,-1,-1,50,52,54,56,-1,58,60,62,64,66,68,-1,70,72,74,76,-1,78,-1,-1,-1,-1,-1,-1,-1,-1,-1,-1,-1,-1,-1,-1,-1,-1,-1,-1,-1,-1,-1,-1,-1,-1,-1,-1,-1,-1,-1,-1],"split_conditions":[1.09E1,1.06E1,4.40181E5,1.04E1,8.9E2,7.6E1,3.03E2,3.5333332E1,1.09E2,-1.68677E5,6E0,1.2E1,8.9245E4,1E1,7E0,3.54E2,5.2E3,2.78E2,1.2E1,9.440711E-2,1.6894E4,-1.2097443E-1,1.307775E-1,1.059975E6,6.38E1,5.5E1,6.8E1,1.816479E-1,5.9696928E-2,-5.477858E-2,3.6485966E-2,1.23E1,2E1,3.7333332E1,1E0,-7.9140905E-3,-7.814E3,-9.5241E4,3.3333334E-1,6E0,5.5705E4,4.4E1,-1.1441603E-1,2.62E2,1.18563E5,6.4E1,4.803E3,1.5739343E-1,4.8244897E-1,-1.1680164E-2,-1.1307738E-1,5.936584E-2,-3.0416125E-4,3.6273807E-2,1.8008044E-1,8.148711E-2,-1.24816E-1,-2.6714893E-2,-1.09977484E-1,-1.0998452E-2,-7.225894E-2,4.869257E-2,2.1390311E-1,-5.6998255E-3,-4.2581588E-2,-1.6547796E-1,-8.0572516E-2,-3.1956762E-2,1.3269782E-3,1.1168299E-1,1.8589461E-2,-4.1990817E-2,6.828141E-2,9.573654E-2,-6.753E-2,6.507993E-2,5.8143777E-3,-3.8106546E-3,-8.275068E-2],"split_indices":[17,17,0,17,38,6,36,34,6,0,46,34,0,21,2,37,37,36,16,0,4,0,0,33,28,10,30,0,0,0,0,16,36,34,18,0,0,0,35,2,4,6,0,36,4,36,8,0,40,0,0,0,0,0,0,0,0,0,0,0,0,0,0,0,0,0,0,0,0,0,0,0,0,0,0,0,0,0,0],"split_type":[0,0,0,0,0,0,0,0,0,0,0,0,0,0,0,0,0,0,0,0,0,0,0,0,0,0,0,0,0,0,0,0,0,0,0,0,0,0,0,0,0,0,0,0,0,0,0,0,0,0,0,0,0,0,0,0,0,0,0,0,0,0,0,0,0,0,0,0,0,0,0,0,0,0,0,0,0,0,0],"sum_hessian":[5.2834E4,5.0332E4,2.502E3,5.0307E4,2.5E1,2.492E3,1E1,5.029E4,1.7E1,1.9E1,6E0,6.7E1,2.425E3,7E0,3E0,5.0272E4,1.8E1,5E0,1.2E1,1E0,1.8E1,2E0,4E0,9E0,5.8E1,2.376E3,4.9E1,5E0,2E0,1E0,2E0,2.03E2,5.0069E4,9E0,9E0,1E0,4E0,3E0,9E0,5E0,1.3E1,7E0,2E0,3.9E1,1.9E1,2E1,2.356E3,3E0,4.6E1,1.96E2,7E0,1.6E1,5.0053E4,4E0,5E0,5E0,4E0,1E0,3E0,1E0,2E0,2E0,7E0,2E0,3E0,4E0,9E0,5E0,2E0,2.8E1,1.1E1,1.4E1,5E0,1E0,1.9E1,2.7E1,2.329E3,2.3E1,2.3E1],"tree_param":{"num_deleted":"0","num_feature":"47","num_nodes":"79","size_leaf_vector":"1"}},{"base_weights":[1.6306229E-5,-2.719502E-3,6.398017E-3,-2.8161535E-3,3.5490203E-1,6.941382E-3,-1.9355744E-1,-2.5351169E-3,-1.3744721E-1,1.3353291E-1,-3.9523244E-3,5.11136E-3,6.0218405E-2,-3.7006795E-1,-8.248872E-3,-2.6872533E-3,1.6249107E-1,2.5235498E-1,-2.1329306E-1,-2.695689E-2,2.5178345E-2,6.594748E-3,-6.341955E-2,9.808705E-2,-7.871938E-2,-1.0940894E-1,-4.4029653E-1,2.616458E-1,-3.0192953E-1,-2.9931134E-3,6.454116E-2,3.6626893E-1,-6.2832035E-2,2.2610098E-1,9.2691354E-2,-5.651732E-1,-1.5399106E-1,5.780525E-3,1.3264579E-1,-2.3347695E-1,-3.726392E-2,1.3909659E-1,-5.7179682E-2,2.0639487E-1,-1.3854454E-1,2.1277327E-2,-6.519202E-2,-3.9979976E-2,-1.4170484E-1,-6.517202E-2,5.043974E-1,-1.2879908E-1,-1.2420721E-1,-9.283096E-4,5.7790063E-2,-1.0526E-2,5.1225606E-2,2.499996E-1,5.19896E-2,5.727184E-2,-1.1164522E-1,-8.647863E-3,9.37661E-2,-2.9672671E-2,-1.833278E-1,-5.58268E-2,2.4652694E-1,1.9955148E-3,-2.2006815E-2,-3.609909E-2,6.284429E-2,-1.1304649E-1,-2.3855908E-2,1.5595361E-2,-3.0259276E-2,-1.9481275E-2,5.3640015E-2,-3.187013E-2,1.8682681E-1,-1.52237015E-2,2.073573E-1,-8.1282064E-2,-1.43550495E-2,5.581629E-2,-7.118963E-2,6.741781E-2,1.9739084E-1,-5.47871E-2,-1.4748693E-3],"categories":[],"categories_nodes":[],"categories_segments":[],"categories_sizes":[],"default_left":[0,0,0,0,0,0,0,0,0,0,0,0,0,0,0,0,0,0,0,0,0,0,0,0,0,0,0,0,0,0,0,0,0,0,0,0,0,0,0,0,0,0,0,0,0,0,0,0,0,0,0,0,0,0,0,0,0,0,0,0,0,0,0,0,0,0,0,0,0,0,0,0,0,0,0,0,0,0,0,0,0,0,0,0,0,0,0,0,0],"id":15,"left_children":[1,3,5,7,9,11,13,15,17,-1,19,21,23,25,27,29,31,33,35,-1,-1,37,39,41,43,45,47,49,51,53,55,57,59,-1,61,63,65,67,69,71,73,75,77,79,81,-1,-1,-1,-1,83,85,-1,87,-1,-1,-1,-1,-1,-1,-1,-1,-1,-1,-1,-1,-1,-1,-1,-1,-1,-1,-1,-1,-1,-1,-1,-1,-1,-1,-1,-1,-1,-1,-1,-1,-1,-1,-1,-1],"loss_changes":[9.224708E-1,1.2792697E0,1.7238615E0,1.3985713E0,3.254732E-1,1.5413327E0,1.4034303E0,9.267906E-1,2.3303213E0,0E0,3.01892E-2,1.5545648E0,2.7699492E0,3.5455346E-1,1.8227812E0,7.582091E-1,1.5841527E0,9.706841E-1,1.2693365E0,0E0,0E0,1.5351458E0,1.4324383E0,2.637696E0,1.9560368E0,1.3215777E-1,1.04352E-1,9.848992E-1,1.9573557E-1,7.2749305E-1,1.7731111E0,1.4779117E0,1.4053073E0,0E0,3.0289814E-1,1.3225293E-1,1.9381499E0,1.025671E0,1.8912035E0,9.190004E-1,1.6059403E0,2.6605935E0,2.9679224E0,2.5282896E0,1.1157447E0,0E0,0E0,0E0,0E0,3.0360702E-1,1.5278506E-1,0E0,4.09135E-2,0E0,0E0,0E0,0E0,0E0,0E0,0E0,0E0,0E0,0E0,0E0,0E0,0E0,0E0,0E0,0E0,0E0,0E0,0E0,0E0,0E0,0E0,0E0,0E0,0E0,0E0,0E0,0E0,0E0,0E0,0E0,0E0,0E0,0E0,0E0,0E0],"parents":[2147483647,0,0,1,1,2,2,3,3,4,4,5,5,6,6,7,7,8,8,10,10,11,11,12,12,13,13,14,14,15,15,16,16,17,17,18,18,21,21,22,22,23,23,24,24,25,25,26,26,27,27,28,28,29,29,30,30,31,31,32,32,34,34,35,35,36,36,37,37,38,38,39,39,40,40,41,41,42,42,43,43,44,44,49,49,50,50,52,52],"right_children":[2,4,6,8,10,12,14,16,18,-1,20,22,24,26,28,30,32,34,36,-1,-1,38,40,42,44,46,48,50,52,54,56,58,60,-1,62,64,66,68,70,72,74,76,78,80,82,-1,-1,-1,-1,84,86,-1,88,-1,-1,-1,-1,-1,-1,-1,-1,-1,-1,-1,-1,-1,-1,-1,-1,-1,-1,-1,-1,-1,-1,-1,-1,-1,-1,-1,-1,-1,-1,-1,-1,-1,-1,-1,-1],"split_conditions":[4.6666665E0,1.2E1,3.8E1,7E0,1.5E1,2.49E2,1.8095E4,6.8172E4,1.466E3,1.3353291E-1,-1.011E3,5.6878304E-1,1.6E1,2.908E3,3E0,1.4980909E0,4.2776E4,3E0,1.0747542E0,-2.695689E-2,2.5178345E-2,9.2E1,2.908E3,3E0,9.0222E4,3E0,1.49E2,2E0,7.8E1,4.56874E5,2.59E3,5.37E2,6.9E1,2.2610098E-1,1.37E2,2E0,7.822222E-1,1.3667988E0,1.5E1,2.18E2,1.0333333E1,3.8181818E-1,8.158E3,6.3634E4,4.92E2,2.1277327E-2,-6.519202E-2,-3.9979976E-2,-1.4170484E-1,2E0,-1.3539E4,-1.2879908E-1,1.1E1,-9.283096E-4,5.7790063E-2,-1.0526E-2,5.1225606E-2,2.499996E-1,5.19896E-2,5.727184E-2,-1.1164522E-1,-8.647863E-3,9.37661E-2,-2.9672671E-2,-1.833278E-1,-5.58268E-2,2.4652694E-1,1.9955148E-3,-2.2006815E-2,-3.609909E-2,6.284429E-2,-1.1304649E-1,-2.3855908E-2,1.5595361E-2,-3.0259276E-2,-1.9481275E-2,5.3640015E-2,-3.187013E-2,1.8682681E-1,-1.52237015E-2,2.073573E-1,-8.1282064E-2,-1.43550495E-2,5.581629E-2,-7.118963E-2,6.741781E-2,1.9739084E-1,-5.47871E-2,-1.4748693E-3],"split_indices":[34,3,9,3,21,6,8,0,8,0,0,40,21,8,19,41,8,23,41,0,0,10,8,29,33,2,36,29,30,8,4,39,10,0,0,2,40,41,26,15,34,40,37,33,5,0,0,0,0,2,0,0,2,0,0,0,0,0,0,0,0,0,0,0,0,0,0,0,0,0,0,0,0,0,0,0,0,0,0,0,0,0,0,0,0,0,0,0,0],"split_type":[0,0,0,0,0,0,0,0,0,0,0,0,0,0,0,0,0,0,0,0,0,0,0,0,0,0,0,0,0,0,0,0,0,0,0,0,0,0,0,0,0,0,0,0,0,0,0,0,0,0,0,0,0,0,0,0,0,0,0,0,0,0,0,0,0,0,0,0,0,0,0,0,0,0,0,0,0,0,0,0,0,0,0,0,0,0,0,0,0],"sum_hessian":[5.2834E4,3.6981E4,1.5853E4,3.6972E4,9E0,1.5811E4,4.2E1,3.6896E4,7.6E1,7E0,2E0,1.5287E4,5.24E2,2.1E1,2.1E1,3.6863E4,3.3E1,1.2E1,6.4E1,1E0,1E0,1.4964E4,3.23E2,4.12E2,1.12E2,5E0,1.6E1,1.1E1,1E1,3.6697E4,1.66E2,1.7E1,1.6E1,2E0,1E1,8E0,5.6E1,1.4869E4,9.5E1,4.2E1,2.81E2,3.26E2,8.6E1,1.9E1,9.3E1,2E0,3E0,2E0,1.4E1,5E0,6E0,5E0,5E0,3.6679E4,1.8E1,8.6E1,8E1,4E0,1.3E1,9E0,7E0,7E0,3E0,1E0,7E0,5.5E1,1E0,1.4708E4,1.61E2,2.2E1,7.3E1,2.1E1,2.1E1,1.17E2,1.64E2,5.3E1,2.73E2,8.1E1,5E0,1.3E1,6E0,3.7E1,5.6E1,2E0,3E0,3E0,3E0,3E0,2E0],"tree_param":{"num_deleted":"0","num_feature":"47","num_nodes":"89","size_leaf_vector":"1"}},{"base_weights":[2.550552E-5,-8.962642E-4,1.1991431E-2,-9.769354E-4,2.1893778E-1,1.162016E-1,9.648602E-3,-7.158336E-4,-8.279093E-2,2.9609156E-1,-3.753699E-2,3.376784E-1,2.5674192E-2,-2.4506873E-1,1.0752847E-2,5.3943183E-2,-9.662959E-4,1.3307458E-2,-1.9509055E-1,1.2487924E-1,3.4699792E-1,1.52643025E-2,4.6953923E-1,6.033009E-2,-4.7459087E-1,-3.30849E-1,9.498428E-2,2.7420932E-1,9.888715E-3,1.9045625E-2,1.8077709E-1,-4.9257856E-2,-7.489709E-4,-4.438085E-2,2.854783E-1,9.535395E-3,-3.5004032E-1,5.5175545E-3,4.407094E-2,4.1131505E-1,5.626631E-2,1.3411056E-1,-2.0316517E-1,5.2143544E-1,-5.411997E-2,-1.0251329E-1,1.5816964E-1,6.0817216E-2,-2.3038116E-1,5.5270083E-2,-3.8912535E-1,-4.203059E-2,7.590434E-2,1.4566074E-1,-1.8039823E-2,-2.677682E-1,1.0644225E-2,5.3379958E-5,1.24573484E-1,1.7686866E-1,3.2502607E-2,-1.1141153E-2,-1.08835064E-1,2.3130484E-2,-2.6138203E-4,-3.3336643E-2,4.7492582E-2,1.0193023E-1,-1.3480199E-2,-2.0857895E-2,1.3511217E-1,-4.4950802E-2,-1.6582891E-1,1.3207473E-1,3.5656646E-2,-6.26539E-3,-7.063331E-2,-2.9558035E-2,1.7080042E-1,2.7105575E-2,-7.289565E-2,7.139769E-2,-1.3464331E-2,-1.6811016E-1,-7.003756E-2,-2.0194622E-3,-1.6894305E-2,-2.930697E-2,2.8252067E-2,-1.2902345E-1,-2.636458E-2,3.3928219E-3,-7.818049E-2],"categories":[],"categories_nodes":[],"categories_segments":[],"categories_sizes":[],"default_left":[0,0,0,0,0,0,0,0,0,0,0,0,0,0,0,0,0,0,0,0,0,0,0,0,0,0,0,0,0,0,0,0,0,0,0,0,0,0,0,0,0,0,0,0,0,0,0,0,0,0,0,0,0,0,0,0,0,0,0,0,0,0,0,0,0,0,0,0,0,0,0,0,0,0,0,0,0,0,0,0,0,0,0,0,0,0,0,0,0,0,0,0,0],"id":16,"left_children":[1,3,5,7,9,11,13,15,17,19,-1,21,23,25,27,29,31,33,35,37,39,41,43,45,47,49,51,53,55,57,59,61,63,65,67,69,71,-1,-1,73,-1,-1,75,77,-1,79,81,-1,-1,-1,83,85,-1,-1,87,89,91,-1,-1,-1,-1,-1,-1,-1,-1,-1,-1,-1,-1,-1,-1,-1,-1,-1,-1,-1,-1,-1,-1,-1,-1,-1,-1,-1,-1,-1,-1,-1,-1,-1,-1,