{"learner":{"attributes":{"scikit_learn":"{\"_estimator_type\": \"regressor\"}"},"feature_names":["transfers_balance","clean_sheets","points","bps","transfers_in","name","fixture","saves","transfers_out","round","value","position","own_goals","red_cards","goals_scored","element","creativity","ict_index","was_home","team_h_score","penalties_saved","opponent_team","yellow_cards","team","assists","goals_conceded","threat","GW","influence","team_a_score","minutes","penalties_missed","bonus","selected","rolling_bps","rolling_clean_sheets","cumulative_points","cumulative_minutes","cumulative_goals_conceded","match_count","avg_goals_conceded","team_x_strength","team_avg_points","team_total_goals","season_stage","start_hour","next_opponent_team_encoded"],"feature_types":["int","int","int","int","int","int","int","int","int","int","int","int","int","int","int","int","float","float","int","float","int","int","int","int","int","int","float","int","float","float","int","int","int","int","float","float","int","int","int","int","float","float","float","float","float","float","int"],"gradient_booster":{"model":{"gbtree_model_param":{"num_parallel_tree":"1","num_trees":"100"},"iteration_indptr":[0,1,2,3,4,5,6,7,8,9,10,11,12,13,14,15,16,17,18,19,20,21,22,23,24,25,26,27,28,29,30,31,32,33,34,35,36,37,38,39,40,41,42,43,44,45,46,47,48,49,50,51,52,53,54,55,56,57,58,59,60,61,62,63,64,65,66,67,68,69,70,71,72,73,74,75,76,77,78,79,80,81,82,83,84,85,86,87,88,89,90,91,92,93,94,95,96,97,98,99,100],"tree_info":[0,0,0,0,0,0,0,0,0,0,0,0,0,0,0,0,0,0,0,0,0,0,0,0,0,0,0,0,0,0,0,0,0,0,0,0,0,0,0,0,0,0,0,0,0,0,0,0,0,0,0,0,0,0,0,0,0,0,0,0,0,0,0,0,0,0,0,0,0,0,0,0,0,0,0,0,0,0,0,0,0,0,0,0,0,0,0,0,0,0,0,0,0,0,0,0,0,0,0,0],"trees":[{"base_weights":[-2.5215178E-8,-5.097636E-1,6.555446E-1,-7.3848E-1,-6.759394E-2,4.5540687E-1,1.2559475E0,-7.44176E-1,-2.6905602E-1,-6.970585E-2,4.6077177E-1,3.3004278E-1,6.1430687E-1,5.247918E-1,1.3042909E0,-6.4069724E-1,-7.5938314E-1,-3.8943502E-1,2.1376632E-2,-2.9656598E-1,-6.592589E-2,3.528617E-1,7.276338E-1,-4.897081E-4,3.3599737E-1,4.0565085E-1,6.2386066E-1,4.3580437E-1,9.6512455E-1,1.1787238E0,1.4068753E0,-6.897201E-1,-4.3278024E-1,-3.3496517E-1,-7.594961E-1,-4.4011012E-1,4.9279007E-1,-2.381779E-1,5.169863E-1,-4.1356933E-1,-1.3252255E-1,1.7110331E-1,-6.7531556E-2,1.21528625E-1,5.332243E-1,9.6923995E-1,1.229146E-1,-1.5576944E-1,1.491834E-1,3.3194113E-1,6.216089E-1,3.788372E-1,9.2024297E-1,6.2471014E-1,-4.504897E-1,4.6156442E-1,-3.9973047E-1,1.0289838E0,-1.2229271E-1,8.481778E-1,1.1858647E0,1.3117115E0,1.4695729E0,-2.1104297E-1,-5.420847E-2,-2.0262708E-1,-1.1071142E-1,-1.408856E-1,5.074533E-2,-2.2786194E-1,-1.007444E-2,-1.4215983E-1,4.1290257E-2,2.6311854E-1,2.9881203E-3,-1.8549678E-1,2.263948E-2,2.4168764E-1,1.835787E-2,-1.3750273E-1,-1.5104897E-2,-4.96916E-2,9.138647E-2,9.112801E-3,1.4164446E-1,-8.9534365E-2,-1.97296E-2,1.14024125E-1,-5.9700375E-3,-1.511166E-2,2.0153256E-1,3.2231888E-1,5.074533E-2,9.389764E-2,-1.34325875E-2,-8.305721E-3,-1.1779513E-1,8.414781E-2,-4.006511E-2,9.9768326E-2,-1.9007754E-1,2.257543E-1,8.421443E-2,4.015704E-2,1.2631425E-1,4.9797636E-2,3.5382777E-1,6.284303E-2,1.877867E-1,-1.8247443E-1,5.074533E-2,1.0049347E-1,1.839037E-1,-1.65802E-1,2.7113928E-2,1.9081022E-1,3.6387E-1,-1.1404652E-1,2.7113928E-2,9.535655E-2,2.948121E-1,-1.007444E-2,3.5592714E-1,3.9485592E-1,7.8686394E-2,4.3010265E-1,4.6184883E-1],"categories":[],"categories_nodes":[],"categories_segments":[],"categories_sizes":[],"default_left":[0,0,0,0,0,0,0,0,0,0,0,0,0,0,0,0,0,0,0,0,0,0,0,0,0,0,0,0,0,0,0,0,0,0,0,0,0,0,0,0,0,0,0,0,0,0,0,0,0,0,0,0,0,0,0,0,0,0,0,0,0,0,0,0,0,0,0,0,0,0,0,0,0,0,0,0,0,0,0,0,0,0,0,0,0,0,0,0,0,0,0,0,0,0,0,0,0,0,0,0,0,0,0,0,0,0,0,0,0,0,0,0,0,0,0,0,0,0,0,0,0,0,0,0,0,0,0],"id":0,"left_children":[1,3,5,7,9,11,13,15,17,19,21,23,25,27,29,31,33,35,37,39,41,43,45,47,49,51,53,55,57,59,61,63,65,67,69,71,73,75,77,79,81,83,85,87,89,91,93,95,97,99,101,103,105,107,109,111,113,115,117,119,121,123,125,-1,-1,-1,-1,-1,-1,-1,-1,-1,-1,-1,-1,-1,-1,-1,-1,-1,-1,-1,-1,-1,-1,-1,-1,-1,-1,-1,-1,-1,-1,-1,-1,-1,-1,-1,-1,-1,-1,-1,-1,-1,-1,-1,-1,-1,-1,-1,-1,-1,-1,-1,-1,-1,-1,-1,-1,-1,-1,-1,-1,-1,-1,-1,-1],"loss_changes":[1.6572295E4,2.821315E3,2.606249E3,4.8964844E1,1.0646164E1,3.2394092E2,1.9099902E2,2.809961E1,7.769884E0,8.10548E0,8.375349E-1,1.7906738E1,1.4050293E1,1.2823601E1,6.385547E1,2.349115E1,5.0390625E-1,7.235857E0,8.613226E0,2.920205E0,3.55904E0,1.1451893E0,1.3419051E0,3.7883127E0,1.0147278E1,4.0253716E0,6.5407715E0,6.275631E0,4.014576E0,4.406494E0,1.4742676E1,1.3086365E1,6.679779E0,4.8672253E-1,4.765625E-1,2.9710655E0,1.661104E0,5.292766E0,2.9765778E0,1.4405451E0,1.0059066E0,2.6546683E0,3.756672E0,5.194968E-1,1.3275638E0,4.072051E-1,1.4151064E-1,2.4163768E0,3.1188817E0,5.4866943E0,5.3222427E0,3.0768738E0,2.736558E0,3.41333E0,6.89407E-1,5.0667343E0,7.245803E-1,3.0588531E0,2.537192E-1,3.397522E0,1.5686035E0,4.909546E0,1.9997559E0,0E0,0E0,0E0,0E0,0E0,0E0,0E0,0E0,0E0,0E0,0E0,0E0,0E0,0E0,0E0,0E0,0E0,0E0,0E0,0E0,0E0,0E0,0E0,0E0,0E0,0E0,0E0,0E0,0E0,0E0,0E0,0E0,0E0,0E0,0E0,0E0,0E0,0E0,0E0,0E0,0E0,0E0,0E0,0E0,0E0,0E0,0E0,0E0,0E0,0E0,0E0,0E0,0E0,0E0,0E0,0E0,0E0,0E0,0E0,0E0,0E0,0E0,0E0,0E0],"parents":[2147483647,0,0,1,1,2,2,3,3,4,4,5,5,6,6,7,7,8,8,9,9,10,10,11,11,12,12,13,13,14,14,15,15,16,16,17,17,18,18,19,19,20,20,21,21,22,22,23,23,24,24,25,25,26,26,27,27,28,28,29,29,30,30,31,31,32,32,33,33,34,34,35,35,36,36,37,37,38,38,39,39,40,40,41,41,42,42,43,43,44,44,45,45,46,46,47,47,48,48,49,49,50,50,51,51,52,52,53,53,54,54,55,55,56,56,57,57,58,58,59,59,60,60,61,61,62,62],"right_children":[2,4,6,8,10,12,14,16,18,20,22,24,26,28,30,32,34,36,38,40,42,44,46,48,50,52,54,56,58,60,62,64,66,68,70,72,74,76,78,80,82,84,86,88,90,92,94,96,98,100,102,104,106,108,110,112,114,116,118,120,122,124,126,-1,-1,-1,-1,-1,-1,-1,-1,-1,-1,-1,-1,-1,-1,-1,-1,-1,-1,-1,-1,-1,-1,-1,-1,-1,-1,-1,-1,-1,-1,-1,-1,-1,-1,-1,-1,-1,-1,-1,-1,-1,-1,-1,-1,-1,-1,-1,-1,-1,-1,-1,-1,-1,-1,-1,-1,-1,-1,-1,-1,-1,-1,-1,-1],"split_conditions":[2.7E1,1E0,6E0,7.0766E4,1E0,3E0,2E1,2.2E1,1.4248782E0,1.72E2,2.4E1,9E-1,1.3620385E0,7.6789E4,1.0456E4,3.3333334E-1,1.2E1,1.3666667E1,6.09E2,2.5E0,-7.865E3,9.333333E0,4.01E2,5.30445E-1,5.7212E4,4.8E1,3.8E1,3.8E1,3.8E1,1E0,1.32E2,3.8E1,5.1E1,9.325E3,3.396E3,1.9E1,8E0,1.2904E5,3.3333334E-1,5.4E0,6.6E0,2.1E1,1.96E2,8E0,9E0,-1.97E2,7E0,1.229771E0,7.496252E-1,1E0,4.4E1,3.82E2,-1.17E3,4.9E1,1.132E3,4.4E2,1E0,1.8E1,-1.09643E5,-4.814E3,1.03E1,2.95E2,-7.5089E4,-2.1104297E-1,-5.420847E-2,-2.0262708E-1,-1.1071142E-1,-1.408856E-1,5.074533E-2,-2.2786194E-1,-1.007444E-2,-1.4215983E-1,4.1290257E-2,2.6311854E-1,2.9881203E-3,-1.8549678E-1,2.263948E-2,2.4168764E-1,1.835787E-2,-1.3750273E-1,-1.5104897E-2,-4.96916E-2,9.138647E-2,9.112801E-3,1.4164446E-1,-8.9534365E-2,-1.97296E-2,1.14024125E-1,-5.9700375E-3,-1.511166E-2,2.0153256E-1,3.2231888E-1,5.074533E-2,9.389764E-2,-1.34325875E-2,-8.305721E-3,-1.1779513E-1,8.414781E-2,-4.006511E-2,9.9768326E-2,-1.9007754E-1,2.257543E-1,8.421443E-2,4.015704E-2,1.2631425E-1,4.9797636E-2,3.5382777E-1,6.284303E-2,1.877867E-1,-1.8247443E-1,5.074533E-2,1.0049347E-1,1.839037E-1,-1.65802E-1,2.7113928E-2,1.9081022E-1,3.6387E-1,-1.1404652E-1,2.7113928E-2,9.535655E-2,2.948121E-1,-1.007444E-2,3.5592714E-1,3.9485592E-1,7.8686394E-2,4.3010265E-1,4.6184883E-1],"split_indices":[30,30,2,33,14,2,23,23,41,8,30,17,41,8,37,34,45,34,39,34,0,34,36,40,4,26,9,9,15,1,6,9,6,37,0,46,46,33,35,28,28,30,39,46,30,0,2,41,40,13,15,8,0,10,5,0,22,34,0,0,16,38,0,0,0,0,0,0,0,0,0,0,0,0,0,0,0,0,0,0,0,0,0,0,0,0,0,0,0,0,0,0,0,0,0,0,0,0,0,0,0,0,0,0,0,0,0,0,0,0,0,0,0,0,0,0,0,0,0,0,0,0,0,0,0,0,0],"split_type":[0,0,0,0,0,0,0,0,0,0,0,0,0,0,0,0,0,0,0,0,0,0,0,0,0,0,0,0,0,0,0,0,0,0,0,0,0,0,0,0,0,0,0,0,0,0,0,0,0,0,0,0,0,0,0,0,0,0,0,0,0,0,0,0,0,0,0,0,0,0,0,0,0,0,0,0,0,0,0,0,0,0,0,0,0,0,0,0,0,0,0,0,0,0,0,0,0,0,0,0,0,0,0,0,0,0,0,0,0,0,0,0,0,0,0,0,0,0,0,0,0,0,0,0,0,0,0],"sum_hessian":[4.959E4,2.7897E4,2.1693E4,1.8386E4,9.511E3,1.6271E4,5.422E3,1.8165E4,2.21E2,9.474E3,3.7E1,9.097E3,7.174E3,3.37E2,5.085E3,2.333E3,1.5832E4,1.56E2,6.5E1,1.54E2,9.32E3,2.8E1,9E0,1.61E2,8.936E3,3.16E2,6.858E3,2.82E2,5.5E1,2.292E3,2.793E3,1.886E3,4.47E2,5E0,1.5827E4,1.48E2,8E0,4.3E1,2.2E1,8.9E1,6.5E1,6.2E1,9.258E3,1.3E1,1.5E1,6E0,3E0,7.9E1,8.2E1,8.813E3,1.23E2,3.02E2,1.4E1,6.853E3,5E0,2.74E2,8E0,5.2E1,3E0,5.1E1,2.241E3,1.118E3,1.675E3,1.836E3,5E1,9.1E1,3.56E2,4E0,1E0,1.5826E4,1E0,1.4E2,8E0,4E0,4E0,1.9E1,2.4E1,1.3E1,9E0,7.9E1,1E1,6.1E1,4E0,4.3E1,1.9E1,6.9E1,9.189E3,4E0,9E0,3E0,1.2E1,5E0,1E0,1E0,2E0,5.2E1,2.7E1,5.6E1,2.6E1,8.808E3,5E0,8.8E1,3.5E1,4.5E1,2.57E2,4E0,1E1,2.1E1,6.832E3,4E0,1E0,1.51E2,1.23E2,6E0,2E0,1.8E1,3.4E1,1E0,2E0,1.1E1,4E1,1E0,2.24E3,1.113E3,5E0,1.121E3,5.54E2],"tree_param":{"num_deleted":"0","num_feature":"47","num_nodes":"127","size_leaf_vector":"1"}},{"base_weights":[7.208742E-5,-3.5645875E-1,4.5961607E-1,-5.1697105E-1,-4.705668E-2,3.1942594E-1,8.7986887E-1,-5.209731E-1,-1.8715712E-1,-4.888228E-2,3.6695442E-1,2.3186989E-1,4.301108E-1,3.6916918E-1,9.1366196E-1,-4.4873598E-1,-5.315889E-1,-2.1337216E-1,6.4850056E-1,-1.8531492E-1,-4.5037977E-2,5.092524E-1,2.1444477E-1,2.3383538E-1,-2.9759574E-1,-2.8864337E-2,4.3249395E-1,3.0557793E-1,6.839398E-1,8.570702E-1,1.0257422E0,-5.2818006E-1,-3.552027E-1,-3.9519304E-1,-5.318488E-1,-2.9960874E-1,-3.8788458E-3,2.777776E-1,2.0895064E-1,-3.1882215E-1,-5.3438056E-2,-4.7758922E-2,1.0967415E-1,5.8941044E-2,6.1174095E-1,5.8783525E-1,7.004551E-2,3.7667744E-2,2.3777086E-1,-5.451315E-1,2.6953647E-1,-2.482424E-1,2.0357911E-1,1.4743912E-1,4.351334E-1,2.4179052E-1,5.1163965E-1,9.272505E-1,4.8626116E-1,8.2465637E-1,9.2165405E-1,1.0272592E0,-1.7483151E-1,-1.6067682E-1,-7.35765E-2,-1.0912529E-1,1.113305E-1,-1.4707969E-1,7.628429E-2,-1.5958092E-1,-6.3797325E-2,1.759432E-1,-9.4568685E-2,-3.9472047E-2,2.0964889E-1,1.5991008E-1,-1.1449473E-1,-1.2907116E-1,-5.858175E-2,-7.304795E-2,2.0769706E-2,-9.528675E-2,-1.4120548E-2,-1.3052164E-2,8.6485095E-2,-3.10819E-2,1.06369585E-1,2.2863193E-1,8.641823E-2,2.7258545E-1,-1.0746074E-2,1.2543686E-1,-1.2718989E-3,-2.4078354E-2,5.9564564E-2,7.0335135E-2,1.4271834E-1,1.0402129E-2,-2.0986103E-1,2.6366484E-1,-6.1264843E-2,-1.2389373E-1,6.1491948E-2,1.984009E-1,2.2924835E-2,1.0769276E-1,-3.7626617E-2,1.8875917E-2,1.3104491E-1,8.393667E-2,-2.7760278E-2,-7.9764E-2,1.698272E-1,3.1817484E-1,6.254137E-2,-9.646468E-2,1.7332815E-1,2.4798429E-1,-1.47840865E-2,1.0892887E-1,2.7669817E-1,3.087265E-1,1.0199418E-1,-1.2835E-1,4.967582E-2],"categories":[],"categories_nodes":[],"categories_segments":[],"categories_sizes":[],"default_left":[0,0,0,0,0,0,0,0,0,0,0,0,0,0,0,0,0,0,0,0,0,0,0,0,0,0,0,0,0,0,0,0,0,0,0,0,0,0,0,0,0,0,0,0,0,0,0,0,0,0,0,0,0,0,0,0,0,0,0,0,0,0,0,0,0,0,0,0,0,0,0,0,0,0,0,0,0,0,0,0,0,0,0,0,0,0,0,0,0,0,0,0,0,0,0,0,0,0,0,0,0,0,0,0,0,0,0,0,0,0,0,0,0,0,0,0,0,0,0,0,0,0,0,0,0],"id":1,"left_children":[1,3,5,7,9,11,13,15,17,19,21,23,25,27,29,31,33,35,37,39,41,43,45,47,49,51,53,55,57,59,61,63,65,67,69,71,73,-1,75,77,79,81,83,85,87,89,91,93,95,97,99,101,103,105,107,109,111,113,115,117,119,121,123,-1,-1,-1,-1,-1,-1,-1,-1,-1,-1,-1,-1,-1,-1,-1,-1,-1,-1,-1,-1,-1,-1,-1,-1,-1,-1,-1,-1,-1,-1,-1,-1,-1,-1,-1,-1,-1,-1,-1,-1,-1,-1,-1,-1,-1,-1,-1,-1,-1,-1,-1,-1,-1,-1,-1,-1,-1,-1,-1,-1,-1,-1],"loss_changes":[8.1252324E3,1.3868594E3,1.2761782E3,2.4172852E1,7.228462E0,1.5736157E2,9.318408E1,1.3691895E1,5.0016804E0,4.973772E0,8.0226994E-1,9.512543E0,7.8604736E0,6.556633E0,3.135498E1,1.7155548E1,3.5058594E-1,3.9010925E0,6.6012144E-1,4.5606565E0,3.8949375E0,9.331298E-1,1.1450056E0,6.9707947E0,4.92004E0,1.9882706E0,5.3065186E0,3.5960846E0,2.2425632E0,6.3222656E0,3.275879E0,2.5099792E0,6.80925E0,2.2240682E0,3.2910156E-1,2.3025217E0,5.834802E0,0E0,9.690449E-1,1.6917076E0,3.0943234E0,1.6770439E0,4.390086E0,2.769999E-1,6.07862E-1,1.2328949E0,4.413414E-1,3.4120128E0,6.8912964E0,2.172855E0,3.3549552E0,1.5778745E0,1.055449E0,3.9122744E0,4.4023438E0,2.7953167E0,2.9447308E0,2.0789738E0,2.6249433E0,3.9111328E0,8.703613E-2,1.7844238E0,3.2922202E-1,0E0,0E0,0E0,0E0,0E0,0E0,0E0,0E0,0E0,0E0,0E0,0E0,0E0,0E0,0E0,0E0,0E0,0E0,0E0,0E0,0E0,0E0,0E0,0E0,0E0,0E0,0E0,0E0,0E0,0E0,0E0,0E0,0E0,0E0,0E0,0E0,0E0,0E0,0E0,0E0,0E0,0E0,0E0,0E0,0E0,0E0,0E0,0E0,0E0,0E0,0E0,0E0,0E0,0E0,0E0,0E0,0E0,0E0,0E0,0E0,0E0,0E0],"parents":[2147483647,0,0,1,1,2,2,3,3,4,4,5,5,6,6,7,7,8,8,9,9,10,10,11,11,12,12,13,13,14,14,15,15,16,16,17,17,18,18,19,19,20,20,21,21,22,22,23,23,24,24,25,25,26,26,27,27,28,28,29,29,30,30,31,31,32,32,33,33,34,34,35,35,36,36,38,38,39,39,40,40,41,41,42,42,43,43,44,44,45,45,46,46,47,47,48,48,49,49,50,50,51,51,52,52,53,53,54,54,55,55,56,56,57,57,58,58,59,59,60,60,61,61,62,62],"right_children":[2,4,6,8,10,12,14,16,18,20,22,24,26,28,30,32,34,36,38,40,42,44,46,48,50,52,54,56,58,60,62,64,66,68,70,72,74,-1,76,78,80,82,84,86,88,90,92,94,96,98,100,102,104,106,108,110,112,114,116,118,120,122,124,-1,-1,-1,-1,-1,-1,-1,-1,-1,-1,-1,-1,-1,-1,-1,-1,-1,-1,-1,-1,-1,-1,-1,-1,-1,-1,-1,-1,-1,-1,-1,-1,-1,-1,-1,-1,-1,-1,-1,-1,-1,-1,-1,-1,-1,-1,-1,-1,-1,-1,-1,-1,-1,-1,-1,-1,-1,-1,-1,-1,-1,-1],"split_conditions":[2.8E1,1E0,6E0,7.0766E4,1E0,3E0,2E1,2.2E1,1.7333334E1,2.6666667E0,8E0,3.8E1,4.6E1,7.6789E4,3.4E1,2.3E1,-3.537E3,1.4248782E0,1.32289E5,1.2E1,1.4E2,3.08E2,5E0,4.8E1,7.5E1,9.333333E0,3.82E2,1.21E1,2.72E2,5.25E2,6.7E1,3.8E1,1.4E1,1.083E3,9.333333E0,4.2E1,3.3E1,2.777776E-1,1.3E1,2.44E2,1.4E0,1.83E2,9.13E2,-3.43E2,-3.26E2,4.01E2,1.686E3,6E0,5.7212E4,3.565E3,5.5590063E-1,8E0,7.2E0,2.5E1,1.3E0,1.384E3,6.4E1,2.3026E4,4.65E2,9.798E3,-1.09643E5,5.588235E-1,-5.4696E4,-1.6067682E-1,-7.35765E-2,-1.0912529E-1,1.113305E-1,-1.4707969E-1,7.628429E-2,-1.5958092E-1,-6.3797325E-2,1.759432E-1,-9.4568685E-2,-3.9472047E-2,2.0964889E-1,1.5991008E-1,-1.1449473E-1,-1.2907116E-1,-5.858175E-2,-7.304795E-2,2.0769706E-2,-9.528675E-2,-1.4120548E-2,-1.3052164E-2,8.6485095E-2,-3.10819E-2,1.06369585E-1,2.2863193E-1,8.641823E-2,2.7258545E-1,-1.0746074E-2,1.2543686E-1,-1.2718989E-3,-2.4078354E-2,5.9564564E-2,7.0335135E-2,1.4271834E-1,1.0402129E-2,-2.0986103E-1,2.6366484E-1,-6.1264843E-2,-1.2389373E-1,6.1491948E-2,1.984009E-1,2.2924835E-2,1.0769276E-1,-3.7626617E-2,1.8875917E-2,1.3104491E-1,8.393667E-2,-2.7760278E-2,-7.9764E-2,1.698272E-1,3.1817484E-1,6.254137E-2,-9.646468E-2,1.7332815E-1,2.4798429E-1,-1.47840865E-2,1.0892887E-1,2.7669817E-1,3.087265E-1,1.0199418E-1,-1.2835E-1,4.967582E-2],"split_indices":[30,30,2,33,14,2,23,23,34,34,46,9,10,8,3,4,0,41,4,30,6,4,9,10,15,34,8,17,5,36,3,9,23,5,34,10,9,0,46,36,28,39,4,0,0,36,33,26,4,37,40,26,28,9,17,5,30,0,5,37,0,40,0,0,0,0,0,0,0,0,0,0,0,0,0,0,0,0,0,0,0,0,0,0,0,0,0,0,0,0,0,0,0,0,0,0,0,0,0,0,0,0,0,0,0,0,0,0,0,0,0,0,0,0,0,0,0,0,0,0,0,0,0,0,0],"split_type":[0,0,0,0,0,0,0,0,0,0,0,0,0,0,0,0,0,0,0,0,0,0,0,0,0,0,0,0,0,0,0,0,0,0,0,0,0,0,0,0,0,0,0,0,0,0,0,0,0,0,0,0,0,0,0,0,0,0,0,0,0,0,0,0,0,0,0,0,0,0,0,0,0,0,0,0,0,0,0,0,0,0,0,0,0,0,0,0,0,0,0,0,0,0,0,0,0,0,0,0,0,0,0,0,0,0,0,0,0,0,0,0,0,0,0,0,0,0,0,0,0,0,0,0,0],"sum_hessian":[4.959E4,2.7925E4,2.1665E4,1.8386E4,9.539E3,1.6247E4,5.418E3,1.8165E4,2.21E2,9.498E3,4.1E1,9.073E3,7.174E3,3.37E2,5.081E3,2.333E3,1.5832E4,2.15E2,6E0,2.59E2,9.239E3,2E1,2.1E1,9.04E3,3.3E1,3.7E1,7.137E3,2.82E2,5.5E1,3.382E3,1.699E3,1.259E3,1.074E3,3.3E1,1.5799E4,1.52E2,6.3E1,3E0,3E0,1.28E2,1.31E2,9.08E3,1.59E2,4E0,1.6E1,5E0,1.6E1,1.78E2,8.862E3,2.3E1,1E1,1.9E1,1.8E1,6.6E1,7.071E3,2.17E2,6.5E1,2.3E1,3.2E1,2.261E3,1.121E3,1.697E3,2E0,1.226E3,3.3E1,1.062E3,1.2E1,2.9E1,4E0,1.5794E4,5E0,2E0,1.5E2,5.4E1,9E0,2E0,1E0,6.6E1,6.2E1,5.1E1,8E1,2.2E1,9.058E3,8.6E1,7.3E1,3E0,1E0,1E1,6E0,3E0,2E0,2E0,1.4E1,1.03E2,7.5E1,8.742E3,1.2E2,5E0,1.8E1,4E0,6E0,1.4E1,5E0,3E0,1.5E1,3.7E1,2.9E1,3.2E1,7.039E3,1.95E2,2.2E1,4E0,6.1E1,1.9E1,4E0,3E0,2.9E1,2.256E3,5E0,2E0,1.119E3,1.692E3,5E0,1E0,1E0],"tree_param":{"num_deleted":"0","num_feature":"47","num_nodes":"125","size_leaf_vector":"1"}},{"base_weights":[1.0557807E-4,-2.473882E-1,3.251331E-1,-3.6187708E-1,-3.185231E-2,2.267012E-1,6.1721677E-1,-3.6452052E-1,-1.0542165E-1,-3.3995666E-2,2.789942E-1,1.6616909E-1,3.0177435E-1,2.5743958E-1,6.401924E-1,-3.6563212E-1,-1.0542193E-2,1.7388424E-1,-1.8887396E-1,-1.7900111E-1,-3.103373E-2,4.745081E-1,7.527459E-2,1.6755433E-1,-2.777509E-1,3.028909E-1,-2.1548791E-1,2.2952473E-1,7.839445E-1,6.0047734E-1,7.188947E-1,-3.2342842E-1,-1.1185296E-1,2.1084338E-1,-3.112049E-1,6.2510973E-1,2.2785287E-2,-2.2263333E-1,3.497557E-1,-7.2036E-2,-2.3110673E-1,7.8317516E-2,-3.489961E-2,2.619838E-1,6.716216E-1,2.2474635E-1,-3.6489654E-1,-8.653672E-2,1.6941443E-1,-4.8201776E-1,2.0703663E-1,-7.2196275E-2,3.0411288E-1,5.057876E-1,-4.2084286E-1,2.4573764E-1,-4.1525638E-1,9.3648016E-1,9.22173E-2,5.778788E-1,1.9367467E-1,7.197469E-1,-1.09097496E-1,-1.042889E-1,-5.0898947E-2,2.286557E-1,3.5654393E-3,-1.4916569E-1,-2.0476429E-2,2.779563E-1,2.3433644E-2,-1.1248166E-1,8.605491E-2,-7.7721424E-2,2.802911E-2,1.8504584E-1,3.822248E-3,-8.699627E-3,-1.7480497E-1,-1.13622606E-1,-3.7370678E-2,-4.29923E-2,4.7599535E-2,-1.0752041E-2,1.07537284E-1,-2.4088468E-2,1.00737765E-1,2.3995107E-1,1.6488872E-2,-3.784055E-2,1.1631036E-1,-2.683119E-2,-1.7021295E-1,-8.031672E-2,1.0035515E-1,5.0048552E-2,1.009378E-1,-1.7662324E-1,-8.584754E-2,-8.96432E-2,1.5292862E-1,1.129562E-1,-4.6268474E-2,3.3706815E-3,9.165504E-2,-4.8678305E-2,2.3476727E-1,-1.8923643E-1,-2.1232633E-2,5.3782392E-2,1.2887795E-1,2.4195397E-2,-1.7820024E-1,-2.5602438E-2,3.0862314E-1,9.726028E-2,-2.7953269E-2,-1.6554764E-1,1.7358674E-1,2.3142096E-1,2.0790179E-1],"categories":[],"categories_nodes":[],"categories_segments":[],"categories_sizes":[],"default_left":[0,0,0,0,0,0,0,0,0,0,0,0,0,0,0,0,0,0,0,0,0,0,0,0,0,0,0,0,0,0,0,0,0,0,0,0,0,0,0,0,0,0,0,0,0,0,0,0,0,0,0,0,0,0,0,0,0,0,0,0,0,0,0,0,0,0,0,0,0,0,0,0,0,0,0,0,0,0,0,0,0,0,0,0,0,0,0,0,0,0,0,0,0,0,0,0,0,0,0,0,0,0,0,0,0,0,0,0,0,0,0,0,0,0,0,0,0,0,0,0,0],"id":2,"left_children":[1,3,5,7,9,11,13,15,17,19,21,23,25,27,29,31,33,35,37,39,41,43,45,47,49,51,53,55,57,59,61,63,-1,65,67,69,71,73,75,77,79,81,83,85,87,89,91,93,95,97,99,101,103,105,107,109,111,113,115,117,-1,119,-1,-1,-1,-1,-1,-1,-1,-1,-1,-1,-1,-1,-1,-1,-1,-1,-1,-1,-1,-1,-1,-1,-1,-1,-1,-1,-1,-1,-1,-1,-1,-1,-1,-1,-1,-1,-1,-1,-1,-1,-1,-1,-1,-1,-1,-1,-1,-1,-1,-1,-1,-1,-1,-1,-1,-1,-1,-1,-1],"loss_changes":[3.9892935E3,6.947296E2,6.162102E2,1.2426758E1,6.5174685E0,7.2822815E1,4.4496826E1,7.1567383E0,4.438191E0,4.1614237E0,2.6328926E0,5.507202E0,4.1987915E0,4.6113873E0,1.5440674E1,5.400879E0,3.9262342E0,2.9856634E0,2.7327018E0,1.0646076E0,4.022559E0,1.2483544E0,2.3189764E0,4.198868E0,2.872524E0,3.2954712E0,2.5827372E0,3.3531685E0,1.6018496E0,3.0732422E0,1.828186E0,9.821075E0,0E0,3.7205467E0,1.0958662E0,1.7412105E0,3.678394E0,1.6135173E0,8.0218124E-1,1.4115982E0,1.9975572E0,5.8100286E0,3.410945E0,4.8169923E-1,1.3001451E0,1.5355265E0,4.5123017E-1,5.048338E0,3.7404175E0,2.4959278E-1,1.5305178E0,9.4148934E-1,2.923706E0,8.6656153E-1,9.1079044E-1,3.6377392E0,7.5703275E-1,1.3133945E0,2.0224254E-1,2.2197266E0,0E0,1.8095703E0,0E0,0E0,0E0,0E0,0E0,0E0,0E0,0E0,0E0,0E0,0E0,0E0,0E0,0E0,0E0,0E0,0E0,0E0,0E0,0E0,0E0,0E0,0E0,0E0,0E0,0E0,0E0,0E0,0E0,0E0,0E0,0E0,0E0,0E0,0E0,0E0,0E0,0E0,0E0,0E0,0E0,0E0,0E0,0E0,0E0,0E0,0E0,0E0,0E0,0E0,0E0,0E0,0E0,0E0,0E0,0E0,0E0,0E0,0E0],"parents":[2147483647,0,0,1,1,2,2,3,3,4,4,5,5,6,6,7,7,8,8,9,9,10,10,11,11,12,12,13,13,14,14,15,15,16,16,17,17,18,18,19,19,20,20,21,21,22,22,23,23,24,24,25,25,26,26,27,27,28,28,29,29,30,30,31,31,33,33,34,34,35,35,36,36,37,37,38,38,39,39,40,40,41,41,42,42,43,43,44,44,45,45,46,46,47,47,48,48,49,49,50,50,51,51,52,52,53,53,54,54,55,55,56,56,57,57,58,58,59,59,61,61],"right_children":[2,4,6,8,10,12,14,16,18,20,22,24,26,28,30,32,34,36,38,40,42,44,46,48,50,52,54,56,58,60,62,64,-1,66,68,70,72,74,76,78,80,82,84,86,88,90,92,94,96,98,100,102,104,106,108,110,112,114,116,118,-1,120,-1,-1,-1,-1,-1,-1,-1,-1,-1,-1,-1,-1,-1,-1,-1,-1,-1,-1,-1,-1,-1,-1,-1,-1,-1,-1,-1,-1,-1,-1,-1,-1,-1,-1,-1,-1,-1,-1,-1,-1,-1,-1,-1,-1,-1,-1,-1,-1,-1,-1,-1,-1,-1,-1,-1,-1,-1,-1,-1],"split_conditions":[5.7E1,1E0,6E0,8.5724E4,1.9E1,3E0,2E1,3.8E1,1E0,1.72E2,9E0,3.8E1,3.7E1,4.8E2,3.4E1,2E1,2.11E2,2.285E3,1.3E1,3.353E3,1E0,2.6E1,3E0,9.33E2,7.5E1,7.2E1,1.2E1,3.8E1,5.92E2,5.81E2,2.27E1,1.3333334E0,-1.1185296E-1,5.2E1,3E0,-3.7589E4,1.5E1,7.1E1,8E0,1.06E1,5.871E3,1.2E1,3.3269E4,3.08E2,3E0,2.61E2,2.4E1,6.994E3,6.3E1,2.38E2,3.89E2,1.2E0,4.6E1,5E0,1.153E3,1.2E1,3.3333334E-1,1E1,-7.5089E4,1E1,1.9367467E-1,4.66E2,-1.09097496E-1,-1.042889E-1,-5.0898947E-2,2.286557E-1,3.5654393E-3,-1.4916569E-1,-2.0476429E-2,2.779563E-1,2.3433644E-2,-1.1248166E-1,8.605491E-2,-7.7721424E-2,2.802911E-2,1.8504584E-1,3.822248E-3,-8.699627E-3,-1.7480497E-1,-1.13622606E-1,-3.7370678E-2,-4.29923E-2,4.7599535E-2,-1.0752041E-2,1.07537284E-1,-2.4088468E-2,1.00737765E-1,2.3995107E-1,1.6488872E-2,-3.784055E-2,1.1631036E-1,-2.683119E-2,-1.7021295E-1,-8.031672E-2,1.0035515E-1,5.0048552E-2,1.009378E-1,-1.7662324E-1,-8.584754E-2,-8.96432E-2,1.5292862E-1,1.129562E-1,-4.6268474E-2,3.3706815E-3,9.165504E-2,-4.8678305E-2,2.3476727E-1,-1.8923643E-1,-2.1232633E-2,5.3782392E-2,1.2887795E-1,2.4195397E-2,-1.7820024E-1,-2.5602438E-2,3.0862314E-1,9.726028E-2,-2.7953269E-2,-1.6554764E-1,1.7358674E-1,2.3142096E-1,2.0790179E-1],"split_indices":[30,30,2,33,3,2,23,9,23,8,46,9,9,36,3,46,36,4,34,37,18,30,19,37,15,5,3,9,36,36,17,34,0,38,19,0,15,15,46,28,37,30,4,4,32,36,30,8,10,38,39,17,10,3,5,17,35,34,0,15,0,36,0,0,0,0,0,0,0,0,0,0,0,0,0,0,0,0,0,0,0,0,0,0,0,0,0,0,0,0,0,0,0,0,0,0,0,0,0,0,0,0,0,0,0,0,0,0,0,0,0,0,0,0,0,0,0,0,0,0,0],"split_type":[0,0,0,0,0,0,0,0,0,0,0,0,0,0,0,0,0,0,0,0,0,0,0,0,0,0,0,0,0,0,0,0,0,0,0,0,0,0,0,0,0,0,0,0,0,0,0,0,0,0,0,0,0,0,0,0,0,0,0,0,0,0,0,0,0,0,0,0,0,0,0,0,0,0,0,0,0,0,0,0,0,0,0,0,0,0,0,0,0,0,0,0,0,0,0,0,0,0,0,0,0,0,0,0,0,0,0,0,0,0,0,0,0,0,0,0,0,0,0,0,0],"sum_hessian":[4.959E4,2.8153E4,2.1437E4,1.8386E4,9.767E3,1.6035E4,5.402E3,1.8198E4,1.88E2,9.701E3,6.6E1,8.879E3,7.156E3,3.25E2,5.077E3,1.8141E4,5.7E1,4.3E1,1.45E2,1.93E2,9.508E3,3.3E1,3.3E1,8.852E3,2.7E1,7.141E3,1.5E1,3.1E2,1.5E1,3.38E3,1.697E3,2.654E3,1.5487E4,3.3E1,2.4E1,1E1,3.3E1,1.37E2,8E0,6.4E1,1.29E2,3.24E2,9.184E3,1.7E1,1.6E1,2.5E1,8E0,6.4E1,8.788E3,1.9E1,8E0,2.3E1,7.118E3,3E0,1.2E1,3.03E2,7E0,1.2E1,3E0,2.261E3,1.119E3,1.696E3,1E0,2.292E3,3.62E2,8E0,2.5E1,1.3E1,1.1E1,6E0,4E0,1.3E1,2E1,1.23E2,1.4E1,4E0,4E0,6E1,4E0,5.3E1,7.6E1,8.6E1,2.38E2,9.163E3,2.1E1,3E0,1.4E1,1.3E1,3E0,8E0,1.7E1,4E0,4E0,4.5E1,1.9E1,8.656E3,1.32E2,1.1E1,8E0,3E0,5E0,3E0,2E1,3.4E1,7.084E3,1E0,2E0,7E0,5E0,2.24E2,7.9E1,2E0,5E0,1E0,1.1E1,1E0,2E0,1E0,2.26E3,5.69E2,1.127E3],"tree_param":{"num_deleted":"0","num_feature":"47","num_nodes":"121","size_leaf_vector":"1"}},{"base_weights":[9.837556E-5,-1.7242251E-1,2.2889349E-1,-2.5279975E-1,-2.0767221E-2,1.59736E-1,4.2978707E-1,-2.5561604E-1,-8.526515E-2,-1.9985352E-2,-5.292139E-1,1.1765868E-1,2.1029654E-1,1.7527972E-1,4.4756126E-1,-2.5644827E-1,-3.354228E-2,-1.1588475E-1,1.3453901E-1,6.658738E-1,-2.0614916E-2,-1.9112737E-1,1.4716028E-1,-6.190976E-2,1.2033884E-1,1.10203914E-1,2.150711E-1,6.429453E-2,2.7198252E-1,4.1971022E-1,5.028048E-1,-2.5720507E-1,-7.591581E-2,6.874681E-1,-1.006129E-1,-2.2448343E-1,-1.0381074E-2,-7.802042E-2,5.493087E-1,5.1338743E-2,3.4417027E-1,-2.1495644E-2,3.380394E-1,-1.8592355E-1,1.11478075E-1,1.18419886E-1,3.0742133E-1,9.981174E-2,2.7966407E-1,-3.463344E-1,2.156938E-1,5.107588E-1,1.3938035E-2,3.6762074E-1,1.4037047E-1,1.1200633E-1,4.2214155E-1,2.1627182E-1,5.0573385E-1,-7.856064E-2,-7.074618E-2,-6.5408476E-2,3.922295E-2,3.1321466E-1,-5.1386477E-3,-5.2953653E-2,1.1484852E-1,-9.155343E-2,-3.727031E-2,-4.528421E-2,1.7106522E-2,7.963509E-2,-1.04278706E-1,1.6640147E-2,2.553079E-1,-2.6243031E-2,5.1912405E-2,-5.568287E-2,-5.9017725E-3,4.1557427E-2,1.8105222E-1,-1.691184E-1,-3.775903E-2,-1.8049896E-2,1.2924953E-1,3.5727236E-2,-5.563331E-2,6.577102E-2,2.4988697E-1,-1.5282945E-2,4.2773284E-2,-1.5622473E-1,-1.2519726E-2,1.3779747E-1,6.4205825E-2,-1.7166667E-2,1.9096692E-1,1.5724225E-2,-1.4520596E-1,1.5897748E-1,4.8677173E-2,8.162616E-2,-1.0647666E-2,-1.06625125E-1,5.469415E-2,1.22095376E-1,1.3570878E-1,1.8150192E-1,-2.9049327E-3,-6.813909E-2,1.5202157E-1],"categories":[],"categories_nodes":[],"categories_segments":[],"categories_sizes":[],"default_left":[0,0,0,0,0,0,0,0,0,0,0,0,0,0,0,0,0,0,0,0,0,0,0,0,0,0,0,0,0,0,0,0,0,0,0,0,0,0,0,0,0,0,0,0,0,0,0,0,0,0,0,0,0,0,0,0,0,0,0,0,0,0,0,0,0,0,0,0,0,0,0,0,0,0,0,0,0,0,0,0,0,0,0,0,0,0,0,0,0,0,0,0,0,0,0,0,0,0,0,0,0,0,0,0,0,0,0,0,0,0,0],"id":3,"left_children":[1,3,5,7,9,11,13,15,17,19,21,23,25,27,29,31,33,35,37,39,41,-1,-1,43,45,47,49,51,53,55,57,59,61,63,65,67,69,71,73,75,-1,77,79,81,83,85,87,89,-1,91,93,95,97,99,101,103,105,107,109,-1,-1,-1,-1,-1,-1,-1,-1,-1,-1,-1,-1,-1,-1,-1,-1,-1,-1,-1,-1,-1,-1,-1,-1,-1,-1,-1,-1,-1,-1,-1,-1,-1,-1,-1,-1,-1,-1,-1,-1,-1,-1,-1,-1,-1,-1,-1,-1,-1,-1,-1,-1],"loss_changes":[1.9574922E3,3.4463226E2,2.9612268E2,8.697144E0,3.8833184E0,3.371878E1,2.461621E1,3.3500977E0,2.0817983E0,4.237099E0,1.9626303E0,4.174774E0,3.418579E0,3.8247757E0,7.638794E0,2.4539795E0,3.4059126E0,3.0912104E0,3.3930595E0,2.603418E0,3.0943274E0,0E0,0E0,2.773044E0,3.026619E0,2.7259693E0,2.4778442E0,3.7699208E0,2.352542E0,2.494873E0,1.3215942E0,1.7363281E0,2.2899036E0,1.5253572E0,2.4159155E0,1.0379982E0,1.3160968E0,2.4996407E0,1.8898051E0,9.9608146E-2,0E0,2.9134622E0,1.1875532E0,1.6308703E0,2.985946E0,1.7441025E0,3.8029785E0,2.1154857E0,0E0,4.0328443E-1,2.7029724E0,1.2510858E0,2.937606E0,3.5804644E0,1.9091097E0,9.8497164E-1,1.3599854E0,1.6747515E0,1.3572083E0,0E0,0E0,0E0,0E0,0E0,0E0,0E0,0E0,0E0,0E0,0E0,0E0,0E0,0E0,0E0,0E0,0E0,0E0,0E0,0E0,0E0,0E0,0E0,0E0,0E0,0E0,0E0,0E0,0E0,0E0,0E0,0E0,0E0,0E0,0E0,0E0,0E0,0E0,0E0,0E0,0E0,0E0,0E0,0E0,0E0,0E0,0E0,0E0,0E0,0E0,0E0,0E0],"parents":[2147483647,0,0,1,1,2,2,3,3,4,4,5,5,6,6,7,7,8,8,9,9,10,10,11,11,12,12,13,13,14,14,15,15,16,16,17,17,18,18,19,19,20,20,23,23,24,24,25,25,26,26,27,27,28,28,29,29,30,30,31,31,32,32,33,33,34,34,35,35,36,36,37,37,38,38,39,39,41,41,42,42,43,43,44,44,45,45,46,46,47,47,49,49,50,50,51,51,52,52,53,53,54,54,55,55,56,56,57,57,58,58],"right_children":[2,4,6,8,10,12,14,16,18,20,22,24,26,28,30,32,34,36,38,40,42,-1,-1,44,46,48,50,52,54,56,58,60,62,64,66,68,70,72,74,76,-1,78,80,82,84,86,88,90,-1,92,94,96,98,100,102,104,106,108,110,-1,-1,-1,-1,-1,-1,-1,-1,-1,-1,-1,-1,-1,-1,-1,-1,-1,-1,-1,-1,-1,-1,-1,-1,-1,-1,-1,-1,-1,-1,-1,-1,-1,-1,-1,-1,-1,-1,-1,-1,-1,-1,-1,-1,-1,-1,-1,-1,-1,-1,-1,-1],"split_conditions":[2E0,1E-1,6E0,4.4E3,1E0,3E0,1.6E1,3.8E1,3.02E2,-3E0,1.7E1,7.2E1,1.3620385E0,6.18E3,1.03E1,3.3333334E-1,5E0,1.6666666E0,-5.443E3,4.6E1,8.8E1,-1.9112737E-1,1.4716028E-1,8.2E1,5.7212E4,6.1E1,1.7910448E-1,1.136E3,1.2185E4,1E0,1.11E2,2.8E1,2.1E1,5.5E1,1.388E3,1.2E1,1.5E1,1.3333334E0,1.78E2,4.432E3,3.4417027E-1,4.6E1,3.1E1,-3.821E4,1.5E1,3.8E1,1.6E1,7.2E1,2.7966407E-1,2.85E3,2.8125E-1,8.9E1,3.15401E5,4.764398E-1,2.4E1,4.879E3,5.25E2,6.861E3,6E0,-7.856064E-2,-7.074618E-2,-6.5408476E-2,3.922295E-2,3.1321466E-1,-5.1386477E-3,-5.2953653E-2,1.1484852E-1,-9.155343E-2,-3.727031E-2,-4.528421E-2,1.7106522E-2,7.963509E-2,-1.04278706E-1,1.6640147E-2,2.553079E-1,-2.6243031E-2,5.1912405E-2,-5.568287E-2,-5.9017725E-3,4.1557427E-2,1.8105222E-1,-1.691184E-1,-3.775903E-2,-1.8049896E-2,1.2924953E-1,3.5727236E-2,-5.563331E-2,6.577102E-2,2.4988697E-1,-1.5282945E-2,4.2773284E-2,-1.5622473E-1,-1.2519726E-2,1.3779747E-1,6.4205825E-2,-1.7166667E-2,1.9096692E-1,1.5724225E-2,-1.4520596E-1,1.5897748E-1,4.8677173E-2,8.162616E-2,-1.0647666E-2,-1.06625125E-1,5.469415E-2,1.22095376E-1,1.3570878E-1,1.8150192E-1,-2.9049327E-3,-6.813909E-2,1.5202157E-1],"split_indices":[2,16,2,8,13,2,23,9,6,3,21,38,41,4,17,35,38,34,0,30,15,0,0,0,4,26,40,37,0,18,6,4,9,10,5,21,45,34,38,37,0,10,30,0,26,9,3,30,0,4,40,30,33,40,9,37,36,37,46,0,0,0,0,0,0,0,0,0,0,0,0,0,0,0,0,0,0,0,0,0,0,0,0,0,0,0,0,0,0,0,0,0,0,0,0,0,0,0,0,0,0,0,0,0,0,0,0,0,0,0,0],"split_type":[0,0,0,0,0,0,0,0,0,0,0,0,0,0,0,0,0,0,0,0,0,0,0,0,0,0,0,0,0,0,0,0,0,0,0,0,0,0,0,0,0,0,0,0,0,0,0,0,0,0,0,0,0,0,0,0,0,0,0,0,0,0,0,0,0,0,0,0,0,0,0,0,0,0,0,0,0,0,0,0,0,0,0,0,0,0,0,0,0,0,0,0,0,0,0,0,0,0,0,0,0,0,0,0,0,0,0,0,0,0,0],"sum_hessian":[4.959E4,2.8272E4,2.1318E4,1.8478E4,9.794E3,1.586E4,5.458E3,1.8172E4,3.06E2,9.78E3,1.4E1,8.658E3,7.202E3,3.57E2,5.101E3,1.8104E4,6.8E1,2.69E2,3.7E1,8E0,9.772E3,1.3E1,1E0,1.27E2,8.531E3,3.29E2,6.873E3,1.67E2,1.9E2,3.397E3,1.704E3,1.8028E4,7.6E1,5E0,6.3E1,1.32E2,1.37E2,2.5E1,1.2E1,4E0,4E0,9.749E3,2.3E1,7.4E1,5.3E1,8.446E3,8.5E1,3.26E2,3E0,7E0,6.866E3,1.6E1,1.51E2,1.09E2,8.1E1,2.7E1,3.37E3,1.8E1,1.686E3,1.4791E4,3.237E3,4.5E1,3.1E1,3E0,2E0,5.5E1,8E0,7.2E1,6E1,4.4E1,9.3E1,1.1E1,1.4E1,5E0,7E0,2E0,2E0,1.06E2,9.643E3,1.4E1,9E0,9E0,6.5E1,3.5E1,1.8E1,8.428E3,1.8E1,7.4E1,1.1E1,7.2E1,2.54E2,4E0,3E0,4.5E1,6.821E3,3E0,1.3E1,1.41E2,1E1,6E1,4.9E1,4.6E1,3.5E1,3E0,2.4E1,2.254E3,1.116E3,6E0,1.2E1,2E0,1.684E3],"tree_param":{"num_deleted":"0","num_feature":"47","num_nodes":"111","size_leaf_vector":"1"}},{"base_weights":[1.1129326E-4,-1.2134408E-1,1.5961565E-1,-1.7722021E-1,-1.52566675E-2,1.1142281E-1,3.0262154E-1,-1.3907701E-1,-1.8333781E-1,-1.7030898E-2,1.572309E-1,8.198026E-2,1.4793788E-1,1.1297499E-1,3.1386665E-1,-1.7561601E-1,-5.57959E-2,-1.8346512E-1,1.8427831E-1,-1.7558353E-1,-1.5245182E-2,6.0078207E-2,3.7867948E-1,8.137682E-2,5.21142E-1,1.4961995E-1,-1.9660033E-2,-1.8662702E-1,1.4645925E-1,2.9460174E-1,3.5185272E-1,-1.9975354E-1,-1.3794357E-1,-6.436521E-2,6.8546E-1,-1.8354857E-1,1.937253E-1,-1.3593908E-1,1.8487954E-1,4.98959E-1,-2.2059554E-1,6.916205E-2,-1.8229844E-2,-2.768119E-1,1.3455223E-1,7.928215E-2,6.7279136E-1,-4.315583E-2,8.391771E-2,2.9419923E-1,1.6879797E-1,3.2091257E-1,1.4781584E-1,-3.0782467E-1,1.1328891E-1,-2.9103312E-1,4.1449133E-1,8.741238E-2,2.9371276E-1,-4.3666193E-1,2.9559457E-1,-1.2444935E-1,3.5444447E-1,-6.063502E-2,4.256475E-2,-4.402446E-2,6.0555074E-2,-3.9593615E-2,8.5624615E-3,-5.452712E-3,3.1209213E-1,-5.499495E-2,-1.3004869E-1,-1.1170447E-1,1.5195978E-1,5.702793E-2,2.5422478E-1,-8.785911E-2,-3.504136E-3,3.3565469E-3,7.768636E-2,-5.3071594E-3,-1.3993765E-1,5.3831138E-2,-1.4985801E-1,1.0834228E-2,1.3240491E-1,1.2559502E-1,-9.371213E-3,5.0526995E-2,2.5226602E-1,1.9813756E-2,-6.623306E-2,1.7782387E-1,2.5014212E-2,-2.711965E-2,8.107901E-2,-1.2045032E-2,1.495737E-1,4.4587556E-2,-1.1428616E-1,-1.1959616E-1,1.2917633E-1,1.741285E-1,-5.4019927E-3,-1.2952127E-1,1.150398E-2,-2.367344E-2,2.3091911E-1,-1.6403154E-2,5.3133182E-2,1.12397484E-1,-4.1950393E-2,-1.9969271E-1,-1.8638266E-2,8.8801794E-2,-8.009905E-2,1.6012026E-2,-9.388404E-2,1.057891E-1,2.6989228E-1],"categories":[],"categories_nodes":[],"categories_segments":[],"categories_sizes":[],"default_left":[0,0,0,0,0,0,0,0,0,0,0,0,0,0,0,0,0,0,0,0,0,0,0,0,0,0,0,0,0,0,0,0,0,0,0,0,0,0,0,0,0,0,0,0,0,0,0,0,0,0,0,0,0,0,0,0,0,0,0,0,0,0,0,0,0,0,0,0,0,0,0,0,0,0,0,0,0,0,0,0,0,0,0,0,0,0,0,0,0,0,0,0,0,0,0,0,0,0,0,0,0,0,0,0,0,0,0,0,0,0,0,0,0,0,0,0,0,0,0,0,0],"id":4,"left_children":[1,3,5,7,9,11,13,15,17,19,21,23,25,27,29,31,33,35,37,39,41,43,45,47,49,51,53,55,57,59,61,63,65,67,69,71,73,-1,-1,75,77,79,81,83,85,87,89,91,93,-1,95,97,99,101,103,105,107,109,111,113,115,117,119,-1,-1,-1,-1,-1,-1,-1,-1,-1,-1,-1,-1,-1,-1,-1,-1,-1,-1,-1,-1,-1,-1,-1,-1,-1,-1,-1,-1,-1,-1,-1,-1,-1,-1,-1,-1,-1,-1,-1,-1,-1,-1,-1,-1,-1,-1,-1,-1,-1,-1,-1,-1,-1,-1,-1,-1,-1,-1],"loss_changes":[9.6072906E2,1.6688733E2,1.4771399E2,4.277588E0,2.9754815E0,1.7228119E1,1.1486908E1,7.7590065E0,7.774658E-1,2.7199016E0,2.1071675E0,2.3108635E0,2.0205688E0,3.0770464E0,3.62854E0,1.5855751E0,4.998719E0,5.355835E-1,1.9313608E0,3.3588579E0,2.397087E0,1.793515E0,2.5883498E0,2.809986E0,1.7773838E0,2.1423492E0,2.7932785E0,2.0662036E0,2.356717E0,2.590271E0,2.1562805E0,8.99807E-1,2.111885E0,4.853279E0,2.266056E0,8.4173584E-1,8.96894E-1,0E0,0E0,5.922973E-1,1.5214677E0,3.5730598E0,2.2123377E0,1.4106078E0,1.7356939E0,6.13186E-1,1.1301036E0,3.4671612E0,2.3256226E0,0E0,2.3482753E-1,4.702873E0,3.058319E0,1.7142513E0,3.0771174E0,1.2678757E0,9.3712014E-1,2.5204844E0,2.7897E0,3.8745058E-1,8.6273193E-1,3.5189438E-1,1.3661499E0,0E0,0E0,0E0,0E0,0E0,0E0,0E0,0E0,0E0,0E0,0E0,0E0,0E0,0E0,0E0,0E0,0E0,0E0,0E0,0E0,0E0,0E0,0E0,0E0,0E0,0E0,0E0,0E0,0E0,0E0,0E0,0E0,0E0,0E0,0E0,0E0,0E0,0E0,0E0,0E0,0E0,0E0,0E0,0E0,0E0,0E0,0E0,0E0,0E0,0E0,0E0,0E0,0E0,0E0,0E0,0E0,0E0,0E0],"parents":[2147483647,0,0,1,1,2,2,3,3,4,4,5,5,6,6,7,7,8,8,9,9,10,10,11,11,12,12,13,13,14,14,15,15,16,16,17,17,18,18,19,19,20,20,21,21,22,22,23,23,24,24,25,25,26,26,27,27,28,28,29,29,30,30,31,31,32,32,33,33,34,34,35,35,36,36,39,39,40,40,41,41,42,42,43,43,44,44,45,45,46,46,47,47,48,48,50,50,51,51,52,52,53,53,54,54,55,55,56,56,57,57,58,58,59,59,60,60,61,61,62,62],"right_children":[2,4,6,8,10,12,14,16,18,20,22,24,26,28,30,32,34,36,38,40,42,44,46,48,50,52,54,56,58,60,62,64,66,68,70,72,74,-1,-1,76,78,80,82,84,86,88,90,92,94,-1,96,98,100,102,104,106,108,110,112,114,116,118,120,-1,-1,-1,-1,-1,-1,-1,-1,-1,-1,-1,-1,-1,-1,-1,-1,-1,-1,-1,-1,-1,-1,-1,-1,-1,-1,-1,-1,-1,-1,-1,-1,-1,-1,-1,-1,-1,-1,-1,-1,-1,-1,-1,-1,-1,-1,-1,-1,-1,-1,-1,-1,-1,-1,-1,-1,-1,-1],"split_conditions":[5.7E1,1E0,6E0,2.2E1,1.9919E4,3E0,3.88E2,9.1E1,1.25E1,2.33E2,1.7E1,4.46931E5,1.503E3,7.3E1,3E0,1.1E1,1.6E1,2E0,6.471E3,1.048E3,1E0,2E-1,7.3333335E0,1E0,4.063E3,2.8125E-1,4.1E0,3.02E2,1.2E1,6.4E1,5E0,7.0766E4,3.8E1,5.1E1,2E1,1E-1,3.02E2,-1.3593908E-1,1.8487954E-1,2.5E0,6.645E3,2.6E0,4.6E1,2.51E2,1E3,1.8E3,3.45E3,5.6E2,-1E0,2.9419923E-1,6E0,4E0,3.7E1,4E0,1.4E1,4.6E1,-1.2481E4,4.5E-1,3.1666666E1,2.9705E4,3.8E1,2.205736E6,1.3E1,-6.063502E-2,4.256475E-2,-4.402446E-2,6.0555074E-2,-3.9593615E-2,8.5624615E-3,-5.452712E-3,3.1209213E-1,-5.499495E-2,-1.3004869E-1,-1.1170447E-1,1.5195978E-1,5.702793E-2,2.5422478E-1,-8.785911E-2,-3.504136E-3,3.3565469E-3,7.768636E-2,-5.3071594E-3,-1.3993765E-1,5.3831138E-2,-1.4985801E-1,1.0834228E-2,1.3240491E-1,1.2559502E-1,-9.371213E-3,5.0526995E-2,2.5226602E-1,1.9813756E-2,-6.623306E-2,1.7782387E-1,2.5014212E-2,-2.711965E-2,8.107901E-2,-1.2045032E-2,1.495737E-1,4.4587556E-2,-1.1428616E-1,-1.1959616E-1,1.2917633E-1,1.741285E-1,-5.4019927E-3,-1.2952127E-1,1.150398E-2,-2.367344E-2,2.3091911E-1,-1.6403154E-2,5.3133182E-2,1.12397484E-1,-4.1950393E-2,-1.9969271E-1,-1.8638266E-2,8.8801794E-2,-8.009905E-2,1.6012026E-2,-9.388404E-2,1.057891E-1,2.6989228E-1],"split_indices":[30,2,2,23,8,2,36,4,34,5,45,0,5,30,19,4,23,3,37,37,18,28,34,19,37,40,16,6,17,30,46,33,9,10,9,16,36,0,0,34,37,17,30,39,5,4,37,39,3,0,46,17,9,19,45,15,0,40,34,8,9,33,2,0,0,0,0,0,0,0,0,0,0,0,0,0,0,0,0,0,0,0,0,0,0,0,0,0,0,0,0,0,0,0,0,0,0,0,0,0,0,0,0,0,0,0,0,0,0,0,0,0,0,0,0,0,0,0,0,0,0],"split_type":[0,0,0,0,0,0,0,0,0,0,0,0,0,0,0,0,0,0,0,0,0,0,0,0,0,0,0,0,0,0,0,0,0,0,0,0,0,0,0,0,0,0,0,0,0,0,0,0,0,0,0,0,0,0,0,0,0,0,0,0,0,0,0,0,0,0,0,0,0,0,0,0,0,0,0,0,0,0,0,0,0,0,0,0,0,0,0,0,0,0,0,0,0,0,0,0,0,0,0,0,0,0,0,0,0,0,0,0,0,0,0,0,0,0,0,0,0,0,0,0,0],"sum_hessian":[4.959E4,2.8153E4,2.1437E4,1.844E4,9.713E3,1.6035E4,5.402E3,2.552E3,1.5888E4,9.615E3,9.8E1,8.879E3,7.156E3,3.03E2,5.099E3,1.773E3,7.79E2,1.5883E4,5E0,1.06E2,9.509E3,6.9E1,2.9E1,8.868E3,1.1E1,7.085E3,7.1E1,3E1,2.73E2,3.389E3,1.71E3,1.078E3,6.95E2,7.71E2,8E0,1.588E4,3E0,2E0,3E0,6E0,1E2,3.24E2,9.185E3,1.2E1,5.7E1,1.5E1,1.4E1,1.77E2,8.691E3,4E0,7E0,7.2E1,7.013E3,2.2E1,4.9E1,2.6E1,4E0,1.96E2,7.7E1,4E0,3.385E3,9E0,1.701E3,1.071E3,7E0,6.78E2,1.7E1,4.46E2,3.25E2,3E0,5E0,1.5867E4,1.3E1,1E0,2E0,4E0,2E0,7.4E1,2.6E1,2.49E2,7.5E1,9.175E3,1E1,4E0,8E0,4.4E1,1.3E1,3E0,1.2E1,4E0,1E1,1.1E2,6.7E1,8E0,8.683E3,2E0,5E0,2.4E1,4.8E1,7.003E3,1E1,2E1,2E0,1E1,3.9E1,1.8E1,8E0,2E0,2E0,7.6E1,1.2E2,6.5E1,1.2E1,2E0,2E0,3.383E3,2E0,5E0,4E0,1.697E3,4E0],"tree_param":{"num_deleted":"0","num_feature":"47","num_nodes":"121","size_leaf_vector":"1"}},{"base_weights":[1.14915674E-4,-8.450032E-2,1.1233061E-1,-1.2395687E-1,-1.0053958E-2,7.839075E-2,2.1092154E-1,-1.2540562E-1,-3.7793007E-2,5.268288E-2,-1.3391737E-2,5.78905E-2,1.0302399E-1,8.5985355E-2,2.1964678E-1,-1.2814765E-1,-9.534479E-2,-1.01195835E-1,2.109082E-2,2.6470507E-2,2.9623413E-1,-1.8072274E-1,-1.2231033E-2,-6.127837E-2,6.004123E-2,-1.7050406E-1,1.0403865E-1,1.6097884E-1,-1.7238489E-3,2.1184438E-1,2.8205013E-1,-1.2882638E-1,-6.929259E-2,-1.2012172E-1,1.0414084E-2,-1.9258927E-1,3.605768E-2,-6.450709E-3,4.8389322E-1,1.2600066E-1,-4.2102754E-2,6.9594806E-1,1.5859087E-1,-2.966039E-1,1.3189594E-1,4.1473672E-1,-1.3155985E-2,-2.5155988E-1,4.1063014E-2,1.5443479E-1,5.6559585E-2,2.937404E-1,-2.407738E-1,1.0624328E-1,9.704655E-3,2.742957E-2,2.7500245E-1,-1.2482362E-1,9.3893245E-2,1.953699E-1,2.2835632E-1,-9.1627315E-2,2.8468424E-1,-6.0869258E-2,-3.8547937E-2,7.0143856E-2,-3.3578143E-2,1.1883739E-1,-3.6510486E-2,3.4928065E-2,-1.7377254E-2,-3.4876302E-2,-1.1500696E-1,-4.1239537E-2,6.42488E-2,-4.3753304E-2,2.4332898E-2,2.210614E-1,7.037769E-2,-5.297159E-2,5.316987E-2,-1.6571824E-2,2.4964744E-1,-9.182792E-2,2.444608E-1,-3.3666505E-4,1.47426E-1,-1.0747432E-1,1.4607275E-2,1.0477928E-1,-5.5041753E-2,1.8363564E-1,-8.994997E-2,-5.068319E-2,-3.5836706E-3,1.465039E-1,-9.615579E-2,-4.9896248E-2,6.5260604E-2,7.2748125E-2,-1.1115312E-2,1.668406E-2,7.4484654E-2,1.3410987E-1,2.8089585E-2,3.980109E-2,-9.0132184E-2,3.1519413E-2,1.18951164E-1,-8.049513E-3,1.7361045E-1,-1.1202237E-2,7.2607376E-2,-1.2696804E-2,1.0531798E-1,-1.057232E-2,-1.18977085E-1,1.0842824E-1,2.1380573E-3,5.8850344E-2,-9.224446E-2,6.864414E-2,-1.2083268E-1,1.7940657E-1,8.423936E-2],"categories":[],"categories_nodes":[],"categories_segments":[],"categories_sizes":[],"default_left":[0,0,0,0,0,0,0,0,0,0,0,0,0,0,0,0,0,0,0,0,0,0,0,0,0,0,0,0,0,0,0,0,0,0,0,0,0,0,0,0,0,0,0,0,0,0,0,0,0,0,0,0,0,0,0,0,0,0,0,0,0,0,0,0,0,0,0,0,0,0,0,0,0,0,0,0,0,0,0,0,0,0,0,0,0,0,0,0,0,0,0,0,0,0,0,0,0,0,0,0,0,0,0,0,0,0,0,0,0,0,0,0,0,0,0,0,0,0,0,0,0,0,0,0,0],"id":5,"left_children":[1,3,5,7,9,11,13,15,17,19,21,23,25,27,29,31,33,35,37,39,41,43,45,47,49,51,53,55,57,59,61,63,65,67,69,71,73,75,77,79,81,83,85,87,89,91,93,95,97,99,101,103,105,107,109,111,113,115,117,119,121,-1,123,-1,-1,-1,-1,-1,-1,-1,-1,-1,-1,-1,-1,-1,-1,-1,-1,-1,-1,-1,-1,-1,-1,-1,-1,-1,-1,-1,-1,-1,-1,-1,-1,-1,-1,-1,-1,-1,-1,-1,-1,-1,-1,-1,-1,-1,-1,-1,-1,-1,-1,-1,-1,-1,-1,-1,-1,-1,-1,-1,-1,-1,-1],"loss_changes":[4.7088388E2,8.3047775E1,7.132034E1,2.302002E0,2.051795E0,8.003647E0,5.931961E0,1.4857178E0,1.1482885E0,3.1522665E0,1.804245E0,2.2229824E0,2.0168457E0,2.355065E0,2.4243774E0,6.5625E-1,3.9920893E0,1.8634664E0,2.0425272E0,3.0629528E0,2.5304894E0,2.3576236E0,3.6537666E0,3.0092757E0,2.7867165E0,9.515282E-1,1.4915924E0,2.9314165E0,1.9656136E0,1.1901093E0,9.5973206E-1,3.8024902E-1,2.5073407E0,1.0546837E0,2.1077156E0,1.2514696E0,1.8837562E0,1.8670437E0,3.9474463E-1,2.8680637E0,3.100942E0,1.6793938E0,1.9673666E0,1.0178533E0,1.2980005E0,3.0043993E0,1.7363931E0,2.9117932E0,3.7325282E0,5.101322E0,1.4744129E0,8.0843925E-2,5.746325E-1,2.3574524E0,3.4457254E0,1.2599831E0,2.5248914E0,1.7632488E0,2.1794443E0,9.747238E-1,7.449722E-1,0E0,5.164528E-1,0E0,0E0,0E0,0E0,0E0,0E0,0E0,0E0,0E0,0E0,0E0,0E0,0E0,0E0,0E0,0E0,0E0,0E0,0E0,0E0,0E0,0E0,0E0,0E0,0E0,0E0,0E0,0E0,0E0,0E0,0E0,0E0,0E0,0E0,0E0,0E0,0E0,0E0,0E0,0E0,0E0,0E0,0E0,0E0,0E0,0E0,0E0,0E0,0E0,0E0,0E0,0E0,0E0,0E0,0E0,0E0,0E0,0E0,0E0,0E0,0E0,0E0],"parents":[2147483647,0,0,1,1,2,2,3,3,4,4,5,5,6,6,7,7,8,8,9,9,10,10,11,11,12,12,13,13,14,14,15,15,16,16,17,17,18,18,19,19,20,20,21,21,22,22,23,23,24,24,25,25,26,26,27,27,28,28,29,29,30,30,31,31,32,32,33,33,34,34,35,35,36,36,37,37,38,38,39,39,40,40,41,41,42,42,43,43,44,44,45,45,46,46,47,47,48,48,49,49,50,50,51,51,52,52,53,53,54,54,55,55,56,56,57,57,58,58,59,59,60,60,62,62],"right_children":[2,4,6,8,10,12,14,16,18,20,22,24,26,28,30,32,34,36,38,40,42,44,46,48,50,52,54,56,58,60,62,64,66,68,70,72,74,76,78,80,82,84,86,88,90,92,94,96,98,100,102,104,106,108,110,112,114,116,118,120,122,-1,124,-1,-1,-1,-1,-1,-1,-1,-1,-1,-1,-1,-1,-1,-1,-1,-1,-1,-1,-1,-1,-1,-1,-1,-1,-1,-1,-1,-1,-1,-1,-1,-1,-1,-1,-1,-1,-1,-1,-1,-1,-1,-1,-1,-1,-1,-1,-1,-1,-1,-1,-1,-1,-1,-1,-1,-1,-1,-1,-1,-1,-1,-1],"split_conditions":[2E0,1E-1,6E0,4.4E3,1E0,3E0,1.6E1,1.4E2,1.5E2,3.4E1,1.51E2,8.5E1,1.21E2,2E0,5.88E1,1.7E1,8.5E1,1.3E1,7.3E1,-5.08E2,1.7E1,9.333333E0,2.5499412E-1,8.3E1,2E0,1E0,1.5E1,9E0,2.8E1,3.3E1,-5.4696E4,4.5E1,1.4E1,-3.292E3,1.48E2,7.2E1,1.229771E0,1.5E1,7.7E1,2E-1,8E1,7E0,3E0,1.38E1,5.81E2,3.2E1,1E0,4E0,6E0,2.72E2,8.7E1,-1.5E1,2E0,4.3E1,8.1E1,5.5751175E-1,9.333333E0,5E-1,-1.1692E4,1.9E1,6.1E1,-9.1627315E-2,7.468E3,-6.0869258E-2,-3.8547937E-2,7.0143856E-2,-3.3578143E-2,1.1883739E-1,-3.6510486E-2,3.4928065E-2,-1.7377254E-2,-3.4876302E-2,-1.1500696E-1,-4.1239537E-2,6.42488E-2,-4.3753304E-2,2.4332898E-2,2.210614E-1,7.037769E-2,-5.297159E-2,5.316987E-2,-1.6571824E-2,2.4964744E-1,-9.182792E-2,2.444608E-1,-3.3666505E-4,1.47426E-1,-1.0747432E-1,1.4607275E-2,1.0477928E-1,-5.5041753E-2,1.8363564E-1,-8.994997E-2,-5.068319E-2,-3.5836706E-3,1.465039E-1,-9.615579E-2,-4.9896248E-2,6.5260604E-2,7.2748125E-2,-1.1115312E-2,1.668406E-2,7.4484654E-2,1.3410987E-1,2.8089585E-2,3.980109E-2,-9.0132184E-2,3.1519413E-2,1.18951164E-1,-8.049513E-3,1.7361045E-1,-1.1202237E-2,7.2607376E-2,-1.2696804E-2,1.0531798E-1,-1.057232E-2,-1.18977085E-1,1.0842824E-1,2.1380573E-3,5.8850344E-2,-9.224446E-2,6.864414E-2,-1.2083268E-1,1.7940657E-1,8.423936E-2],"split_indices":[2,16,2,8,18,2,23,6,38,9,39,38,5,32,28,21,4,21,10,0,30,34,40,30,23,26,21,21,26,3,0,10,15,0,36,10,41,45,10,28,10,15,26,16,0,9,23,15,26,6,15,0,46,26,10,40,34,35,0,21,26,0,37,0,0,0,0,0,0,0,0,0,0,0,0,0,0,0,0,0,0,0,0,0,0,0,0,0,0,0,0,0,0,0,0,0,0,0,0,0,0,0,0,0,0,0,0,0,0,0,0,0,0,0,0,0,0,0,0,0,0,0,0,0,0],"split_type":[0,0,0,0,0,0,0,0,0,0,0,0,0,0,0,0,0,0,0,0,0,0,0,0,0,0,0,0,0,0,0,0,0,0,0,0,0,0,0,0,0,0,0,0,0,0,0,0,0,0,0,0,0,0,0,0,0,0,0,0,0,0,0,0,0,0,0,0,0,0,0,0,0,0,0,0,0,0,0,0,0,0,0,0,0,0,0,0,0,0,0,0,0,0,0,0,0,0,0,0,0,0,0,0,0,0,0,0,0,0,0,0,0,0,0,0,0,0,0,0,0,0,0,0,0],"sum_hessian":[4.959E4,2.8272E4,2.1318E4,1.8478E4,9.794E3,1.586E4,5.458E3,1.8172E4,3.06E2,4.94E2,9.3E3,8.658E3,7.202E3,3.57E2,5.101E3,1.665E4,1.522E3,1.47E2,1.59E2,4.47E2,4.7E1,6.3E1,9.237E3,1.53E2,8.505E3,2.6E1,7.176E3,1.92E2,1.65E2,4.538E3,5.63E2,1.6459E4,1.91E2,1.233E3,2.89E2,8.8E1,5.9E1,1.51E2,8E0,1.82E2,2.65E2,1.1E1,3.6E1,4.6E1,1.7E1,1.9E1,9.218E3,5.3E1,1E2,3.01E2,8.204E3,3E0,2.3E1,7.012E3,1.64E2,8.9E1,1.03E2,7.2E1,9.3E1,2.278E3,2.26E3,2E0,5.61E2,7.1E1,1.6388E4,2.3E1,1.68E2,3E0,1.23E3,1.13E2,1.76E2,6.4E1,2.4E1,3E1,2.9E1,5.8E1,9.3E1,3E0,5E0,2.6E1,1.56E2,2.62E2,3E0,1E0,1E1,2.5E1,1.1E1,3.9E1,7E0,1E1,7E0,1.5E1,4E0,7E1,9.148E3,4E0,4.9E1,4.6E1,5.4E1,2.06E2,9.5E1,8.165E3,3.9E1,1E0,2E0,3E0,2E1,6.985E3,2.7E1,1.55E2,9E0,6.9E1,2E1,2E1,8.3E1,5.5E1,1.7E1,2.2E1,7.1E1,2.275E3,3E0,2.259E3,1E0,5E0,5.56E2],"tree_param":{"num_deleted":"0","num_feature":"47","num_nodes":"125","size_leaf_vector":"1"}},{"base_weights":[1.1229097E-4,-5.9442185E-2,7.832372E-2,-8.680744E-2,-7.2567333E-3,5.473182E-2,1.4832953E-1,-8.7418936E-2,7.995276E-2,-8.762108E-3,9.398313E-2,6.944401E-2,3.681208E-2,-3.573618E-2,1.5201966E-1,-8.753586E-2,1.97645E-1,1.7702511E-1,-3.4435526E-1,-8.098952E-3,-2.7150452E-1,1.709827E-2,3.6872897E-1,-7.530094E-2,7.191026E-2,-5.643605E-2,4.1179653E-2,-3.3417985E-1,2.8378043E-2,-2.8597495E-1,1.529022E-1,-8.794146E-2,1.05673224E-1,4.527482E-1,3.450499E-2,-1.23730004E-1,7.088724E-2,-7.097627E-3,-1.5367472E-1,-4.1366813E-1,1.3284545E-1,-9.807554E-2,2.189377E-1,-2.995907E-1,4.7883523E-1,-1.87748E-1,3.9683253E-2,7.058495E-2,3.487296E-1,-4.4665855E-1,-3.86883E-2,4.0208925E-2,4.1057286E-1,-2.014917E-1,-1.2676495E-1,3.1103322E-1,-4.7661763E-2,-1.1769236E-1,-1.6531391E-1,1.5492956E-1,-9.8219E-3,-2.6685625E-2,-8.927487E-3,8.586271E-2,-2.982843E-2,2.2796132E-1,-1.935884E-2,-1.6460199E-2,1.5609059E-1,-2.268724E-3,9.2092074E-2,-1.0078547E-1,-1.7713113E-2,-4.9288634E-2,-2.1145414E-1,-4.751407E-2,1.1725794E-1,-5.5870015E-2,5.942877E-2,2.3958245E-2,1.4443591E-1,3.5469474E-3,-1.533423E-1,3.198763E-1,9.909495E-2,-6.308023E-2,1.2684211E-1,1.7931852E-1,-2.8252585E-3,-1.141205E-1,2.1361658E-2,-7.327626E-2,1.3136199E-1,-1.8629885E-1,-3.3212718E-2,-6.629345E-2,2.5530728E-3,-1.9146125E-1,1.21791E-2,1.7156328E-1,-2.2048743E-3,-7.646381E-2,6.756368E-2,1.7543335E-1,1.8555862E-3,4.4184063E-2,-7.924088E-2,-6.742E-2,1.3659575E-2,4.4857353E-2,5.9817735E-2,-3.780648E-2,6.387007E-2],"categories":[],"categories_nodes":[],"categories_segments":[],"categories_sizes":[],"default_left":[0,0,0,0,0,0,0,0,0,0,0,0,0,0,0,0,0,0,0,0,0,0,0,0,0,0,0,0,0,0,0,0,0,0,0,0,0,0,0,0,0,0,0,0,0,0,0,0,0,0,0,0,0,0,0,0,0,0,0,0,0,0,0,0,0,0,0,0,0,0,0,0,0,0,0,0,0,0,0,0,0,0,0,0,0,0,0,0,0,0,0,0,0,0,0,0,0,0,0,0,0,0,0,0,0,0,0,0,0,0,0,0,0],"id":6,"left_children":[1,3,5,7,9,11,13,15,17,19,21,23,25,27,29,31,-1,33,35,37,39,41,43,45,47,49,51,53,55,57,59,61,63,65,67,-1,-1,69,71,73,75,77,79,81,83,85,87,89,91,93,95,97,99,-1,101,103,105,107,-1,109,111,-1,-1,-1,-1,-1,-1,-1,-1,-1,-1,-1,-1,-1,-1,-1,-1,-1,-1,-1,-1,-1,-1,-1,-1,-1,-1,-1,-1,-1,-1,-1,-1,-1,-1,-1,-1,-1,-1,-1,-1,-1,-1,-1,-1,-1,-1,-1,-1,-1,-1,-1,-1],"loss_changes":[2.3099162E2,4.02052E1,3.539824E1,1.8903656E0,1.4770081E0,4.225151E0,3.6753006E0,1.6632233E0,2.8617826E0,1.6609166E0,2.9932742E0,3.1486053E0,2.947688E0,2.056873E0,2.09124E0,1.4512024E0,0E0,2.184959E0,6.1133444E-1,1.3869176E0,1.4345666E0,2.6250935E0,2.4246264E0,1.9210365E0,3.1517525E0,2.2266047E0,2.4609232E0,1.2447469E0,1.9277054E0,4.2582202E-1,1.7457123E0,1.0770569E0,1.4725542E0,3.067521E0,1.6783859E0,0E0,0E0,1.38296E0,1.101352E0,1.1912141E0,5.878872E-1,1.9168E0,1.4584532E0,3.3544177E-1,2.0033526E0,1.1201031E0,2.0332623E0,2.4389992E0,2.2742438E0,7.512109E-1,2.677667E0,1.8403978E0,1.2176349E0,0E0,6.4361554E-1,1.5819421E0,3.0350993E0,1.5000595E-1,0E0,1.2251587E0,1.7349261E0,0E0,0E0,0E0,0E0,0E0,0E0,0E0,0E0,0E0,0E0,0E0,0E0,0E0,0E0,0E0,0E0,0E0,0E0,0E0,0E0,0E0,0E0,0E0,0E0,0E0,0E0,0E0,0E0,0E0,0E0,0E0,0E0,0E0,0E0,0E0,0E0,0E0,0E0,0E0,0E0,0E0,0E0,0E0,0E0,0E0,0E0,0E0,0E0,0E0,0E0,0E0,0E0],"parents":[2147483647,0,0,1,1,2,2,3,3,4,4,5,5,6,6,7,7,8,8,9,9,10,10,11,11,12,12,13,13,14,14,15,15,17,17,18,18,19,19,20,20,21,21,22,22,23,23,24,24,25,25,26,26,27,27,28,28,29,29,30,30,31,31,32,32,33,33,34,34,37,37,38,38,39,39,40,40,41,41,42,42,43,43,44,44,45,45,46,46,47,47,48,48,49,49,50,50,51,51,52,52,54,54,55,55,56,56,57,57,59,59,60,60],"right_children":[2,4,6,8,10,12,14,16,18,20,22,24,26,28,30,32,-1,34,36,38,40,42,44,46,48,50,52,54,56,58,60,62,64,66,68,-1,-1,70,72,74,76,78,80,82,84,86,88,90,92,94,96,98,100,-1,102,104,106,108,-1,110,112,-1,-1,-1,-1,-1,-1,-1,-1,-1,-1,-1,-1,-1,-1,-1,-1,-1,-1,-1,-1,-1,-1,-1,-1,-1,-1,-1,-1,-1,-1,-1,-1,-1,-1,-1,-1,-1,-1,-1,-1,-1,-1,-1,-1,-1,-1,-1,-1,-1,-1,-1,-1],"split_conditions":[5.7E1,1E0,6E0,3.8E1,2.89E2,1.3E1,3.48E2,8.8E1,8.05E2,4.6E1,2.2E0,7.1E1,1.6E1,4.8E0,8.666667E0,3.396E3,1.97645E-1,1.1072512E0,1.248E3,2.7E1,2.285E3,2.79E2,7.8E1,1.25E1,4.3E1,-5.4696E4,8.9E0,3.82E1,6.22E2,2.85E2,1.1E1,5.902256E-1,2E0,1.99E2,1.9E1,-1.23730004E-1,7.088724E-2,9.49184E5,3.784E3,4.7E2,4.3333335E0,1.6E1,1E0,3.89E2,5E0,2.36E1,3.6E2,-1.83793E5,5.4E0,5.7212E4,6.22E2,4.4E1,1.98E2,-2.014917E-1,5.6E1,3.6E1,2.1E1,1.4E1,-1.6531391E-1,8.9E1,4.6E1,-2.6685625E-2,-8.927487E-3,8.586271E-2,-2.982843E-2,2.2796132E-1,-1.935884E-2,-1.6460199E-2,1.5609059E-1,-2.268724E-3,9.2092074E-2,-1.0078547E-1,-1.7713113E-2,-4.9288634E-2,-2.1145414E-1,-4.751407E-2,1.1725794E-1,-5.5870015E-2,5.942877E-2,2.3958245E-2,1.4443591E-1,3.5469474E-3,-1.533423E-1,3.198763E-1,9.909495E-2,-6.308023E-2,1.2684211E-1,1.7931852E-1,-2.8252585E-3,-1.141205E-1,2.1361658E-2,-7.327626E-2,1.3136199E-1,-1.8629885E-1,-3.3212718E-2,-6.629345E-2,2.5530728E-3,-1.9146125E-1,1.21791E-2,1.7156328E-1,-2.2048743E-3,-7.646381E-2,6.756368E-2,1.7543335E-1,1.8555862E-3,4.4184063E-2,-7.924088E-2,-6.742E-2,1.3659575E-2,4.4857353E-2,5.9817735E-2,-3.780648E-2,6.387007E-2],"split_indices":[30,3,2,9,6,21,39,15,39,30,17,36,45,16,34,0,0,41,5,9,4,38,8,16,26,0,17,28,8,36,2,40,44,36,21,0,0,33,37,8,34,45,25,5,28,28,37,0,28,4,8,10,6,0,10,38,15,21,0,15,3,0,0,0,0,0,0,0,0,0,0,0,0,0,0,0,0,0,0,0,0,0,0,0,0,0,0,0,0,0,0,0,0,0,0,0,0,0,0,0,0,0,0,0,0,0,0,0,0,0,0,0,0],"split_type":[0,0,0,0,0,0,0,0,0,0,0,0,0,0,0,0,0,0,0,0,0,0,0,0,0,0,0,0,0,0,0,0,0,0,0,0,0,0,0,0,0,0,0,0,0,0,0,0,0,0,0,0,0,0,0,0,0,0,0,0,0,0,0,0,0,0,0,0,0,0,0,0,0,0,0,0,0,0,0,0,0,0,0,0,0,0,0,0,0,0,0,0,0,0,0,0,0,0,0,0,0,0,0,0,0,0,0,0,0,0,0,0,0],"sum_hessian":[4.959E4,2.8153E4,2.1437E4,1.8468E4,9.685E3,1.6035E4,5.402E3,1.8401E4,6.7E1,9.544E3,1.41E2,8.804E3,7.231E3,1.06E2,5.296E3,1.8399E4,2E0,5.5E1,1.2E1,9.521E3,2.3E1,1.11E2,3E1,1.47E2,8.657E3,3.23E2,6.908E3,1.8E1,8.8E1,1E1,5.286E3,1.8361E4,3.8E1,1.8E1,3.7E1,1.1E1,1E0,9.457E3,6.4E1,1.7E1,6E0,7.1E1,4E1,4E0,2.6E1,7.4E1,7.3E1,8.617E3,4E1,1.3E1,3.1E2,6.891E3,1.7E1,6E0,1.2E1,1.8E1,7E1,7E0,3E0,5.221E3,6.5E1,1.8047E4,3.14E2,2E1,1.8E1,1.1E1,7E0,3.2E1,5E0,9.444E3,1.3E1,2.1E1,4.3E1,1E1,7E0,3E0,3E0,5.5E1,1.6E1,2.7E1,1.3E1,2E0,2E0,4E0,2.2E1,7.2E1,2E0,5E0,6.8E1,1.1E1,8.606E3,5E0,3.5E1,8E0,5E0,6.3E1,2.47E2,3E0,6.888E3,1.2E1,5E0,9E0,3E0,9E0,9E0,3.7E1,3.3E1,4E0,3E0,4.659E3,5.62E2,4.3E1,2.2E1],"tree_param":{"num_deleted":"0","num_feature":"47","num_nodes":"113","size_leaf_vector":"1"}},{"base_weights":[8.848838E-5,-4.141626E-2,5.513158E-2,-6.0723756E-2,-4.987001E-3,3.828324E-2,1.03006884E-1,-6.112456E-2,1.2101168E-1,-1.2651645E-1,-3.631699E-3,2.7556637E-2,5.133587E-2,-4.569571E-2,1.05966926E-1,-6.0669065E-2,-2.3083709E-1,8.122542E-2,5.978959E-1,-2.5902984E-1,-3.4074364E-3,1.2658036E-1,-5.057892E-3,2.8868396E-2,-1.0832903E-1,-7.3241587E-3,5.392894E-2,-3.060872E-1,2.3940862E-3,-1.3139936E-1,1.07174955E-1,-6.1169907E-2,5.9248365E-2,-4.300934E-1,-1.4693637E-1,1.4669141E-1,-3.9328158E-1,2.4641968E-1,2.2633482E-2,-1.4467819E-1,-4.6698973E-1,2.0384729E-1,-5.39294E-2,2.6722902E-1,-9.948656E-2,-5.4694964E-3,5.5885714E-1,2.6764896E-2,1.0182721E-1,-1.7626123E-1,1.871534E-1,-7.9126775E-2,1.363536E-1,3.7791702E-1,5.2967116E-2,-4.3253317E-1,-2.1807353E-3,3.746037E-2,-3.2905352E-1,1.1900769E-1,-2.562768E-1,1.0830235E-1,-1.21770814E-1,-1.8587617E-2,2.8543475E-3,8.015686E-2,-1.3758484E-2,9.820327E-3,-1.4046408E-1,4.7006074E-2,-5.6935728E-2,-9.153929E-2,5.957553E-2,-5.5041704E-3,-1.4472851E-1,-5.8391634E-2,1.3593428E-1,-1.6800638E-1,-4.1227342E-4,3.0512178E-2,-7.156087E-2,-4.7133867E-2,1.0417161E-1,-1.3078547E-2,-2.378738E-1,-1.9907074E-3,2.9941995E-2,2.6278704E-1,-4.6778373E-2,7.839688E-3,8.656721E-2,4.550999E-2,-2.5790958E-2,-5.9079446E-2,1.8129689E-1,9.4751306E-2,-7.025252E-3,5.472281E-3,-4.374402E-2,-2.0545509E-2,8.324042E-2,5.191502E-2,1.9907586E-1,1.5674388E-2,1.3649859E-1,-1.6546354E-1,-6.647913E-2,1.8119354E-2,-4.7261044E-2,2.2164084E-2,-8.3488315E-2,-1.1941791E-2,-1.657471E-1,1.4329636E-1,-5.9909787E-2,-2.9780822E-2,-1.0843185E-1,3.2623466E-2,-9.2034325E-2,1.01867855E-1,-9.0064324E-2],"categories":[],"categories_nodes":[],"categories_segments":[],"categories_sizes":[],"default_left":[0,0,0,0,0,0,0,0,0,0,0,0,0,0,0,0,0,0,0,0,0,0,0,0,0,0,0,0,0,0,0,0,0,0,0,0,0,0,0,0,0,0,0,0,0,0,0,0,0,0,0,0,0,0,0,0,0,0,0,0,0,0,0,0,0,0,0,0,0,0,0,0,0,0,0,0,0,0,0,0,0,0,0,0,0,0,0,0,0,0,0,0,0,0,0,0,0,0,0,0,0,0,0,0,0,0,0,0,0,0,0,0,0,0,0,0,0,0,0,0,0],"id":7,"left_children":[1,3,5,7,9,11,13,15,17,19,21,23,25,27,29,31,33,35,37,39,41,43,45,47,49,51,53,55,57,59,61,63,65,67,69,71,73,-1,-1,75,77,-1,79,81,83,85,87,89,91,93,95,97,99,101,103,105,107,109,111,113,115,117,119,-1,-1,-1,-1,-1,-1,-1,-1,-1,-1,-1,-1,-1,-1,-1,-1,-1,-1,-1,-1,-1,-1,-1,-1,-1,-1,-1,-1,-1,-1,-1,-1,-1,-1,-1,-1,-1,-1,-1,-1,-1,-1,-1,-1,-1,-1,-1,-1,-1,-1,-1,-1,-1,-1,-1,-1,-1,-1],"loss_changes":[1.13295395E2,1.9885735E1,1.7192375E1,1.3534088E0,1.6128662E0,2.206688E0,2.4473228E0,1.4113998E0,7.2934693E-1,1.7609857E0,1.7997749E0,1.5465875E0,1.0823517E0,1.3656496E0,1.5742683E0,1.1081848E0,7.5597334E-1,1.2691898E0,2.883376E-1,1.1690254E0,2.0032225E0,3.3651667E0,2.2275982E0,1.3135777E0,1.6990281E0,3.1263535E0,2.1027412E0,6.523285E-1,1.0932317E0,9.060641E-1,1.4105988E0,1.0217819E0,1.6952192E0,2.6233006E-1,4.980995E-1,8.8123E-1,1.582697E-1,0E0,0E0,1.1335056E0,7.789345E-1,0E0,1.5757666E0,2.2614002E0,1.5544516E0,1.1765769E0,1.7231927E0,1.3733182E0,2.2608712E0,1.2161818E0,4.4095075E-1,1.3142705E0,2.9384775E0,1.0556498E0,1.9402218E0,1.7902613E-1,6.784665E-2,9.9803984E-1,5.5966467E-1,1.2384198E0,2.7783525E-1,1.0230942E0,2.3246193E0,0E0,0E0,0E0,0E0,0E0,0E0,0E0,0E0,0E0,0E0,0E0,0E0,0E0,0E0,0E0,0E0,0E0,0E0,0E0,0E0,0E0,0E0,0E0,0E0,0E0,0E0,0E0,0E0,0E0,0E0,0E0,0E0,0E0,0E0,0E0,0E0,0E0,0E0,0E0,0E0,0E0,0E0,0E0,0E0,0E0,0E0,0E0,0E0,0E0,0E0,0E0,0E0,0E0,0E0,0E0,0E0,0E0,0E0],"parents":[2147483647,0,0,1,1,2,2,3,3,4,4,5,5,6,6,7,7,8,8,9,9,10,10,11,11,12,12,13,13,14,14,15,15,16,16,17,17,18,18,19,19,20,20,21,21,22,22,23,23,24,24,25,25,26,26,27,27,28,28,29,29,30,30,31,31,32,32,33,33,34,34,35,35,36,36,39,39,40,40,42,42,43,43,44,44,45,45,46,46,47,47,48,48,49,49,50,50,51,51,52,52,53,53,54,54,55,55,56,56,57,57,58,58,59,59,60,60,61,61,62,62],"right_children":[2,4,6,8,10,12,14,16,18,20,22,24,26,28,30,32,34,36,38,40,42,44,46,48,50,52,54,56,58,60,62,64,66,68,70,72,74,-1,-1,76,78,-1,80,82,84,86,88,90,92,94,96,98,100,102,104,106,108,110,112,114,116,118,120,-1,-1,-1,-1,-1,-1,-1,-1,-1,-1,-1,-1,-1,-1,-1,-1,-1,-1,-1,-1,-1,-1,-1,-1,-1,-1,-1,-1,-1,-1,-1,-1,-1,-1,-1,-1,-1,-1,-1,-1,-1,-1,-1,-1,-1,-1,-1,-1,-1,-1,-1,-1,-1,-1,-1,-1,-1,-1],"split_conditions":[2E0,1E-1,5E0,8E0,4.6E1,3E0,6.2E0,2E0,9.043E3,4.764398E-1,-9.174E3,7.496252E-1,1.7E1,1.0895184E0,4.8E1,2.9705E4,3.45E3,7.284E3,-9.99E3,1E0,2E0,2.99E2,7.8E1,3.57E2,3E0,6.611E3,1.04E2,1.5E1,5E0,8E0,1.9E1,3.5E2,4.879E3,7.2E1,4.4E1,1.748E3,-2.1853E4,2.4641968E-1,2.2633482E-2,1.9E1,7E0,2.0384729E-1,5.014E3,1.6666666E0,2.1333334E1,1.7E1,1.2E1,4.6E1,8.4E2,6.8E1,4E0,1.42E2,8E0,2E0,1E0,6E0,-2.05E2,1.9E1,5.57E2,1.2266E4,8.03E2,1.04E2,4.64E2,-1.8587617E-2,2.8543475E-3,8.015686E-2,-1.3758484E-2,9.820327E-3,-1.4046408E-1,4.7006074E-2,-5.6935728E-2,-9.153929E-2,5.957553E-2,-5.5041704E-3,-1.4472851E-1,-5.8391634E-2,1.3593428E-1,-1.6800638E-1,-4.1227342E-4,3.0512178E-2,-7.156087E-2,-4.7133867E-2,1.0417161E-1,-1.3078547E-2,-2.378738E-1,-1.9907074E-3,2.9941995E-2,2.6278704E-1,-4.6778373E-2,7.839688E-3,8.656721E-2,4.550999E-2,-2.5790958E-2,-5.9079446E-2,1.8129689E-1,9.4751306E-2,-7.025252E-3,5.472281E-3,-4.374402E-2,-2.0545509E-2,8.324042E-2,5.191502E-2,1.9907586E-1,1.5674388E-2,1.3649859E-1,-1.6546354E-1,-6.647913E-2,1.8119354E-2,-4.7261044E-2,2.2164084E-2,-8.3488315E-2,-1.1941791E-2,-1.657471E-1,1.4329636E-1,-5.9909787E-2,-2.9780822E-2,-1.0843185E-1,3.2623466E-2,-9.2034325E-2,1.01867855E-1,-9.0064324E-2],"split_indices":[2,16,2,30,10,2,16,3,37,40,0,40,45,41,10,8,37,37,0,25,3,36,10,0,19,37,43,21,19,46,21,6,37,5,10,33,0,0,0,21,3,0,37,34,34,21,21,26,39,26,19,38,46,44,35,46,0,46,5,8,5,10,5,0,0,0,0,0,0,0,0,0,0,0,0,0,0,0,0,0,0,0,0,0,0,0,0,0,0,0,0,0,0,0,0,0,0,0,0,0,0,0,0,0,0,0,0,0,0,0,0,0,0,0,0,0,0,0,0,0,0],"split_type":[0,0,0,0,0,0,0,0,0,0,0,0,0,0,0,0,0,0,0,0,0,0,0,0,0,0,0,0,0,0,0,0,0,0,0,0,0,0,0,0,0,0,0,0,0,0,0,0,0,0,0,0,0,0,0,0,0,0,0,0,0,0,0,0,0,0,0,0,0,0,0,0,0,0,0,0,0,0,0,0,0,0,0,0,0,0,0,0,0,0,0,0,0,0,0,0,0,0,0,0,0,0,0,0,0,0,0,0,0,0,0,0,0,0,0,0,0,0,0,0,0],"sum_hessian":[4.959E4,2.8272E4,2.1318E4,1.8478E4,9.794E3,1.577E4,5.548E3,1.8438E4,4E1,1.07E2,9.687E3,8.658E3,7.112E3,1.08E2,5.44E3,1.839E4,4.8E1,3.8E1,2E0,5.1E1,5.6E1,1.04E2,9.583E3,8.576E3,8.2E1,3.01E2,6.811E3,1.6E1,9.2E1,2.7E1,5.413E3,1.8314E4,7.6E1,1.3E1,3.5E1,3.4E1,4E0,1E0,1E0,3.4E1,1.7E1,3E0,5.3E1,6.4E1,4E1,9.577E3,6E0,8.337E3,2.39E2,6.7E1,1.5E1,2.01E2,1E2,1.9E1,6.792E3,1.1E1,5E0,8.4E1,8E0,9E0,1.8E1,5.387E3,2.6E1,1.8112E4,2.02E2,2.5E1,5.1E1,1E0,1.2E1,4E0,3.1E1,3E0,3.1E1,1E0,3E0,3.2E1,2E0,1.4E1,3E0,2.9E1,2.4E1,1E1,5.4E1,3.8E1,2E0,9.473E3,1.04E2,4E0,2E0,8.318E3,1.9E1,1.89E2,5E1,6.6E1,1E0,9E0,6E0,8.2E1,1.19E2,4.1E1,5.9E1,1.2E1,7E0,6.781E3,1.1E1,6E0,5E0,4E0,1E0,7.6E1,8E0,4E0,4E0,4E0,5E0,8E0,1E1,5.382E3,5E0,7E0,1.9E1],"tree_param":{"num_deleted":"0","num_feature":"47","num_nodes":"121","size_leaf_vector":"1"}},{"base_weights":[6.7361354E-5,-2.8987166E-2,3.8599122E-2,-4.2568706E-2,-3.4534617E-3,2.6845949E-2,7.199626E-2,-4.2723797E-2,2.4778223E-1,-3.8315346E-3,3.058144E-1,-3.6218807E-2,2.8083654E-2,5.5842854E-2,8.7429374E-2,-4.2853408E-2,2.6136854E-1,5.7663023E-2,2.0165183E-1,-3.2857172E-3,-2.01417E-1,5.179664E-1,-2.4798116E-1,3.569527E-2,-1.38095E-1,-3.1128913E-1,2.8521184E-2,5.93036E-2,-1.6573855E-1,8.651935E-2,1.5067124E-1,-4.2491484E-2,-1.67612E-1,1.5158044E-1,1.3975183E-2,2.5591603E-1,-1.0741919E-1,-3.6885368E-3,3.2495037E-1,-2.5966385E-1,1.0533369E-1,-2.7915636E-2,6.779206E-1,-1.12900846E-1,2.0562567E-2,-1.4651252E-1,1.1984282E-1,-3.5079148E-1,-5.8850106E-2,-4.5749015E-1,-8.176676E-2,7.6797694E-2,2.7080929E-2,6.087482E-2,-2.0542191E-1,2.199212E-1,-3.096798E-1,8.774153E-2,-1.8516117E-1,-1.2778481E-2,8.4463514E-2,-7.258811E-2,5.2884597E-2,7.698454E-2,-6.999695E-2,1.2912394E-1,1.8319257E-2,-1.5947183E-3,1.9703902E-2,3.672647E-2,2.0982078E-1,-3.5863217E-2,-1.6274263E-1,1.3954211E-2,-2.6516248E-2,2.2696193E-1,3.0930905E-2,-1.1921509E-1,-1.900802E-2,7.1591124E-2,-1.5763754E-2,-1.565262E-1,-3.7754714E-2,1.7160144E-1,-3.0358257E-2,9.961528E-3,-1.5153523E-1,-3.2154687E-2,1.8233605E-2,4.5733643E-3,5.745608E-2,5.5907015E-3,1.1160932E-2,1.8539907E-2,-1.07465E-1,-1.2973265E-1,5.7595572E-3,3.1883974E-2,1.5762554E-1,-1.4305575E-1,-1.2458673E-2,-1.2280355E-1,2.6418958E-2,-2.3963354E-3,-1.4011233E-1],"categories":[],"categories_nodes":[],"categories_segments":[],"categories_sizes":[],"default_left":[0,0,0,0,0,0,0,0,0,0,0,0,0,0,0,0,0,0,0,0,0,0,0,0,0,0,0,0,0,0,0,0,0,0,0,0,0,0,0,0,0,0,0,0,0,0,0,0,0,0,0,0,0,0,0,0,0,0,0,0,0,0,0,0,0,0,0,0,0,0,0,0,0,0,0,0,0,0,0,0,0,0,0,0,0,0,0,0,0,0,0,0,0,0,0,0,0,0,0,0,0,0,0,0,0],"id":8,"left_children":[1,3,5,7,9,11,13,15,17,19,21,23,25,27,29,31,33,35,-1,37,39,41,43,45,47,49,51,53,55,57,-1,59,61,-1,63,65,-1,67,69,71,-1,73,75,-1,-1,77,79,81,83,85,87,89,91,93,95,97,99,101,103,-1,-1,-1,-1,-1,-1,-1,-1,-1,-1,-1,-1,-1,-1,-1,-1,-1,-1,-1,-1,-1,-1,-1,-1,-1,-1,-1,-1,-1,-1,-1,-1,-1,-1,-1,-1,-1,-1,-1,-1,-1,-1,-1,-1,-1,-1],"loss_changes":[5.5519337E1,9.8045635E0,8.366251E0,8.416672E-1,1.1491492E0,1.2320318E0,1.3784676E0,7.382622E-1,7.680883E-1,1.0569797E0,1.5383118E0,2.2321346E0,2.3056479E0,2.0910254E0,1.0270958E0,8.255043E-1,4.7565186E-1,7.5098735E-1,0E0,1.2944417E0,9.6011436E-1,8.0477E-1,1.8830404E-1,2.7620473E0,2.1030996E0,6.3372076E-1,1.0720949E0,1.1243181E0,2.3996236E0,9.5625687E-1,0E0,6.2838745E-1,1.3977547E0,0E0,3.598965E-1,1.777237E-1,0E0,1.1031408E0,8.244264E-1,9.258379E-1,0E0,1.7613959E-2,2.3833966E-1,0E0,0E0,1.163873E0,2.531429E0,1.2418666E0,2.5421898E0,2.9721808E-1,3.9120186E-2,3.1535866E0,1.2818279E0,1.0523901E0,8.241964E-1,3.607638E-1,1.3698494E0,4.8678398E-1,6.4551026E-1,0E0,0E0,0E0,0E0,0E0,0E0,0E0,0E0,0E0,0E0,0E0,0E0,0E0,0E0,0E0,0E0,0E0,0E0,0E0,0E0,0E0,0E0,0E0,0E0,0E0,0E0,0E0,0E0,0E0,0E0,0E0,0E0,0E0,0E0,0E0,0E0,0E0,0E0,0E0,0E0,0E0,0E0,0E0,0E0,0E0,0E0],"parents":[2147483647,0,0,1,1,2,2,3,3,4,4,5,5,6,6,7,7,8,8,9,9,10,10,11,11,12,12,13,13,14,14,15,15,16,16,17,17,19,19,20,20,21,21,22,22,23,23,24,24,25,25,26,26,27,27,28,28,29,29,31,31,32,32,34,34,35,35,37,37,38,38,39,39,41,41,42,42,45,45,46,46,47,47,48,48,49,49,50,50,51,51,52,52,53,53,54,54,55,55,56,56,57,57,58,58],"right_children":[2,4,6,8,10,12,14,16,18,20,22,24,26,28,30,32,34,36,-1,38,40,42,44,46,48,50,52,54,56,58,-1,60,62,-1,64,66,-1,68,70,72,-1,74,76,-1,-1,78,80,82,84,86,88,90,92,94,96,98,100,102,104,-1,-1,-1,-1,-1,-1,-1,-1,-1,-1,-1,-1,-1,-1,-1,-1,-1,-1,-1,-1,-1,-1,-1,-1,-1,-1,-1,-1,-1,-1,-1,-1,-1,-1,-1,-1,-1,-1,-1,-1,-1,-1,-1,-1,-1,-1],"split_conditions":[2E0,1E0,5E0,3.1E0,1.87463E5,5E0,4.62E2,1.9666666E1,3.02E2,6.1E0,1.1E1,3E0,4.4E1,3E0,1.4E1,1E-1,1.6E1,2.31E2,2.0165183E-1,5.4E0,3E0,1.4E1,3.05129E5,3.8E1,1E0,4.6E1,2E0,1.81E1,2.901E3,1.13E1,1.5067124E-1,1E0,1.51E3,1.5158044E-1,1.3E1,-7.865E3,-1.0741919E-1,5.7511735E-1,2.41E2,2E0,1.0533369E-1,2.28454E5,1.98E2,-1.12900846E-1,2.0562567E-2,7.8E0,2E0,-2.37E2,1.2E1,5.6E1,5.125E3,5.7E1,3E0,1.04E2,2.03E1,6.3991326E-1,1E1,2.16E2,3E0,-1.2778481E-2,8.4463514E-2,-7.258811E-2,5.2884597E-2,7.698454E-2,-6.999695E-2,1.2912394E-1,1.8319257E-2,-1.5947183E-3,1.9703902E-2,3.672647E-2,2.0982078E-1,-3.5863217E-2,-1.6274263E-1,1.3954211E-2,-2.6516248E-2,2.2696193E-1,3.0930905E-2,-1.1921509E-1,-1.900802E-2,7.1591124E-2,-1.5763754E-2,-1.565262E-1,-3.7754714E-2,1.7160144E-1,-3.0358257E-2,9.961528E-3,-1.5153523E-1,-3.2154687E-2,1.8233605E-2,4.5733643E-3,5.745608E-2,5.5907015E-3,1.1160932E-2,1.8539907E-2,-1.07465E-1,-1.2973265E-1,5.7595572E-3,3.1883974E-2,1.5762554E-1,-1.4305575E-1,-1.2458673E-2,-1.2280355E-1,2.6418958E-2,-2.3963354E-3,-1.4011233E-1],"split_indices":[2,2,2,17,4,46,36,34,36,17,46,46,10,25,2,16,45,36,0,17,29,15,0,15,19,15,23,17,37,17,0,25,5,0,46,0,0,40,36,29,0,0,6,0,0,28,19,0,45,5,37,10,2,10,17,40,21,39,29,0,0,0,0,0,0,0,0,0,0,0,0,0,0,0,0,0,0,0,0,0,0,0,0,0,0,0,0,0,0,0,0,0,0,0,0,0,0,0,0,0,0,0,0,0,0],"split_type":[0,0,0,0,0,0,0,0,0,0,0,0,0,0,0,0,0,0,0,0,0,0,0,0,0,0,0,0,0,0,0,0,0,0,0,0,0,0,0,0,0,0,0,0,0,0,0,0,0,0,0,0,0,0,0,0,0,0,0,0,0,0,0,0,0,0,0,0,0,0,0,0,0,0,0,0,0,0,0,0,0,0,0,0,0,0,0,0,0,0,0,0,0,0,0,0,0,0,0,0,0,0,0,0,0],"sum_hessian":[4.959E4,2.8272E4,2.1318E4,1.8455E4,9.817E3,1.577E4,5.548E3,1.8446E4,9E0,9.806E3,1.1E1,3.03E2,1.5467E4,2.713E3,2.835E3,1.8439E4,7E0,7E0,2E0,9.78E3,2.6E1,8E0,3E0,1.78E2,1.25E2,1.9E1,1.5448E4,2.672E3,4.1E1,2.83E3,5E0,1.8387E4,5.2E1,3E0,4E0,5E0,2E0,9.769E3,1.1E1,2.4E1,2E0,2E0,6E0,2E0,1E0,5.6E1,1.22E2,3.3E1,9.2E1,1.1E1,8E0,4.46E2,1.5002E4,2.657E3,1.5E1,1.1E1,3E1,2.818E3,1.2E1,1.8382E4,5E0,4.3E1,9E0,2E0,2E0,2E0,3E0,9.546E3,2.23E2,8E0,3E0,1.7E1,7E0,1E0,1E0,5E0,1E0,1.3E1,4.3E1,7.2E1,5E1,1.8E1,1.5E1,5E0,8.7E1,1E0,1E1,7E0,1E0,2.91E2,1.55E2,8.18E3,6.822E3,2.652E3,5E0,7E0,8E0,9E0,2E0,1.8E1,1.2E1,1E0,2.817E3,8E0,4E0],"tree_param":{"num_deleted":"0","num_feature":"47","num_nodes":"105","size_leaf_vector":"1"}},{"base_weights":[5.3146883E-5,-2.0263547E-2,2.69969E-2,-3.144748E-2,-4.2116847E-3,1.8778708E-2,5.034923E-2,-3.184079E-2,8.789536E-2,-4.562755E-2,1.1232265E-3,1.9111851E-2,-1.7618856E-1,-4.8545264E-2,5.232114E-2,-3.1909015E-2,1.6518831E-1,1.7415628E-1,-8.189421E-2,-3.6496308E-2,-1.471605E-1,-2.334229E-3,6.5675676E-2,2.674237E-1,1.884226E-2,1.7210054E-1,-2.9382354E-1,-1.2761986E-1,7.5792946E-2,3.4947586E-1,5.1764462E-2,-3.1502236E-2,-1.6598815E-1,7.131242E-2,4.8555437E-1,-2.3887543E-1,-3.325886E-2,-1.2138752E-1,-3.9017424E-1,-1.6041681E-3,-1.7130513E-1,-4.163741E-3,1.11805074E-1,4.0539068E-1,-1.5346576E-1,-1.5539075E-1,1.9196229E-2,-3.5210496E-1,2.3151465E-1,-2.251387E-2,-2.8249857E-1,1.8576156E-1,-1.6526785E-1,2.2356331E-2,2.0163725E-1,-1.3306588E-1,5.267801E-2,-9.498125E-3,1.230502E-1,-5.6873117E-2,4.580349E-2,-6.2284943E-2,4.8494257E-2,5.0049588E-2,2.5039646E-1,-8.202788E-2,1.0961299E-2,2.9069616E-2,-1.1773236E-2,1.6539877E-2,-4.6700045E-2,-5.6370568E-2,-1.6645989E-1,3.4665614E-2,-8.095054E-4,-2.358191E-2,-1.5073997E-1,-6.9101066E-3,1.6309786E-1,4.240116E-2,-4.899197E-2,1.8442598E-1,4.3606296E-2,-1.09802894E-1,-8.291271E-3,-2.8144585E-2,5.919067E-3,4.9700603E-2,-1.1539495E-1,9.725719E-2,6.924409E-3,5.4127865E-2,-3.0881833E-2,-3.099527E-2,-1.1976846E-1,7.665668E-2,-6.424394E-2,-9.9898E-2,6.0971003E-2,4.541223E-2,-4.713584E-2,2.1878554E-2,-6.7091614E-2,7.880976E-2,1.5543062E-2],"categories":[],"categories_nodes":[],"categories_segments":[],"categories_sizes":[],"default_left":[0,0,0,0,0,0,0,0,0,0,0,0,0,0,0,0,0,0,0,0,0,0,0,0,0,0,0,0,0,0,0,0,0,0,0,0,0,0,0,0,0,0,0,0,0,0,0,0,0,0,0,0,0,0,0,0,0,0,0,0,0,0,0,0,0,0,0,0,0,0,0,0,0,0,0,0,0,0,0,0,0,0,0,0,0,0,0,0,0,0,0,0,0,0,0,0,0,0,0,0,0,0,0,0,0],"id":9,"left_children":[1,3,5,7,9,11,13,15,17,19,21,23,25,27,29,31,-1,33,-1,35,37,39,41,43,45,-1,47,49,51,53,55,57,59,61,63,65,67,69,71,73,75,77,79,81,-1,83,85,87,89,91,93,95,97,99,-1,101,103,-1,-1,-1,-1,-1,-1,-1,-1,-1,-1,-1,-1,-1,-1,-1,-1,-1,-1,-1,-1,-1,-1,-1,-1,-1,-1,-1,-1,-1,-1,-1,-1,-1,-1,-1,-1,-1,-1,-1,-1,-1,-1,-1,-1,-1,-1,-1,-1],"loss_changes":[2.7147058E1,5.0755205E0,4.0904675E0,7.849312E-1,2.5655012E0,1.0277257E0,1.0846558E0,6.7760086E-1,1.7596638E0,1.2230654E0,2.29608E0,1.0489769E0,2.5502117E0,1.08136E0,8.8195515E-1,9.0058327E-1,0E0,1.4065163E0,0E0,7.894237E-1,6.3532543E-1,1.2043264E0,1.6853888E0,2.03442E0,9.730401E-1,0E0,8.163364E-1,1.0843112E0,1.1705925E0,1.0404193E0,9.2421246E-1,1.1698551E0,4.0479362E-1,9.1545796E-1,1.0846803E0,1.9078958E-1,9.3785596E-1,6.136818E-1,2.2886598E-1,1.2468346E0,1.2498298E0,2.173038E0,2.5823402E0,7.2727084E-1,0E0,8.509158E-1,9.4918585E-1,4.344437E-1,5.0467506E-2,6.877574E-1,5.234773E-1,8.916552E-1,9.329828E-1,1.6271722E-1,0E0,5.2006197E-1,9.716768E-1,0E0,0E0,0E0,0E0,0E0,0E0,0E0,0E0,0E0,0E0,0E0,0E0,0E0,0E0,0E0,0E0,0E0,0E0,0E0,0E0,0E0,0E0,0E0,0E0,0E0,0E0,0E0,0E0,0E0,0E0,0E0,0E0,0E0,0E0,0E0,0E0,0E0,0E0,0E0,0E0,0E0,0E0,0E0,0E0,0E0,0E0,0E0,0E0],"parents":[2147483647,0,0,1,1,2,2,3,3,4,4,5,5,6,6,7,7,8,8,9,9,10,10,11,11,12,12,13,13,14,14,15,15,17,17,19,19,20,20,21,21,22,22,23,23,24,24,26,26,27,27,28,28,29,29,30,30,31,31,32,32,33,33,34,34,35,35,36,36,37,37,38,38,39,39,40,40,41,41,42,42,43,43,45,45,46,46,47,47,48,48,49,49,50,50,51,51,52,52,53,53,55,55,56,56],"right_children":[2,4,6,8,10,12,14,16,18,20,22,24,26,28,30,32,-1,34,-1,36,38,40,42,44,46,-1,48,50,52,54,56,58,60,62,64,66,68,70,72,74,76,78,80,82,-1,84,86,88,90,92,94,96,98,100,-1,102,104,-1,-1,-1,-1,-1,-1,-1,-1,-1,-1,-1,-1,-1,-1,-1,-1,-1,-1,-1,-1,-1,-1,-1,-1,-1,-1,-1,-1,-1,-1,-1,-1,-1,-1,-1,-1,-1,-1,-1,-1,-1,-1,-1,-1,-1,-1,-1,-1],"split_conditions":[2E0,3.3333334E-1,5E0,3.8E1,4.6E1,3.8E1,6.2E0,8.3E1,8.05E2,1.047E3,2.2E1,5E-1,6.6E1,7.511E3,1.5E1,1.97713E5,1.6518831E-1,4E0,-8.189421E-2,1.0895184E0,1.2333333E1,1.98E2,3E0,3.84E2,5E0,1.7210054E-1,1.722E3,1.98E2,5.7212E4,6.6E0,4.8E1,9.5818E4,1.388E3,-2.2E1,8E0,1.9E1,2.72E2,4E0,1.2E0,3.6E1,2E0,1.661E3,3.62E2,1.59E2,-1.5346576E-1,-1.1692E4,8.63E2,2.017E3,1.54E2,2E0,2.901E3,1.6E1,5.017E3,4.221E3,2.0163725E-1,5.49E2,1.03E1,-9.498125E-3,1.230502E-1,-5.6873117E-2,4.580349E-2,-6.2284943E-2,4.8494257E-2,5.0049588E-2,2.5039646E-1,-8.202788E-2,1.0961299E-2,2.9069616E-2,-1.1773236E-2,1.6539877E-2,-4.6700045E-2,-5.6370568E-2,-1.6645989E-1,3.4665614E-2,-8.095054E-4,-2.358191E-2,-1.5073997E-1,-6.9101066E-3,1.6309786E-1,4.240116E-2,-4.899197E-2,1.8442598E-1,4.3606296E-2,-1.09802894E-1,-8.291271E-3,-2.8144585E-2,5.919067E-3,4.9700603E-2,-1.1539495E-1,9.725719E-2,6.924409E-3,5.4127865E-2,-3.0881833E-2,-3.099527E-2,-1.1976846E-1,7.665668E-2,-6.424394E-2,-9.9898E-2,6.0971003E-2,4.541223E-2,-4.713584E-2,2.1878554E-2,-6.7091614E-2,7.880976E-2,1.5543062E-2],"split_indices":[2,34,2,9,10,9,16,10,39,5,9,16,30,4,3,33,0,23,0,41,34,6,34,38,38,0,5,6,4,28,10,33,5,0,21,45,36,46,16,38,25,0,6,43,0,0,37,33,0,19,37,21,37,4,0,5,16,0,0,0,0,0,0,0,0,0,0,0,0,0,0,0,0,0,0,0,0,0,0,0,0,0,0,0,0,0,0,0,0,0,0,0,0,0,0,0,0,0,0,0,0,0,0,0,0],"split_type":[0,0,0,0,0,0,0,0,0,0,0,0,0,0,0,0,0,0,0,0,0,0,0,0,0,0,0,0,0,0,0,0,0,0,0,0,0,0,0,0,0,0,0,0,0,0,0,0,0,0,0,0,0,0,0,0,0,0,0,0,0,0,0,0,0,0,0,0,0,0,0,0,0,0,0,0,0,0,0,0,0,0,0,0,0,0,0,0,0,0,0,0,0,0,0,0,0,0,0,0,0,0,0,0,0],"sum_hessian":[4.959E4,2.8272E4,2.1318E4,1.6662E4,1.161E4,1.577E4,5.548E3,1.6608E4,5.4E1,1.324E3,1.0286E4,1.5744E4,2.6E1,1.08E2,5.44E3,1.6607E4,1E0,4.4E1,1E1,1.216E3,1.08E2,9.764E3,5.22E2,1.6E1,1.5728E4,3E0,2.3E1,6.6E1,4.2E1,9E0,5.431E3,1.6558E4,4.9E1,3.4E1,1E1,1.8E1,1.198E3,9.9E1,9E0,9.723E3,4.1E1,2.08E2,3.14E2,1.4E1,2E0,3.1E1,1.5697E4,2.1E1,2E0,4E1,2.6E1,2.9E1,1.3E1,5E0,4E0,2.6E1,5.405E3,1.6553E4,5E0,4.6E1,3E0,8E0,2.6E1,6E0,4E0,1.6E1,2E0,5.2E1,1.146E3,1.6E1,8.3E1,5E0,4E0,8.9E1,9.634E3,3.3E1,8E0,2.02E2,6E0,2.84E2,3E1,7E0,7E0,1.1E1,2E1,7.3E1,1.5624E4,1E0,2E1,1E0,1E0,1.1E1,2.9E1,1.1E1,1.5E1,2.5E1,4E0,9E0,4E0,3E0,2E0,8E0,1.8E1,2.1E1,5.384E3],"tree_param":{"num_deleted":"0","num_feature":"47","num_nodes":"105","size_leaf_vector":"1"}},{"base_weights":[4.5554283E-5,-1.4178305E-2,1.8909063E-2,-2.1984886E-2,-2.9738243E-3,1.3154249E-2,3.5261605E-2,-2.2500355E-2,4.751398E-2,-3.2170802E-2,7.871331E-4,1.2873647E-2,1.6502848E-1,-8.8537455E-2,3.631254E-2,-2.255831E-2,1.4041007E-1,4.8536798E-1,1.2833983E-2,3.346666E-1,-3.381387E-2,-1.6483584E-3,4.6259005E-2,-2.9232936E-2,1.410322E-2,4.982296E-2,3.789367E-1,1.3427782E-1,-2.1927539E-1,2.0054057E-1,3.5496313E-2,-2.2649525E-2,2.836225E-1,2.4380311E-3,2.1792799E-1,-5.744906E-2,1.1574241E-1,-3.5785694E-2,1.7743926E-1,-2.8483598E-2,-1.8420532E-1,-2.150207E-3,2.5588676E-1,3.7452843E-2,3.419974E-1,-1.2635066E-1,1.1865129E-2,-4.3955624E-1,1.439904E-2,1.1326347E-1,-5.9495747E-2,2.1702385E-2,6.1347586E-1,-1.2980197E-1,4.8060283E-1,-2.5605133E-1,1.2708403E-1,5.7719328E-2,2.4522306E-1,-1.211923E-1,3.6294807E-2,-6.7596175E-3,-7.8756526E-2,1.7293204E-2,1.2451805E-1,-1.9418817E-2,3.0591043E-2,-2.1947911E-2,9.3771495E-2,2.1732124E-2,1.6893864E-1,-8.872462E-3,1.3333192E-1,-7.7260084E-2,4.831605E-3,-5.4808275E-4,-1.0551589E-1,1.5432277E-1,6.3317753E-3,-3.3583527E-4,2.8538309E-2,1.5602386E-1,-8.3324455E-2,-1.8817192E-2,-1.02813445E-1,-2.2189109E-2,1.9518653E-2,-1.9493921E-1,1.1476417E-2,4.229631E-3,6.960741E-2,1.5549108E-2,7.155912E-2,2.2468402E-3,-3.8506E-2,-4.8534395E-3,1.0565114E-2,3.829887E-2,2.0553176E-1,-8.705139E-2,1.18372E-1,1.6533026E-1,-1.9324959E-3,-9.1540664E-2,3.8102724E-2,4.7753114E-2,-1.0180916E-1,-9.411998E-2,-4.042924E-3,-1.6075952E-2,1.1293141E-2],"categories":[],"categories_nodes":[],"categories_segments":[],"categories_sizes":[],"default_left":[0,0,0,0,0,0,0,0,0,0,0,0,0,0,0,0,0,0,0,0,0,0,0,0,0,0,0,0,0,0,0,0,0,0,0,0,0,0,0,0,0,0,0,0,0,0,0,0,0,0,0,0,0,0,0,0,0,0,0,0,0,0,0,0,0,0,0,0,0,0,0,0,0,0,0,0,0,0,0,0,0,0,0,0,0,0,0,0,0,0,0,0,0,0,0,0,0,0,0,0,0,0,0,0,0,0,0,0,0,0,0],"id":10,"left_children":[1,3,5,7,9,11,13,15,17,19,21,23,25,27,29,31,-1,33,35,37,39,41,43,45,47,49,51,53,55,57,59,61,63,65,-1,67,69,-1,-1,71,73,75,77,79,81,83,85,87,89,91,93,95,97,99,101,103,-1,105,-1,107,109,-1,-1,-1,-1,-1,-1,-1,-1,-1,-1,-1,-1,-1,-1,-1,-1,-1,-1,-1,-1,-1,-1,-1,-1,-1,-1,-1,-1,-1,-1,-1,-1,-1,-1,-1,-1,-1,-1,-1,-1,-1,-1,-1,-1,-1,-1,-1,-1,-1,-1],"loss_changes":[1.3306124E1,2.4729357E0,2.0057788E0,5.980139E-1,1.2750129E0,6.6997457E-1,7.251663E-1,4.807949E-1,1.8614982E0,8.0994654E-1,1.1393241E0,8.1547594E-1,6.9577897E-1,1.398573E0,7.305422E-1,4.683628E-1,0E0,1.045959E0,8.384118E-1,7.6999605E-1,1.0529016E0,1.2626146E0,1.3492503E0,1.7856327E0,2.059208E0,1.454434E-1,8.2454026E-1,1.7086172E0,8.177519E-1,2.3315754E0,6.896529E-1,4.6002388E-1,1.24584675E-1,3.334172E-2,0E0,4.239828E-1,8.697247E-1,0E0,0E0,6.716753E-1,6.651275E-1,1.100802E0,1.1423695E0,1.132454E0,1.799935E0,1.8094244E0,1.4430517E0,1.0294129E0,9.9574876E-1,8.767888E-2,3.786082E-2,3.1294578E-3,1.2133026E-1,1.0395248E0,2.782352E-1,5.8401954E-1,0E0,9.8062336E-1,0E0,5.764841E-1,6.628251E-1,0E0,0E0,0E0,0E0,0E0,0E0,0E0,0E0,0E0,0E0,0E0,0E0,0E0,0E0,0E0,0E0,0E0,0E0,0E0,0E0,0E0,0E0,0E0,0E0,0E0,0E0,0E0,0E0,0E0,0E0,0E0,0E0,0E0,0E0,0E0,0E0,0E0,0E0,0E0,0E0,0E0,0E0,0E0,0E0,0E0,0E0,0E0,0E0,0E0,0E0],"parents":[2147483647,0,0,1,1,2,2,3,3,4,4,5,5,6,6,7,7,8,8,9,9,10,10,11,11,12,12,13,13,14,14,15,15,17,17,18,18,19,19,20,20,21,21,22,22,23,23,24,24,25,25,26,26,27,27,28,28,29,29,30,30,31,31,32,32,33,33,35,35,36,36,39,39,40,40,41,41,42,42,43,43,44,44,45,45,46,46,47,47,48,48,49,49,50,50,51,51,52,52,53,53,54,54,55,55,57,57,59,59,60,60],"right_children":[2,4,6,8,10,12,14,16,18,20,22,24,26,28,30,32,-1,34,36,38,40,42,44,46,48,50,52,54,56,58,60,62,64,66,-1,68,70,-1,-1,72,74,76,78,80,82,84,86,88,90,92,94,96,98,100,102,104,-1,106,-1,108,110,-1,-1,-1,-1,-1,-1,-1,-1,-1,-1,-1,-1,-1,-1,-1,-1,-1,-1,-1,-1,-1,-1,-1,-1,-1,-1,-1,-1,-1,-1,-1,-1,-1,-1,-1,-1,-1,-1,-1,-1,-1,-1,-1,-1,-1,-1,-1,-1,-1,-1],"split_conditions":[2E0,3.3333334E-1,5E0,1E0,4.6E1,1.13E3,4.8E0,8.3E1,1.3E1,1E0,2.2E1,1.2E1,9E1,1.5E1,5.5E0,1E0,1.4041007E-1,7.1E1,1E0,-8.561E3,1E0,8.8E1,1.6E1,7.5E1,2.3E1,7.9E1,3.8E2,5.547619E-1,8.9E1,1.5978E4,1.8E0,1.9E1,7.1E1,7.14E2,2.1792799E-1,1.661E3,1.9E1,-3.5785694E-2,1.7743926E-1,4.0846E4,8.4E1,4.11E1,7.6666665E0,3.3677E4,3.5E2,1.5E1,4.5E-1,3E0,1E0,1.0456E4,3.8E2,6E0,6E0,1.9E1,3.16E2,6.8E1,1.2708403E-1,3.8E2,2.4522306E-1,3.5154E4,1.4E1,-6.7596175E-3,-7.8756526E-2,1.7293204E-2,1.2451805E-1,-1.9418817E-2,3.0591043E-2,-2.1947911E-2,9.3771495E-2,2.1732124E-2,1.6893864E-1,-8.872462E-3,1.3333192E-1,-7.7260084E-2,4.831605E-3,-5.4808275E-4,-1.0551589E-1,1.5432277E-1,6.3317753E-3,-3.3583527E-4,2.8538309E-2,1.5602386E-1,-8.3324455E-2,-1.8817192E-2,-1.02813445E-1,-2.2189109E-2,1.9518653E-2,-1.9493921E-1,1.1476417E-2,4.229631E-3,6.960741E-2,1.5549108E-2,7.155912E-2,2.2468402E-3,-3.8506E-2,-4.8534395E-3,1.0565114E-2,3.829887E-2,2.0553176E-1,-8.705139E-2,1.18372E-1,1.6533026E-1,-1.9324959E-3,-9.1540664E-2,3.8102724E-2,4.7753114E-2,-1.0180916E-1,-9.411998E-2,-4.042924E-3,-1.6075952E-2,1.1293141E-2],"split_indices":[2,34,2,0,10,38,17,10,15,46,9,9,30,45,17,25,0,6,18,0,25,15,23,30,4,30,36,40,15,8,16,30,6,0,0,0,46,0,0,0,30,16,34,33,6,21,40,29,35,37,36,3,3,26,36,10,0,36,0,33,45,0,0,0,0,0,0,0,0,0,0,0,0,0,0,0,0,0,0,0,0,0,0,0,0,0,0,0,0,0,0,0,0,0,0,0,0,0,0,0,0,0,0,0,0,0,0,0,0,0,0],"split_type":[0,0,0,0,0,0,0,0,0,0,0,0,0,0,0,0,0,0,0,0,0,0,0,0,0,0,0,0,0,0,0,0,0,0,0,0,0,0,0,0,0,0,0,0,0,0,0,0,0,0,0,0,0,0,0,0,0,0,0,0,0,0,0,0,0,0,0,0,0,0,0,0,0,0,0,0,0,0,0,0,0,0,0,0,0,0,0,0,0,0,0,0,0,0,0,0,0,0,0,0,0,0,0,0,0,0,0,0,0,0,0],"sum_hessian":[4.959E4,2.8272E4,2.1318E4,1.6662E4,1.161E4,1.577E4,5.548E3,1.654E4,1.22E2,1.324E3,1.0286E4,1.5742E4,2.8E1,4.6E1,5.502E3,1.6539E4,1E0,8E0,1.14E2,5E0,1.319E3,9.764E3,5.22E2,4.46E2,1.5296E4,1.9E1,9E0,1.7E1,2.9E1,2.6E1,5.476E3,1.6535E4,4E0,3E0,5E0,6.8E1,4.6E1,2E0,3E0,1.275E3,4.4E1,9.746E3,1.8E1,5.08E2,1.4E1,1.32E2,3.14E2,9E0,1.5287E4,1.2E1,7E0,4E0,5E0,1E1,7E0,2.8E1,1E0,2.2E1,4E0,2.7E1,5.449E3,1.6528E4,7E0,2E0,2E0,2E0,1E0,6.6E1,2E0,4.3E1,3E0,1.273E3,2E0,3.2E1,1.2E1,9.738E3,8E0,8E0,1E1,3.05E2,2.03E2,1.1E1,3E0,1.03E2,2.9E1,1.2E2,1.94E2,6E0,3E0,1.5267E4,2E1,9E0,3E0,4E0,3E0,1E0,3E0,1E0,4E0,8E0,2E0,6E0,1E0,2.5E1,3E0,1.8E1,4E0,9E0,1.8E1,8E1,5.369E3],"tree_param":{"num_deleted":"0","num_feature":"47","num_nodes":"111","size_leaf_vector":"1"}},{"base_weights":[6.132255E-5,-1.224947E-2,1.0755043E-2,-1.2035621E-2,-1.4494962E-1,2.778619E-3,1.9513818E-2,-1.6114455E-2,-4.598802E-3,-2.0560825E-1,1.4438851E-1,2.2107877E-3,1.2737796E-1,1.5931297E-2,3.667277E-2,2.7800876E-1,-1.6311366E-2,-6.381607E-3,1.1090367E-1,6.767893E-2,-2.4312568E-1,7.194312E-2,-6.277742E-2,1.9863516E-3,3.1216046E-1,5.5633496E-2,3.5325134E-1,-1.4343032E-1,1.678696E-2,3.553401E-2,4.441208E-1,2.9821837E-1,8.799614E-2,-1.5884163E-2,-1.00287214E-1,-2.276863E-2,1.4186084E-3,6.706537E-2,8.3404875E-1,-2.9487512E-1,4.392942E-3,-2.816637E-2,-8.3470346E-5,1.7827607E-3,3.142099E-1,-6.9446005E-2,1.7344174E-1,4.4109023E-1,-1.911144E-2,1.5729043E-1,7.13715E-1,1.340899E-1,-1.9942547E-1,1.7232537E-2,-1.852079E-1,3.9262492E-2,-6.8153694E-2,1.7641948E-1,-4.1339993E-2,-9.624019E-3,1.5729088E-1,-4.845223E-3,2.3415325E-2,5.9926838E-2,-3.4669023E-2,-6.9963806E-3,1.3846873E-1,8.592693E-3,-1.1817152E-3,-3.1267228E-3,7.533598E-2,3.019874E-1,8.052179E-2,-1.1024342E-1,-4.6944965E-2,-6.374692E-2,4.978702E-2,7.6991465E-4,-3.9326183E-2,-1.16462E-2,1.2618648E-1,6.6482194E-2,-5.928335E-2,1.7181733E-1,-7.205236E-2,2.972308E-2,-6.520796E-2,5.656457E-3,7.011088E-2,2.5324565E-1,2.8794982E-2,7.390425E-2,-6.29881E-2,-1.7430243E-1,-4.5125283E-2,6.251392E-2,5.0420403E-3,5.946222E-2,-9.081711E-2,1.10014845E-2,1.0655219E-1,-3.467045E-2,8.9298464E-2],"categories":[],"categories_nodes":[],"categories_segments":[],"categories_sizes":[],"default_left":[0,0,0,0,0,0,0,0,0,0,0,0,0,0,0,0,0,0,0,0,0,0,0,0,0,0,0,0,0,0,0,0,0,0,0,0,0,0,0,0,0,0,0,0,0,0,0,0,0,0,0,0,0,0,0,0,0,0,0,0,0,0,0,0,0,0,0,0,0,0,0,0,0,0,0,0,0,0,0,0,0,0,0,0,0,0,0,0,0,0,0,0,0,0,0,0,0,0,0,0,0,0,0],"id":11,"left_children":[1,3,5,7,9,11,13,15,17,19,21,23,25,27,29,31,33,35,37,-1,39,-1,41,43,45,47,49,51,53,55,57,-1,59,61,63,65,67,69,71,73,75,-1,-1,77,79,81,-1,83,85,87,89,91,93,95,97,99,101,-1,-1,-1,-1,-1,-1,-1,-1,-1,-1,-1,-1,-1,-1,-1,-1,-1,-1,-1,-1,-1,-1,-1,-1,-1,-1,-1,-1,-1,-1,-1,-1,-1,-1,-1,-1,-1,-1,-1,-1,-1,-1,-1,-1,-1,-1],"loss_changes":[6.5286965E0,6.524472E-1,1.854059E0,6.9811344E-1,6.790689E-1,9.8252594E-1,7.7697897E-1,8.65401E-1,1.6797665E0,5.563569E-1,1.5343179E-1,9.613794E-1,1.0012724E0,1.4295521E0,9.975641E-1,1.2731166E0,5.313275E-1,1.0265732E0,3.8750443E0,0E0,3.727548E-1,0E0,5.807014E-3,8.7792045E-1,1.0551411E0,1.4201658E0,9.472915E-1,8.969691E-1,9.402249E-1,8.45073E-1,5.8361983E-1,0E0,4.8833022E-1,3.7139606E-1,3.6684853E-1,7.040018E-1,7.9385746E-1,1.6855304E0,4.1313028E-1,1.8363976E-1,2.4550644E-1,0E0,0E0,1.4384392E0,3.5442793E-1,2.3030654E-1,0E0,8.549757E-1,1.0056229E0,1.11953825E-1,3.2185102E-1,4.379457E-1,7.9153204E-1,8.4193873E-1,1.0963211E0,1.7090755E0,1.3526152E0,0E0,0E0,0E0,0E0,0E0,0E0,0E0,0E0,0E0,0E0,0E0,0E0,0E0,0E0,0E0,0E0,0E0,0E0,0E0,0E0,0E0,0E0,0E0,0E0,0E0,0E0,0E0,0E0,0E0,0E0,0E0,0E0,0E0,0E0,0E0,0E0,0E0,0E0,0E0,0E0,0E0,0E0,0E0,0E0,0E0,0E0],"parents":[2147483647,0,0,1,1,2,2,3,3,4,4,5,5,6,6,7,7,8,8,9,9,10,10,11,11,12,12,13,13,14,14,15,15,16,16,17,17,18,18,20,20,22,22,23,23,24,24,25,25,26,26,27,27,28,28,29,29,30,30,32,32,33,33,34,34,35,35,36,36,37,37,38,38,39,39,40,40,43,43,44,44,45,45,47,47,48,48,49,49,50,50,51,51,52,52,53,53,54,54,55,55,56,56],"right_children":[2,4,6,8,10,12,14,16,18,20,22,24,26,28,30,32,34,36,38,-1,40,-1,42,44,46,48,50,52,54,56,58,-1,60,62,64,66,68,70,72,74,76,-1,-1,78,80,82,-1,84,86,88,90,92,94,96,98,100,102,-1,-1,-1,-1,-1,-1,-1,-1,-1,-1,-1,-1,-1,-1,-1,-1,-1,-1,-1,-1,-1,-1,-1,-1,-1,-1,-1,-1,-1,-1,-1,-1,-1,-1,-1,-1,-1,-1,-1,-1,-1,-1,-1,-1,-1,-1],"split_conditions":[1.2E1,1E0,3E0,2.8E1,5.5E1,8.8E1,1E1,0E0,3.32E2,2E0,2.4E0,2.7E1,1.4E1,3.82E2,6E0,-1.618E3,1.6666666E0,4.7E1,8.6E2,6.767893E-2,1.84E2,7.194312E-2,-1.876E3,7E1,8.6E1,3E0,1.7E1,7E0,3E0,1E1,2.376E3,2.9821837E-1,3E0,8.5E1,1.8E1,4.0846E4,2E0,1.229771E0,3.62E2,6.3991326E-1,4E0,-2.816637E-2,-8.3470346E-5,7.7E0,1E0,1E0,1.7344174E-1,1.023E3,1.1E1,8.1E1,4.495E3,1E0,4.1E1,1.0682E4,9.4E1,4.185306E6,1E0,1.7641948E-1,-4.1339993E-2,-9.624019E-3,1.5729088E-1,-4.845223E-3,2.3415325E-2,5.9926838E-2,-3.4669023E-2,-6.9963806E-3,1.3846873E-1,8.592693E-3,-1.1817152E-3,-3.1267228E-3,7.533598E-2,3.019874E-1,8.052179E-2,-1.1024342E-1,-4.6944965E-2,-6.374692E-2,4.978702E-2,7.6991465E-4,-3.9326183E-2,-1.16462E-2,1.2618648E-1,6.6482194E-2,-5.928335E-2,1.7181733E-1,-7.205236E-2,2.972308E-2,-6.520796E-2,5.656457E-3,7.011088E-2,2.5324565E-1,2.8794982E-2,7.390425E-2,-6.29881E-2,-1.7430243E-1,-4.5125283E-2,6.251392E-2,5.0420403E-3,5.946222E-2,-9.081711E-2,1.10014845E-2,1.0655219E-1,-3.467045E-2,8.9298464E-2],"split_indices":[30,25,2,4,10,15,21,34,6,21,16,34,3,8,29,0,34,10,39,0,0,0,0,26,30,3,46,4,25,2,0,0,19,15,38,0,3,41,6,40,3,0,0,17,3,0,0,0,46,30,0,24,8,33,36,33,22,0,0,0,0,0,0,0,0,0,0,0,0,0,0,0,0,0,0,0,0,0,0,0,0,0,0,0,0,0,0,0,0,0,0,0,0,0,0,0,0,0,0,0,0,0,0],"split_type":[0,0,0,0,0,0,0,0,0,0,0,0,0,0,0,0,0,0,0,0,0,0,0,0,0,0,0,0,0,0,0,0,0,0,0,0,0,0,0,0,0,0,0,0,0,0,0,0,0,0,0,0,0,0,0,0,0,0,0,0,0,0,0,0,0,0,0,0,0,0,0,0,0,0,0,0,0,0,0,0,0,0,0,0,0,0,0,0,0,0,0,0,0,0,0,0,0,0,0,0,0,0,0],"sum_hessian":[4.959E4,2.3052E4,2.6538E4,2.3016E4,3.6E1,1.389E4,1.2648E4,1.4863E4,8.153E3,3E1,6E0,1.3828E4,6.2E1,1.0465E4,2.183E3,9E0,1.4854E4,8.03E3,1.23E2,2E0,2.8E1,4E0,2E0,1.3819E4,9E0,4.8E1,1.4E1,5.5E1,1.041E4,2.178E3,5E0,1E0,8E0,1.478E4,7.4E1,2.589E3,5.441E3,1.17E2,6E0,2.3E1,5E0,1E0,1E0,1.3811E4,8E0,4E0,5E0,7E0,4.1E1,1E1,4E0,9E0,4.6E1,1.0388E4,2.2E1,2.103E3,7.5E1,4E0,1E0,7E0,1E0,1.4739E4,4.1E1,3E0,7.1E1,2.587E3,2E0,8.94E2,4.547E3,8.3E1,3.4E1,4E0,2E0,1.4E1,9E0,2E0,3E0,1.3731E4,8E1,2E0,6E0,1E0,3E0,6E0,1E0,2.6E1,1.5E1,4E0,6E0,3E0,1E0,7E0,2E0,4E0,4.2E1,2.2E1,1.0366E4,5E0,1.7E1,2.087E3,1.6E1,6.7E1,8E0],"tree_param":{"num_deleted":"0","num_feature":"47","num_nodes":"103","size_leaf_vector":"1"}},{"base_weights":[7.9952646E-5,-6.5294374E-3,1.045009E-2,-2.8120037E-2,-4.7341054E-3,3.62687E-2,8.109911E-3,-2.1576209E-2,-1.308771E-1,-1.0068322E-2,1.3997053E-3,6.524768E-2,-4.664542E-2,-1.9539721E-2,1.0242784E-2,-2.3720821E-2,2.5357273E-1,-4.59291E-1,-1.0731526E-1,-1.0241647E-2,2.5002605E-1,1.10057555E-1,3.8796334E-4,2.683657E-1,5.646763E-2,1.842021E-1,-8.085788E-2,-1.4033045E-2,-1.6229759E-1,3.4796318E-1,1.0036547E-2,-1.6680923E-1,-2.026904E-2,3.7395588E-1,-1.298602E-1,-1.7248167E-1,-1.7099644E-1,-1.5736184E-1,4.6076454E-2,-1.0315439E-2,1.08240396E-1,-8.190468E-2,5.983377E-1,2.9899797E-1,3.7954245E-2,-5.894556E-2,1.609367E-3,5.4730606E-1,5.6054443E-4,6.857151E-2,-6.884527E-2,6.582777E-3,5.7039815E-1,1.2687843E-3,-1.3302512E-1,-1.5454907E-2,3.3513907E-1,-5.691474E-2,-2.4522549E-1,4.3379262E-1,9.2908146E-4,-2.0626214E-1,1.0365638E-2,-2.8093005E-2,-1.00849345E-1,4.888644E-2,-6.548073E-3,-2.741572E-2,1.8472959E-1,-1.2482295E-2,-6.007705E-2,-3.5723E-2,-1.3584542E-1,-2.4067631E-2,1.5799755E-1,-3.0166411E-3,-3.36122E-2,-7.530265E-2,1.9619886E-2,2.336881E-2,2.1269225E-1,-2.979009E-2,1.2301542E-1,-5.2316964E-2,3.609244E-2,-1.4855805E-2,-1.9495293E-1,-5.941237E-2,6.06316E-4,6.2005848E-2,2.6121065E-1,-2.4216723E-2,1.4033923E-1,1.322269E-2,4.2370938E-2,6.292537E-2,-4.752138E-2,-4.8515536E-2,6.719914E-2,3.4275874E-1,1.0985683E-1,2.1031413E-2,-5.2804638E-2,-3.1467758E-2,-1.4660296E-1,-4.668275E-2,-3.5354022E-3,1.398116E-1,-2.8268911E-2,4.2639866E-2,-5.4242577E-2,-3.1391073E-2,-1.024044E-1,1.5545867E-1,-2.3554185E-2,-7.8525126E-2,8.6370565E-2,2.181667E-3,7.5820754E-3],"categories":[],"categories_nodes":[],"categories_segments":[],"categories_sizes":[],"default_left":[0,0,0,0,0,0,0,0,0,0,0,0,0,0,0,0,0,0,0,0,0,0,0,0,0,0,0,0,0,0,0,0,0,0,0,0,0,0,0,0,0,0,0,0,0,0,0,0,0,0,0,0,0,0,0,0,0,0,0,0,0,0,0,0,0,0,0,0,0,0,0,0,0,0,0,0,0,0,0,0,0,0,0,0,0,0,0,0,0,0,0,0,0,0,0,0,0,0,0,0,0,0,0,0,0,0,0,0,0,0,0,0,0,0,0,0,0,0,0],"id":12,"left_children":[1,3,5,7,9,11,13,15,17,19,21,23,25,27,29,31,33,35,37,39,41,43,45,47,49,51,53,55,57,59,61,63,65,67,-1,-1,69,71,73,75,-1,77,79,81,83,85,87,89,91,93,95,97,99,101,103,105,107,109,111,113,-1,115,117,-1,-1,-1,-1,-1,-1,-1,-1,-1,-1,-1,-1,-1,-1,-1,-1,-1,-1,-1,-1,-1,-1,-1,-1,-1,-1,-1,-1,-1,-1,-1,-1,-1,-1,-1,-1,-1,-1,-1,-1,-1,-1,-1,-1,-1,-1,-1,-1,-1,-1,-1,-1,-1,-1,-1,-1],"loss_changes":[3.3990493E0,1.1738993E0,1.1660566E0,1.5605632E0,9.149702E-1,3.8570807E0,1.0440835E0,1.2965375E0,1.0262988E0,6.768385E-1,1.4299749E0,2.1052914E0,3.3004045E0,9.945246E-1,1.1411443E0,1.0688975E0,1.5666822E0,2.017535E-1,1.0129023E0,4.1299522E-1,1.2051603E0,1.6234393E0,9.34163E-1,3.660075E0,1.7353575E0,3.7004228E0,1.5553775E0,6.1187136E-1,3.967843E-1,2.946533E-1,1.1713039E0,6.0046303E-1,6.089731E-1,1.7441318E0,0E0,0E0,6.811656E-3,1.0659275E0,2.0452993E0,3.9412582E-1,0E0,1.6587451E-1,2.3267269E-1,1.5003867E0,1.5598685E0,1.4160002E0,1.0385032E0,2.4637613E0,1.0251998E0,1.8467464E0,2.5532675E0,1.4266864E0,1.5677981E0,1.74524E0,2.1699395E0,6.247039E-1,3.2493567E-1,5.6823593E-1,3.1563926E-1,3.8660693E-1,0E0,7.608659E-1,7.561722E-1,0E0,0E0,0E0,0E0,0E0,0E0,0E0,0E0,0E0,0E0,0E0,0E0,0E0,0E0,0E0,0E0,0E0,0E0,0E0,0E0,0E0,0E0,0E0,0E0,0E0,0E0,0E0,0E0,0E0,0E0,0E0,0E0,0E0,0E0,0E0,0E0,0E0,0E0,0E0,0E0,0E0,0E0,0E0,0E0,0E0,0E0,0E0,0E0,0E0,0E0,0E0,0E0,0E0,0E0,0E0,0E0],"parents":[2147483647,0,0,1,1,2,2,3,3,4,4,5,5,6,6,7,7,8,8,9,9,10,10,11,11,12,12,13,13,14,14,15,15,16,16,17,17,18,18,19,19,20,20,21,21,22,22,23,23,24,24,25,25,26,26,27,27,28,28,29,29,30,30,31,31,32,32,33,33,36,36,37,37,38,38,39,39,41,41,42,42,43,43,44,44,45,45,46,46,47,47,48,48,49,49,50,50,51,51,52,52,53,53,54,54,55,55,56,56,57,57,58,58,59,59,61,61,62,62],"right_children":[2,4,6,8,10,12,14,16,18,20,22,24,26,28,30,32,34,36,38,40,42,44,46,48,50,52,54,56,58,60,62,64,66,68,-1,-1,70,72,74,76,-1,78,80,82,84,86,88,90,92,94,96,98,100,102,104,106,108,110,112,114,-1,116,118,-1,-1,-1,-1,-1,-1,-1,-1,-1,-1,-1,-1,-1,-1,-1,-1,-1,-1,-1,-1,-1,-1,-1,-1,-1,-1,-1,-1,-1,-1,-1,-1,-1,-1,-1,-1,-1,-1,-1,-1,-1,-1,-1,-1,-1,-1,-1,-1,-1,-1,-1,-1,-1,-1,-1,-1],"split_conditions":[3.6912E4,3E0,5E0,2E0,3.3333334E-1,1.167E3,1.1E0,6.18E3,3E0,3.8E1,4.1836736E-1,3.82E2,3E0,7E0,1.6E1,-2.982E3,2.2E1,7.99E3,3E0,1.689E3,5.2E1,1.5E1,8E0,1E1,3.6E1,3.13E2,8E0,3.8E1,1.1E1,8.2E1,3.42233E-1,2E0,0E0,1.01E2,-1.298602E-1,-1.7248167E-1,-1.618E3,5.4E1,1.9264E4,8.893443E-1,1.08240396E-1,-1.11E2,1.21E2,6E-1,5E0,8.5E0,1.8E1,3.6E1,3.5E1,6.645E3,1.8E2,8.5724E4,3.96E2,1.97713E5,7.7E0,5E0,-4.06E2,6E-1,1.2E0,1.8E1,9.2908146E-4,1E0,3.3E1,-2.8093005E-2,-1.00849345E-1,4.888644E-2,-6.548073E-3,-2.741572E-2,1.8472959E-1,-1.2482295E-2,-6.007705E-2,-3.5723E-2,-1.3584542E-1,-2.4067631E-2,1.5799755E-1,-3.0166411E-3,-3.36122E-2,-7.530265E-2,1.9619886E-2,2.336881E-2,2.1269225E-1,-2.979009E-2,1.2301542E-1,-5.2316964E-2,3.609244E-2,-1.4855805E-2,-1.9495293E-1,-5.941237E-2,6.06316E-4,6.2005848E-2,2.6121065E-1,-2.4216723E-2,1.4033923E-1,1.322269E-2,4.2370938E-2,6.292537E-2,-4.752138E-2,-4.8515536E-2,6.719914E-2,3.4275874E-1,1.0985683E-1,2.1031413E-2,-5.2804638E-2,-3.1467758E-2,-1.4660296E-1,-4.668275E-2,-3.5354022E-3,1.398116E-1,-2.8268911E-2,4.2639866E-2,-5.4242577E-2,-3.1391073E-2,-1.024044E-1,1.5545867E-1,-2.3554185E-2,-7.8525126E-2,8.6370565E-2,2.181667E-3,7.5820754E-3],"split_indices":[33,23,23,25,34,5,17,4,3,9,40,8,46,30,30,0,26,37,29,5,38,45,46,21,9,38,21,9,46,0,40,34,34,6,0,0,0,10,33,40,0,0,5,17,21,17,36,15,0,37,36,33,4,33,17,21,0,16,28,46,0,22,3,0,0,0,0,0,0,0,0,0,0,0,0,0,0,0,0,0,0,0,0,0,0,0,0,0,0,0,0,0,0,0,0,0,0,0,0,0,0,0,0,0,0,0,0,0,0,0,0,0,0,0,0,0,0,0,0],"split_type":[0,0,0,0,0,0,0,0,0,0,0,0,0,0,0,0,0,0,0,0,0,0,0,0,0,0,0,0,0,0,0,0,0,0,0,0,0,0,0,0,0,0,0,0,0,0,0,0,0,0,0,0,0,0,0,0,0,0,0,0,0,0,0,0,0,0,0,0,0,0,0,0,0,0,0,0,0,0,0,0,0,0,0,0,0,0,0,0,0,0,0,0,0,0,0,0,0,0,0,0,0,0,0,0,0,0,0,0,0,0,0,0,0,0,0,0,0,0,0],"sum_hessian":[4.959E4,3.0287E4,1.9303E4,2.324E3,2.7963E4,1.603E3,1.77E4,2.186E3,1.38E2,1.4956E4,1.3007E4,1.188E3,4.15E2,1.267E3,1.6433E4,2.17E3,1.6E1,8E0,1.3E2,1.4947E4,9E0,1.19E2,1.2888E4,4.8E1,1.14E3,5.3E1,3.62E2,1.221E3,4.6E1,9E0,1.6424E4,5E1,2.12E3,1.4E1,2E0,5E0,3E0,9.8E1,3.2E1,1.4945E4,2E0,5E0,4E0,3.2E1,8.7E1,2.59E2,1.2629E4,2.3E1,2.5E1,1.04E3,1E2,3.7E1,1.6E1,1.41E2,2.21E2,1.217E3,4E0,2.1E1,2.5E1,7E0,2E0,2.4E1,1.64E4,3.6E1,1.4E1,1.7E1,2.103E3,5E0,9E0,1E0,2E0,8.8E1,1E1,2.6E1,6E0,1.4908E4,3.7E1,2E0,3E0,1E0,3E0,7E0,2.5E1,2.4E1,6.3E1,2.56E2,3E0,2.5E1,1.2604E4,1.2E1,1.1E1,2.2E1,3E0,7.79E2,2.61E2,2.4E1,7.6E1,2.1E1,1.6E1,3E0,1.3E1,1.02E2,3.9E1,2.06E2,1.5E1,3E1,1.187E3,3E0,1E0,8E0,1.3E1,1.1E1,1.4E1,6E0,1E0,2.2E1,2E0,1.3583E4,2.817E3],"tree_param":{"num_deleted":"0","num_feature":"47","num_nodes":"119","size_leaf_vector":"1"}},{"base_weights":[6.719574E-5,-6.5796184E-3,5.257518E-3,-6.6776024E-3,3.4954476E-1,1.7838785E-1,5.1938314E-3,-2.8442767E-1,-6.575054E-3,-7.082863E-2,2.3805833E-1,4.3968754E-3,3.7810776E-2,-9.688301E-2,-2.222711E-3,-6.818867E-3,1.0145879E-1,-7.6926355E-3,-3.0958228E-2,6.1767794E-2,3.939328E-3,3.277731E-1,3.3774998E-2,-6.1762175E-3,-6.421655E-2,-5.9809554E-2,3.592409E-1,9.16237E-2,-2.5104174E-1,-4.14429E-2,4.711009E-3,-3.091687E-2,1.5368128E-1,2.1202144E-1,2.754634E-2,-1.7364483E-3,-3.2538254E-2,8.765477E-2,-2.4294758E-2,3.977784E-2,-6.1839923E-2,6.833598E-2,2.3857439E-1,1.7060922E-1,2.2097887E-2,2.12528E-2,-8.792332E-2,8.2102255E-4,-3.8510073E-2,1.943034E-1,1.3987011E-3,-2.7574064E-2,2.2810973E-2,1.6030851E-1,2.573474E-2,-4.585671E-2,1.1023365E-2],"categories":[],"categories_nodes":[],"categories_segments":[],"categories_sizes":[],"default_left":[0,0,0,0,0,0,0,0,0,0,0,0,0,0,0,0,0,0,0,0,0,0,0,0,0,0,0,0,0,0,0,0,0,0,0,0,0,0,0,0,0,0,0,0,0,0,0,0,0,0,0,0,0,0,0,0,0],"id":13,"left_children":[1,3,5,7,9,-1,11,13,15,17,-1,19,21,-1,-1,23,25,-1,-1,27,29,31,33,35,37,39,41,43,45,47,49,51,-1,53,55,-1,-1,-1,-1,-1,-1,-1,-1,-1,-1,-1,-1,-1,-1,-1,-1,-1,-1,-1,-1,-1,-1],"loss_changes":[1.7108799E0,7.6111287E-1,1.0421515E0,6.1734486E-1,1.1760361E0,0E0,7.236438E-1,8.2963765E-2,5.7314E-1,3.203813E-3,0E0,7.1328217E-1,7.6595837E-1,0E0,0E0,7.99489E-1,2.0585186E0,0E0,0E0,2.030932E0,9.446312E-1,6.114353E-1,7.2247434E-1,8.506131E-1,1.4577523E0,9.0007436E-1,9.078381E-1,1.6464376E0,2.7784598E-1,1.7323136E0,8.268536E-1,3.308401E-2,0E0,8.493828E-1,1.0593202E0,0E0,0E0,0E0,0E0,0E0,0E0,0E0,0E0,0E0,0E0,0E0,0E0,0E0,0E0,0E0,0E0,0E0,0E0,0E0,0E0,0E0,0E0],"parents":[2147483647,0,0,1,1,2,2,3,3,4,4,6,6,7,7,8,8,9,9,11,11,12,12,15,15,16,16,19,19,20,20,21,21,22,22,23,23,24,24,25,25,26,26,27,27,28,28,29,29,30,30,31,31,33,33,34,34],"right_children":[2,4,6,8,10,-1,12,14,16,18,-1,20,22,-1,-1,24,26,-1,-1,28,30,32,34,36,38,40,42,44,46,48,50,52,-1,54,56,-1,-1,-1,-1,-1,-1,-1,-1,-1,-1,-1,-1,-1,-1,-1,-1,-1,-1,-1,-1,-1,-1],"split_conditions":[2.55E2,8.8E1,7.8E1,-1.1692E4,8E0,1.7838785E-1,8.8E1,1E0,1E0,1E0,2.3805833E-1,2E0,8.09E2,-9.688301E-2,-2.222711E-3,6.6666665E0,8.4E1,-7.6926355E-3,-3.0958228E-2,2.0333334E1,5E0,1E0,4E0,8.893443E-1,-1.811E3,3.5E1,1.5E1,7E0,2.766E3,6.78E2,2.57E2,3.59E2,1.5368128E-1,4.9E1,1E0,-1.7364483E-3,-3.2538254E-2,8.765477E-2,-2.4294758E-2,3.977784E-2,-6.1839923E-2,6.833598E-2,2.3857439E-1,1.7060922E-1,2.2097887E-2,2.12528E-2,-8.792332E-2,8.2102255E-4,-3.8510073E-2,1.943034E-1,1.3987011E-3,-2.7574064E-2,2.2810973E-2,1.6030851E-1,2.573474E-2,-4.585671E-2,1.1023365E-2],"split_indices":[4,15,8,0,3,0,15,1,22,1,0,46,8,0,0,34,30,0,0,34,46,18,21,40,0,30,46,15,37,39,4,36,0,10,29,0,0,0,0,0,0,0,0,0,0,0,0,0,0,0,0,0,0,0,0,0,0],"split_type":[0,0,0,0,0,0,0,0,0,0,0,0,0,0,0,0,0,0,0,0,0,0,0,0,0,0,0,0,0,0,0,0,0,0,0,0,0,0,0,0,0,0,0,0,0,0,0,0,0,0,0,0,0,0,0,0,0],"sum_hessian":[4.959E4,2.1744E4,2.7846E4,2.1739E4,5E0,2E0,2.7844E4,7E0,2.1732E4,3E0,2E0,2.7181E4,6.63E2,6E0,1E0,2.1684E4,4.8E1,2E0,1E0,2.14E2,2.6967E4,8E0,6.55E2,2.1445E4,2.39E2,3E1,1.8E1,1.96E2,1.8E1,4.5E2,2.6517E4,3E0,5E0,2.1E1,6.34E2,2.1365E4,8E1,1E1,2.29E2,1.3E1,1.7E1,1.5E1,3E0,6E0,1.9E2,2E0,1.6E1,2.99E2,1.51E2,1E0,2.6516E4,2E0,1E0,5E0,1.6E1,3E1,6.04E2],"tree_param":{"num_deleted":"0","num_feature":"47","num_nodes":"57","size_leaf_vector":"1"}},{"base_weights":[7.077316E-5,-2.7730481E-3,8.365939E-3,-2.6744264E-3,-2.0487039E-1,1.3570489E-1,8.052751E-3,-2.7229397E-3,3.5598654E-1,-3.5948056E-1,8.944281E-2,3.843766E-1,-1.0138424E-3,-3.187603E-1,8.207418E-3,-2.8608993E-3,1.0111768E-1,-1.4304364E-2,1.4064714E-1,-1.3932301E-1,-6.5455996E-2,1.958131E-1,-2.6640624E-1,6.0556686E-1,-2.1650852E-3,5.6656677E-2,-2.6027772E-1,-1.1237321E-1,-5.951259E-3,2.7710697E-1,8.057616E-3,-2.9296873E-3,1.6630965E-1,1.2689168E-3,2.7300894E-1,-8.905746E-2,-2.168978E-2,4.618986E-2,1.9655178E-1,-1.6706891E-1,4.903813E-2,-2.0256368E-2,7.8204565E-2,-9.4922476E-2,-1.3782925E-2,-6.487731E-2,4.2687616E-1,-1.09266974E-1,8.504886E-3,-4.75096E-3,-6.230216E-4,7.3267164E-4,1.2351113E-1,-1.411183E-2,8.146256E-2,1.1720253E-1,-3.3317406E-2,-5.436373E-3,-6.974464E-2,-4.614045E-2,1.456255E-2,-3.927802E-2,1.0083228E-2,3.286501E-2,1.4364606E-1,-9.3214E-2,-5.1539554E-3,-4.0309645E-2,2.633228E-3],"categories":[],"categories_nodes":[],"categories_segments":[],"categories_sizes":[],"default_left":[0,0,0,0,0,0,0,0,0,0,0,0,0,0,0,0,0,0,0,0,0,0,0,0,0,0,0,0,0,0,0,0,0,0,0,0,0,0,0,0,0,0,0,0,0,0,0,0,0,0,0,0,0,0,0,0,0,0,0,0,0,0,0,0,0,0,0,0,0],"id":14,"left_children":[1,3,5,7,9,11,13,15,17,19,21,23,25,27,29,31,33,-1,-1,-1,-1,-1,35,37,39,41,43,-1,-1,45,47,49,51,53,55,-1,-1,-1,-1,57,-1,59,-1,-1,-1,61,63,65,67,-1,-1,-1,-1,-1,-1,-1,-1,-1,-1,-1,-1,-1,-1,-1,-1,-1,-1,-1,-1],"loss_changes":[1.1698734E0,7.355314E-1,5.038404E-1,6.432681E-1,8.5122144E-1,1.0543303E0,6.410778E-1,5.29055E-1,2.5009793E-1,7.658279E-2,1.5769535E0,9.4180274E-1,3.28736E-1,9.267932E-2,5.0636476E-1,4.2944634E-1,8.4064686E-1,0E0,0E0,0E0,0E0,0E0,8.092046E-3,5.5939436E-2,1.6387056E-1,2.8774005E-1,3.3586085E-2,0E0,0E0,3.8622552E-1,6.631732E-1,4.0562215E-1,6.0217595E-1,4.3057922E-1,8.5683763E-1,0E0,0E0,0E0,0E0,2.5016569E-2,0E0,1.3609311E-1,0E0,0E0,0E0,2.3915786E-2,2.9961228E-2,8.850915E-1,4.907465E-1,0E0,0E0,0E0,0E0,0E0,0E0,0E0,0E0,0E0,0E0,0E0,0E0,0E0,0E0,0E0,0E0,0E0,0E0,0E0,0E0],"parents":[2147483647,0,0,1,1,2,2,3,3,4,4,5,5,6,6,7,7,8,8,9,9,10,10,11,11,12,12,13,13,14,14,15,15,16,16,22,22,23,23,24,24,25,25,26,26,29,29,30,30,31,31,32,32,33,33,34,34,39,39,41,41,45,45,46,46,47,47,48,48],"right_children":[2,4,6,8,10,12,14,16,18,20,22,24,26,28,30,32,34,-1,-1,-1,-1,-1,36,38,40,42,44,-1,-1,46,48,50,52,54,56,-1,-1,-1,-1,58,-1,60,-1,-1,-1,62,64,66,68,-1,-1,-1,-1,-1,-1,-1,-1,-1,-1,-1,-1,-1,-1,-1,-1,-1,-1,-1,-1],"split_conditions":[3E0,1E0,1.1E1,7.26318E5,5.4735154E-1,3.5154E4,2.8E1,4E0,2E0,9E0,4.7E1,1.5E1,1.9666666E1,8E0,3.7E1,2.7E1,5.1E1,-1.4304364E-2,1.4064714E-1,-1.3932301E-1,-6.5455996E-2,1.958131E-1,-4E1,7E0,2.4E0,7.7E0,8E0,-1.1237321E-1,-5.951259E-3,1.4E1,2.18E2,8.2E1,8.6E1,1.6E1,1.1E1,-8.905746E-2,-2.168978E-2,4.618986E-2,1.9655178E-1,9E0,4.903813E-2,3.5555556E-1,7.8204565E-2,-9.4922476E-2,-1.3782925E-2,-2.57E2,3.9E1,3.5E1,1.7910448E-1,-4.75096E-3,-6.230216E-4,7.3267164E-4,1.2351113E-1,-1.411183E-2,8.146256E-2,1.1720253E-1,-3.3317406E-2,-5.436373E-3,-6.974464E-2,-4.614045E-2,1.456255E-2,-3.927802E-2,1.0083228E-2,3.286501E-2,1.4364606E-1,-9.3214E-2,-5.1539554E-3,-4.0309645E-2,2.633228E-3],"split_indices":[2,13,6,0,40,33,4,25,46,46,15,26,34,2,4,34,10,0,0,0,0,0,0,3,16,17,2,0,0,45,8,38,30,3,21,0,0,0,0,2,0,40,0,0,0,0,5,15,40,0,0,0,0,0,0,0,0,0,0,0,0,0,0,0,0,0,0,0,0],"split_type":[0,0,0,0,0,0,0,0,0,0,0,0,0,0,0,0,0,0,0,0,0,0,0,0,0,0,0,0,0,0,0,0,0,0,0,0,0,0,0,0,0,0,0,0,0,0,0,0,0,0,0,0,0,0,0,0,0,0,0,0,0,0,0,0,0,0,0,0,0],"sum_hessian":[4.959E4,3.693E4,1.266E4,3.6913E4,1.7E1,3E1,1.263E4,3.6909E4,4E0,1.1E1,6E0,1E1,2E1,5E0,1.2625E4,3.6861E4,4.8E1,1E0,3E0,5E0,6E0,2E0,4E0,6E0,4E0,1.7E1,3E0,4E0,1E0,6E0,1.2619E4,3.6847E4,1.4E1,3.1E1,1.7E1,3E0,1E0,1E0,5E0,2E0,2E0,1.3E1,4E0,2E0,1E0,2E0,4E0,4.7E1,1.2572E4,2.283E3,3.4564E4,9E0,5E0,2.7E1,4E0,1.3E1,4E0,1E0,1E0,4E0,9E0,1E0,1E0,1E0,3E0,1.4E1,3.3E1,2.3E1,1.2549E4],"tree_param":{"num_deleted":"0","num_feature":"47","num_nodes":"69","size_leaf_vector":"1"}},{"base_weights":[5.607473E-5,-2.5760515E-3,5.406602E-3,-2.643693E-3,2.7873713E-1,5.401617E-2,4.033922E-3,-2.563468E-3,-2.074528E-1,-2.7897514E-2,1.5611185E-1,4.48865E-2,4.134623E-1,-1.5198006E-1,4.407307E-3,-2.4262585E-3,-1.05967216E-1,-1.6914293E-1,1.3573598E-2,5.200293E-2,-4.7734946E-1,5.0243664E-1,8.71855E-3,7.469475E-3,-3.1182274E-1,4.5164833E-3,-1.7232674E-1,-2.6019225E-3,8.710233E-2,-2.9702675E-1,3.0989852E-3,5.5110373E-2,-4.780809E-2,1.6276453E-1,2.3361929E-2,2.7524384E-2,-1.8285556E-1,5.5871254E-1,6.109418E-2,3.3442393E-2,-2.9519044E-2,-9.0473816E-2,2.02289E-1,-3.990207E-1,-5.6390345E-2,3.9924574E-3,1.0658103E-1,-7.4740936E-4,-3.8594183E-2,9.892598E-2,-6.0874787E-3,-1.05292134E-1,7.682678E-2,2.8917804E-2,-6.447919E-2,3.420909E-2,-9.1429445E-4,3.706395E-2,2.3907547E-1,2.6730686E-2,-2.3641223E-2,4.1699216E-2,1.8164966E-1,-5.8581937E-2,-3.166492E-3,1.1421109E-2,7.810872E-2,-7.526688E-2,-1.6641417E-1,-4.8370216E-2,3.0659413E-2,-2.5352143E-2,1.3822586E-3,6.506076E-2,-1.812297E-2],"categories":[],"categories_nodes":[],"categories_segments":[],"categories_sizes":[],"default_left":[0,0,0,0,0,0,0,0,0,0,0,0,0,0,0,0,0,0,0,0,0,0,0,0,0,0,0,0,0,0,0,0,0,0,0,0,0,0,0,0,0,0,0,0,0,0,0,0,0,0,0,0,0,0,0,0,0,0,0,0,0,0,0,0,0,0,0,0,0,0,0,0,0,0,0],"id":15,"left_children":[1,3,5,7,9,11,13,15,17,-1,-1,19,21,23,25,27,29,-1,31,33,35,37,39,41,43,45,-1,47,49,51,53,55,-1,57,59,-1,-1,61,-1,-1,-1,63,65,67,69,71,73,-1,-1,-1,-1,-1,-1,-1,-1,-1,-1,-1,-1,-1,-1,-1,-1,-1,-1,-1,-1,-1,-1,-1,-1,-1,-1,-1,-1],"loss_changes":[6.9841707E-1,6.332423E-1,1.0908754E0,5.4551494E-1,7.6697403E-1,1.4548903E0,9.271296E-1,4.7108075E-1,1.0315888E0,0E0,0E0,1.6563469E0,3.9174914E-1,9.7082925E-1,1.0053014E0,5.220149E-1,9.177985E-1,0E0,7.343044E-2,1.3729856E0,5.0722444E-1,3.755164E-2,4.398901E-2,3.9992717E-1,4.006896E-1,8.481052E-1,0E0,4.6113312E-1,1.7005415E0,5.67304E-1,6.1060053E-1,2.7760854E-2,0E0,2.1149967E0,2.330906E0,0E0,0E0,5.3295612E-2,0E0,0E0,0E0,1.1519506E-1,5.684504E-2,1.8370986E-1,1.1623977E-1,8.596223E-1,1.5048878E0,0E0,0E0,0E0,0E0,0E0,0E0,0E0,0E0,0E0,0E0,0E0,0E0,0E0,0E0,0E0,0E0,0E0,0E0,0E0,0E0,0E0,0E0,0E0,0E0,0E0,0E0,0E0,0E0],"parents":[2147483647,0,0,1,1,2,2,3,3,4,4,5,5,6,6,7,7,8,8,11,11,12,12,13,13,14,14,15,15,16,16,18,18,19,19,20,20,21,21,22,22,23,23,24,24,25,25,27,27,28,28,29,29,30,30,31,31,33,33,34,34,37,37,41,41,42,42,43,43,44,44,45,45,46,46],"right_children":[2,4,6,8,10,12,14,16,18,-1,-1,20,22,24,26,28,30,-1,32,34,36,38,40,42,44,46,-1,48,50,52,54,56,-1,58,60,-1,-1,62,-1,-1,-1,64,66,68,70,72,74,-1,-1,-1,-1,-1,-1,-1,-1,-1,-1,-1,-1,-1,-1,-1,-1,-1,-1,-1,-1,-1,-1,-1,-1,-1,-1,-1,-1],"split_conditions":[8.5724E4,8E1,1E0,1.3E1,1E0,1.0066E4,1.2E1,2.2E1,3.6E1,-2.7897514E-2,1.5611185E-1,9.62E3,3.62E2,8E0,8.7E1,1.9E1,2.3666666E1,-1.6914293E-1,3.5E1,7.511E3,-9.99E3,2.7666666E1,-7.5089E4,2.2E0,2.3026E4,3.5E1,-1.7232674E-1,1.8E1,1.4E1,2E1,5.4735154E-1,8.2E1,-4.780809E-2,1E0,2.6E1,2.7524384E-2,-1.8285556E-1,3E0,6.109418E-2,3.3442393E-2,-2.9519044E-2,1.8E3,-5.4696E4,5E-1,3.16E2,5.2E1,2E0,-7.4740936E-4,-3.8594183E-2,9.892598E-2,-6.0874787E-3,-1.05292134E-1,7.682678E-2,2.8917804E-2,-6.447919E-2,3.420909E-2,-9.1429445E-4,3.706395E-2,2.3907547E-1,2.6730686E-2,-2.3641223E-2,4.1699216E-2,1.8164966E-1,-5.8581937E-2,-3.166492E-3,1.1421109E-2,7.810872E-2,-7.526688E-2,-1.6641417E-1,-4.8370216E-2,3.0659413E-2,-2.5352143E-2,1.3822586E-3,6.506076E-2,-1.812297E-2],"split_indices":[33,26,23,2,1,37,45,34,15,0,0,37,6,3,26,34,34,0,0,4,0,34,0,28,0,9,0,34,3,26,40,30,0,0,9,0,0,3,0,0,0,4,0,35,36,39,19,0,0,0,0,0,0,0,0,0,0,0,0,0,0,0,0,0,0,0,0,0,0,0,0,0,0,0,0],"split_type":[0,0,0,0,0,0,0,0,0,0,0,0,0,0,0,0,0,0,0,0,0,0,0,0,0,0,0,0,0,0,0,0,0,0,0,0,0,0,0,0,0,0,0,0,0,0,0,0,0,0,0,0,0,0,0,0,0,0,0,0,0,0,0,0,0,0,0,0,0,0,0,0,0,0,0],"sum_hessian":[4.959E4,3.3239E4,1.6351E4,3.3232E4,7E0,4.48E2,1.5903E4,3.322E4,1.2E1,3E0,4E0,4.38E2,1E1,3.7E1,1.5866E4,3.3177E4,4.3E1,4E0,8E0,4.33E2,5E0,8E0,2E0,1.9E1,1.8E1,1.5864E4,2E0,3.3113E4,6.4E1,1.5E1,2.8E1,7E0,1E0,8.8E1,3.45E2,1E0,4E0,6E0,2E0,1E0,1E0,1.3E1,6E0,1.3E1,5E0,1.5784E4,8E1,3.3085E4,2.8E1,1.9E1,4.5E1,1.4E1,1E0,2E1,8E0,3E0,4E0,8.4E1,4E0,2.1E2,1.35E2,1E0,5E0,5E0,8E0,2E0,4E0,8E0,5E0,3E0,2E0,1.08E2,1.5676E4,4.8E1,3.2E1],"tree_param":{"num_deleted":"0","num_feature":"47","num_nodes":"75","size_leaf_vector":"1"}},{"base_weights":[3.85544E-5,9.896819E-5,-2.1390666E-1,-6.8472894E-3,1.6727473E-3,1.3092431E-1,-3.649315E-1,-6.068581E-3,-1.8420218E-1,1.133348E-3,2.5493043E-2,5.4784987E-2,-1.1376733E-2,-4.7924575E-1,6.155042E-2,-4.8959047E-2,-4.330739E-3,1.22800924E-1,-2.0991692E-1,1.3906057E-3,-4.75037E-2,1.75978E-1,1.7505597E-2,-1.5883018E-1,-1.9189328E-2,3.3715673E-2,-6.0179834E-3,-5.580506E-2,4.4142276E-1,3.0205563E-1,-4.5751017E-3,-3.167395E-1,-6.7693956E-2,-1.04372986E-1,1.541411E-3,4.4468135E-2,-1.4351824E-1,-7.071306E-2,2.8966793E-1,-7.5900406E-2,3.061152E-2,-2.6775124E-2,1.6134414E-3,1.9650055E-1,2.4210846E-2,2.0205566E-1,5.629964E-3,-1.2664297E-3,-4.7670025E-2,-3.7799448E-2,-1.317297E-1,6.2136862E-2,-7.842202E-2,-7.110409E-2,1.1019729E-2,5.6991115E-2,4.2928054E-4,-6.6584325E-3,5.838817E-2,-1.2880474E-1,-2.0570226E-2,-6.1527207E-3,-2.8129246E-2,1.3657747E-1,2.480633E-2,-6.706566E-2,3.3572788E-4,3.7581097E-2,5.480465E-3],"categories":[],"categories_nodes":[],"categories_segments":[],"categories_sizes":[],"default_left":[0,0,0,0,0,0,0,0,0,0,0,0,0,0,0,0,0,0,0,0,0,0,0,0,0,0,0,0,0,0,0,0,0,0,0,0,0,0,0,0,0,0,0,0,0,0,0,0,0,0,0,0,0,0,0,0,0,0,0,0,0,0,0,0,0,0,0,0,0],"id":16,"left_children":[1,3,5,7,9,11,13,15,17,19,21,-1,-1,23,25,27,29,-1,31,33,35,37,39,-1,-1,-1,-1,41,43,45,47,49,51,53,55,57,59,61,63,65,67,-1,-1,-1,-1,-1,-1,-1,-1,-1,-1,-1,-1,-1,-1,-1,-1,-1,-1,-1,-1,-1,-1,-1,-1,-1,-1,-1,-1],"loss_changes":[6.409967E-1,5.41992E-1,7.7687097E-1,1.263673E0,5.193264E-1,5.0565645E-2,5.170275E-1,6.794896E-1,6.964344E-1,4.9463794E-1,1.072701E0,0E0,0E0,1.3287258E-1,1.4700474E-2,1.2164252E0,6.5761244E-1,0E0,5.710709E-1,6.273035E-1,1.8431536E0,1.2825665E0,1.0440936E0,0E0,0E0,0E0,0E0,7.187289E-1,3.323506E-1,7.2398067E-1,4.7739628E-1,4.5813298E-1,1.0123829E0,1.0568196E0,8.171025E-1,1.0753943E0,2.1557329E0,1.5435837E-2,1.0248466E0,1.1943171E0,8.7050813E-1,0E0,0E0,0E0,0E0,0E0,0E0,0E0,0E0,0E0,0E0,0E0,0E0,0E0,0E0,0E0,0E0,0E0,0E0,0E0,0E0,0E0,0E0,0E0,0E0,0E0,0E0,0E0,0E0],"parents":[2147483647,0,0,1,1,2,2,3,3,4,4,5,5,6,6,7,7,8,8,9,9,10,10,13,13,14,14,15,15,16,16,18,18,19,19,20,20,21,21,22,22,27,27,28,28,29,29,30,30,31,31,32,32,33,33,34,34,35,35,36,36,37,37,38,38,39,39,40,40],"right_children":[2,4,6,8,10,12,14,16,18,20,22,-1,-1,24,26,28,30,-1,32,34,36,38,40,-1,-1,-1,-1,42,44,46,48,50,52,54,56,58,60,62,64,66,68,-1,-1,-1,-1,-1,-1,-1,-1,-1,-1,-1,-1,-1,-1,-1,-1,-1,-1,-1,-1,-1,-1,-1,-1,-1,-1,-1,-1],"split_conditions":[1.14E2,4.8E1,7.1E1,3E0,8.4E1,1E0,3E0,1E0,1.7E1,1.9E1,1E0,5.4784987E-2,-1.1376733E-2,-1.5621E4,-6.125E4,4.0846E4,0E0,1.22800924E-1,6E0,0E0,2E0,1.399E3,7E0,-1.5883018E-1,-1.9189328E-2,3.3715673E-2,-6.0179834E-3,2.42E2,7E2,-1.2481E4,7.5E0,-1.037E3,4.837E3,5.25E3,0E0,3.3333334E-1,2.4E0,2.3E1,1.1E1,9E-1,4.11E2,-2.6775124E-2,1.6134414E-3,1.9650055E-1,2.4210846E-2,2.0205566E-1,5.629964E-3,-1.2664297E-3,-4.7670025E-2,-3.7799448E-2,-1.317297E-1,6.2136862E-2,-7.842202E-2,-7.110409E-2,1.1019729E-2,5.6991115E-2,4.2928054E-4,-6.6584325E-3,5.838817E-2,-1.2880474E-1,-2.0570226E-2,-6.1527207E-3,-2.8129246E-2,1.3657747E-1,2.480633E-2,-6.706566E-2,3.3572788E-4,3.7581097E-2,5.480465E-3],"split_indices":[10,10,6,25,15,1,19,19,30,21,34,0,0,0,0,0,3,0,26,3,3,33,46,0,0,0,0,6,5,0,17,0,37,8,34,34,16,4,21,17,4,0,0,0,0,0,0,0,0,0,0,0,0,0,0,0,0,0,0,0,0,0,0,0,0,0,0,0,0],"split_type":[0,0,0,0,0,0,0,0,0,0,0,0,0,0,0,0,0,0,0,0,0,0,0,0,0,0,0,0,0,0,0,0,0,0,0,0,0,0,0,0,0,